Clone name,vh_0,vh_1,vh_2,vh_3,vh_4,vh_5,vh_6,vh_7,vh_8,vh_9,vh_10,vh_11,vh_12,vh_13,vh_14,vh_15,vh_16,vh_17,vh_18,vh_19,vh_20,vh_21,vh_22,vh_23,vh_24,vh_25,vh_26,vh_27,vh_28,vh_29,vh_30,vh_31,vh_32,vh_33,vh_34,vh_35,vh_36,vh_37,vh_38,vh_39,vh_40,vh_41,vh_42,vh_43,vh_44,vh_45,vh_46,vh_47,vh_48,vh_49,vh_50,vh_51,vh_52,vh_53,vh_54,vh_55,vh_56,vh_57,vh_58,vh_59,vh_60,vh_61,vh_62,vh_63,vh_64,vh_65,vh_66,vh_67,vh_68,vh_69,vh_70,vh_71,vh_72,vh_73,vh_74,vh_75,vh_76,vh_77,vh_78,vh_79,vh_80,vh_81,vh_82,vh_83,vh_84,vh_85,vh_86,vh_87,vh_88,vh_89,vh_90,vh_91,vh_92,vh_93,vh_94,vh_95,vh_96,vh_97,vh_98,vh_99,vh_100,vh_101,vh_102,vh_103,vh_104,vh_105,vh_106,vh_107,vh_108,vh_109,vh_110,vh_111,vh_112,vh_113,vh_114,vh_115,vh_116,vh_117,vh_118,vh_119,vh_120,vh_121,vh_122,vh_123,vh_124,vh_125,vh_126,vh_127,vh_128,vh_129,vh_130,vh_131,vh_132,vh_133,vh_134,vh_135,vh_136,vh_137,vh_138,vh_139,vh_140,vh_141,vh_142,vh_143,vh_144,vh_145,vh_146,vh_147,vh_148,vh_149,vh_150,vh_151,vh_152,vh_153,vh_154,vh_155,vh_156,vh_157,vh_158,vh_159,vh_160,vh_161,vh_162,vh_163,vh_164,vh_165,vh_166,vh_167,vh_168,vh_169,vh_170,vh_171,vh_172,vh_173,vh_174,vh_175,vh_176,vh_177,vh_178,vh_179,vh_180,vh_181,vh_182,vh_183,vh_184,vh_185,vh_186,vh_187,vh_188,vh_189,vh_190,vh_191,vh_192,vh_193,vh_194,vh_195,vh_196,vh_197,vh_198,vh_199,vh_200,vh_201,vh_202,vh_203,vh_204,vh_205,vh_206,vh_207,vh_208,vh_209,vh_210,vh_211,vh_212,vh_213,vh_214,vh_215,vh_216,vh_217,vh_218,vh_219,vh_220,vh_221,vh_222,vh_223,vh_224,vh_225,vh_226,vh_227,vh_228,vh_229,vh_230,vh_231,vh_232,vh_233,vh_234,vh_235,vh_236,vh_237,vh_238,vh_239,vh_240,vh_241,vh_242,vh_243,vh_244,vh_245,vh_246,vh_247,vh_248,vh_249,vh_250,vh_251,vh_252,vh_253,vh_254,vh_255,vh_256,vh_257,vh_258,vh_259,vh_260,vh_261,vh_262,vh_263,vh_264,vh_265,vh_266,vh_267,vh_268,vh_269,vh_270,vh_271,vh_272,vh_273,vh_274,vh_275,vh_276,vh_277,vh_278,vh_279,vh_280,vh_281,vh_282,vh_283,vh_284,vh_285,vh_286,vh_287,vh_288,vh_289,vh_290,vh_291,vh_292,vh_293,vh_294,vh_295,vh_296,vh_297,vh_298,vh_299,vh_300,vh_301,vh_302,vh_303,vh_304,vh_305,vh_306,vh_307,vh_308,vh_309,vh_310,vh_311,vh_312,vh_313,vh_314,vh_315,vh_316,vh_317,vh_318,vh_319,vh_320,vh_321,vh_322,vh_323,vh_324,vh_325,vh_326,vh_327,vh_328,vh_329,vh_330,vh_331,vh_332,vh_333,vh_334,vh_335,vh_336,vh_337,vh_338,vh_339,vh_340,vh_341,vh_342,vh_343,vh_344,vh_345,vh_346,vh_347,vh_348,vh_349,vh_350,vh_351,vh_352,vh_353,vh_354,vh_355,vh_356,vh_357,vh_358,vh_359,vh_360,vh_361,vh_362,vh_363,vh_364,vh_365,vh_366,vh_367,vh_368,vh_369,vh_370,vh_371,vh_372,vh_373,vh_374,vh_375,vh_376,vh_377,vh_378,vh_379,vh_380,vh_381,vh_382,vh_383,vh_384,vh_385,vh_386,vh_387,vh_388,vh_389,vh_390,vh_391,vh_392,vh_393,vh_394,vh_395,vh_396,vh_397,vh_398,vh_399,vh_400,vh_401,vh_402,vh_403,vh_404,vh_405,vh_406,vh_407,vh_408,vh_409,vh_410,vh_411,vh_412,vh_413,vh_414,vh_415,vh_416,vh_417,vh_418,vh_419,vh_420,vh_421,vh_422,vh_423,vh_424,vh_425,vh_426,vh_427,vh_428,vh_429,vh_430,vh_431,vh_432,vh_433,vh_434,vh_435,vh_436,vh_437,vh_438,vh_439,vh_440,vh_441,vh_442,vh_443,vh_444,vh_445,vh_446,vh_447,vh_448,vh_449,vh_450,vh_451,vh_452,vh_453,vh_454,vh_455,vh_456,vh_457,vh_458,vh_459,vh_460,vh_461,vh_462,vh_463,vh_464,vh_465,vh_466,vh_467,vh_468,vh_469,vh_470,vh_471,vh_472,vh_473,vh_474,vh_475,vh_476,vh_477,vh_478,vh_479,vh_480,vh_481,vh_482,vh_483,vh_484,vh_485,vh_486,vh_487,vh_488,vh_489,vh_490,vh_491,vh_492,vh_493,vh_494,vh_495,vh_496,vh_497,vh_498,vh_499,vh_500,vh_501,vh_502,vh_503,vh_504,vh_505,vh_506,vh_507,vh_508,vh_509,vh_510,vh_511,vh_512,vh_513,vh_514,vh_515,vh_516,vh_517,vh_518,vh_519,vh_520,vh_521,vh_522,vh_523,vh_524,vh_525,vh_526,vh_527,vh_528,vh_529,vh_530,vh_531,vh_532,vh_533,vh_534,vh_535,vh_536,vh_537,vh_538,vh_539,vh_540,vh_541,vh_542,vh_543,vh_544,vh_545,vh_546,vh_547,vh_548,vh_549,vh_550,vh_551,vh_552,vh_553,vh_554,vh_555,vh_556,vh_557,vh_558,vh_559,vh_560,vh_561,vh_562,vh_563,vh_564,vh_565,vh_566,vh_567,vh_568,vh_569,vh_570,vh_571,vh_572,vh_573,vh_574,vh_575,vh_576,vh_577,vh_578,vh_579,vh_580,vh_581,vh_582,vh_583,vh_584,vh_585,vh_586,vh_587,vh_588,vh_589,vh_590,vh_591,vh_592,vh_593,vh_594,vh_595,vh_596,vh_597,vh_598,vh_599,vh_600,vh_601,vh_602,vh_603,vh_604,vh_605,vh_606,vh_607,vh_608,vh_609,vh_610,vh_611,vh_612,vh_613,vh_614,vh_615,vh_616,vh_617,vh_618,vh_619,vh_620,vh_621,vh_622,vh_623,vh_624,vh_625,vh_626,vh_627,vh_628,vh_629,vh_630,vh_631,vh_632,vh_633,vh_634,vh_635,vh_636,vh_637,vh_638,vh_639
ADI-38502,-0.054786798,-0.11108346,0.09103044,-0.16361123,0.07502739,-0.0768564,-0.079513386,-0.2528782,-0.45425895,0.26009017,-0.031517863,0.025885608,0.08799607,0.07983217,0.04507047,-0.27783507,-0.021412743,0.007277562,-0.33472246,-0.035853833,-0.1335805,0.18546417,0.19138606,0.0043696556,-0.13054441,0.012518175,-0.16626771,-0.021263605,0.08435112,-0.03439258,-0.051167578,0.15828492,-0.01919224,0.10188037,-0.07534595,0.21462129,0.02251791,-0.22079481,-0.23026839,0.15399168,0.2106427,0.1109238,-0.13949625,0.004419391,-0.13430588,0.022548765,0.12854472,-0.20487387,-0.32842034,-0.10333008,0.20259096,0.15870538,-0.041374642,0.17481329,0.14696924,-0.21281049,0.14153938,0.06341754,-0.20566288,-0.06806591,-0.19504747,0.03936438,-0.008690947,0.07531566,0.047256436,-0.088332735,0.2605948,0.14844267,-0.19721857,-0.0026199953,0.15473606,0.25696036,-0.024834545,0.042213015,-0.33796898,-0.053827826,-0.09012902,-0.103580564,-0.13030322,0.024881875,-0.11611759,-0.018832687,0.12608534,-0.03989388,-0.023997238,-0.103281036,0.1362714,-0.072807565,-0.16546166,0.132714,0.15162747,-0.17114131,-0.15621875,0.008355052,0.19152896,-0.001802111,0.27748036,0.14110659,-0.16528788,-0.071630895,-0.37954164,-0.016354458,-0.100060456,-0.0697338,0.26427582,-0.0691154,-0.007654854,0.282103,-0.1589663,-0.25014856,0.28513077,-0.22390528,-0.2993242,-0.26661095,0.120941594,0.1524151,-0.019854184,0.22694379,0.054549966,-0.019881409,0.07497745,0.046977695,-0.045353446,-0.22076344,0.09408825,0.07223191,-0.10577261,-0.16404687,-0.000860096,-0.10955046,-0.0026166828,-0.019651098,0.18648495,-0.09626423,-0.092055954,0.013001384,0.0026686767,0.002373455,-0.1131857,-0.037685025,-0.13976364,-0.13600373,0.019986594,0.14283377,0.4988087,0.015194134,-0.10087213,0.046745807,0.21885371,-0.08407771,-0.06351154,-0.12976345,-0.080111705,0.24124311,-0.044309195,-0.117647395,-0.08477096,-0.13159077,0.0859156,-0.030195856,-0.24360476,0.050642136,-0.32729775,-0.010391647,-0.25270697,0.022799388,0.12299955,-0.18583739,-0.019801531,0.2540904,-0.30793282,-0.019490883,0.017769018,0.08256482,-0.05250901,-0.03961985,0.474557,0.072815314,0.23862538,0.13343166,0.18438591,0.05484937,0.010982132,-0.08277507,0.011428048,-0.21372657,0.3588156,-0.1367747,0.050768793,-0.20263302,-0.25241923,-0.049012125,0.18247034,0.058704313,0.078829676,0.07069673,-0.087048545,-0.007098355,-0.18210584,-0.30528498,-0.05952837,0.29879403,0.09578361,0.17623965,0.100671574,-0.24677826,-0.048591014,0.037641436,0.1407801,-0.045512345,0.093565784,0.040579412,-0.05027288,-0.12201112,0.02335257,0.05037988,-0.25397983,0.11135777,-0.0019796025,0.0037454378,-0.02517228,-0.10558062,-0.27073634,0.0006363179,-0.20604552,-0.09855175,0.1621756,0.072066344,0.009744384,-0.01610504,-0.07755693,0.03257409,-0.20135564,0.016506994,0.18264897,0.11546578,-0.05202292,-0.022446148,0.013776657,-0.08660081,0.17102048,0.0065124743,-0.09770518,0.10249829,0.017598445,-0.11686199,-0.16748178,-0.1624134,0.056785576,0.015568898,0.16901451,0.22975416,0.26472804,0.17213723,0.15820272,0.081655875,0.3443461,0.16667803,0.087485455,0.16276918,0.12397817,0.0075489874,0.009355094,-0.08494513,0.029821696,-0.20454031,-0.21743706,-0.06614516,0.23164324,0.00947275,0.08161089,-0.030165438,-0.21009251,-0.061278626,-0.20558992,-0.11858093,0.10300226,-0.12037787,0.17059815,-0.7788108,0.21659891,0.03613806,0.14307071,-0.03666945,-0.04145882,0.043873277,-0.017141944,-0.1345914,-0.053193886,-0.0058625657,0.0045641535,0.33257768,-0.023599245,0.20276129,-0.12959215,-0.058046084,0.014499969,0.0068082567,-0.1321797,0.013752133,-0.11395011,0.0653179,0.13281676,0.23196664,-0.13695116,-0.017665558,0.21064013,-0.015260536,-0.0077580083,0.047226526,0.155012,0.06571636,0.04688208,0.14075087,0.21405756,-0.2446735,-0.11349593,-0.055055533,0.20554835,-0.08923512,-0.03281117,-0.16123281,-0.16618484,-0.182888,-0.1620655,0.08606656,0.06260873,0.027954811,0.3709903,-0.10391098,-0.13878359,-0.02281157,0.1308413,-0.12002122,0.032031972,0.021069467,-0.24139717,-0.19695023,0.00031969024,0.11779424,0.13640071,0.12232587,0.036448963,-0.0013387649,0.0407468,-0.23878942,-0.043582544,0.08023586,-0.10961302,-0.069071524,0.0054206275,0.11823983,0.012997525,-0.13303728,0.1537301,-0.037411198,-0.019986378,-0.102798246,-0.05518404,0.27795574,-0.31485587,-0.0280261,-0.18212597,0.106115855,0.18847404,0.11388932,0.32697222,0.07423586,-0.14079073,0.04716619,0.16605173,0.007651167,-0.16410373,0.15177307,0.2633926,0.0012908466,0.0690413,-0.09789366,0.064079285,0.12862651,0.058160968,0.044997856,0.27113083,0.12754788,-0.040162664,-0.11307828,-0.083479315,-0.025942663,0.035633035,-0.054545883,0.04548189,-0.22744845,0.23398873,-0.10177272,0.0077234693,0.32486403,0.2570276,0.26838708,0.12039293,0.052187964,0.23164535,0.13990133,0.1918554,-0.098210834,-0.15995802,0.14730363,-0.1267889,0.021903511,0.05462996,0.115557715,-0.20422384,0.06504917,0.23788743,0.26184142,-0.014690774,0.11177361,-0.038039457,-0.13119365,-0.0050898837,-0.17990804,0.117387004,-0.117536955,0.06429854,-0.010149414,0.07406393,0.07678064,-0.18883222,0.036317963,0.1320662,0.10277207,0.18896012,0.10573372,-0.0191273,-0.013505278,-0.13473487,-0.041014977,-0.111024775,0.10778428,0.23130263,0.12759298,-0.06360615,-0.14991081,0.3069078,0.13302341,-0.18552154,-0.16652916,0.17818278,-0.019321814,0.22122417,0.28244784,0.13021228,-0.084233336,0.13268152,-0.0731199,-0.05435673,0.042439748,0.09195688,-0.037622385,-0.13846572,-0.5596475,0.17802528,-0.12090734,0.012361807,0.10395865,-0.1937412,-0.08714226,0.02325511,0.26115903,0.019154474,0.11523636,-0.041672524,0.06387441,-0.022098154,0.069212,-0.1301156,0.090782665,-0.14270912,-0.074681625,-0.044629153,-0.002641952,-0.27065155,0.138883,0.00016691821,-0.20497715,-0.21767244,-0.25272146,0.25866222,-0.04785157,-0.008204786,0.13001509,0.24220234,0.008640187,0.17132913,0.102609135,0.12675798,-0.2516093,0.2609182,0.17897807,-0.24265909,0.251669,0.2786593,-0.3306181,0.14684342,0.09378785,0.110156745,0.20036355,0.069712676,0.05726457,-0.16992487,-0.11938413,0.12222087,-0.374019,0.2514775,-0.3050042,-0.010662165,0.016157316,-0.020901956,-0.14624757,-0.08371775,-0.06339484,-0.28509793,-0.33771273,0.031327832,0.04831772,-0.21930993,0.30163103,-0.24175812,-0.22696422,0.12884381,0.051217537,0.13588592,-0.14162967,0.009646645,-0.033188216,0.045561213,-0.12237318,-0.14291616,0.07676045,-0.2467675,-0.08182503,-0.03420637,-0.009796767,0.07003648,0.10810619,0.09755876,0.17149827,0.024089728,-0.093870625,-0.39720875,0.07764734,-0.17043199,0.17336412,-0.017558062,3.3939564,0.20710102,0.09545275,-0.05296807,-0.030634625,-0.047891043,0.12928577,-0.024388872,-0.08519531,-0.14430773,-0.04014668,0.10143394,-0.09531887,-0.10352977,0.02715996,-0.06630782,0.20367292,0.018974569,-0.29238236,0.03860594,0.070703425,-0.12485414,-0.03694581,-0.340754,-0.13791436,-0.029046314,-0.049008083,-0.005410078,0.3326344,0.05488594,-0.010392695,-0.0808183,0.0578443,0.09260158,-0.22462997,-0.14515826,-0.096504435,0.15046358,0.15866277,-0.21679501,-0.14780769,-0.12084578,-0.03328019,-0.04783932,-0.050777126,-0.05306329,-0.16066766,-0.10859989,0.038400695,-0.096752115,0.2449449,-0.15408947,0.12508473,-0.146279,0.14382385,0.028146962,0.06387114,0.36544734,-0.039016064,0.08821152,0.044555936,-0.16899467,-0.21861157,-0.15112704,-0.10156968,-0.026420943,-0.1791424,-0.05924379,0.042120926,-0.15539008,0.18324639,0.04542581,0.4107756,-0.20357694,-0.15302129,0.035194106,-0.07100852,0.077243894,0.15639693,-0.034063812,0.030502494,0.22500269,0.14240777,-0.21577883,-0.042397138,-0.16181096,0.025338035
ADI-38501,-0.07131312,-0.07429491,0.098678656,-0.13975738,0.08153319,-0.061828386,-0.076196045,-0.25870663,-0.49591228,0.22613627,0.0021041636,0.025396455,0.0893934,0.101736166,0.05932816,-0.26421097,-0.0028583573,0.0035842792,-0.35709098,-0.06394238,-0.11667705,0.19398744,0.165617,0.011998197,-0.12211854,-0.01204467,-0.1429534,-0.01476662,0.05736202,-0.04318221,-0.027612956,0.12447503,0.02016079,0.11457794,-0.07227581,0.19737843,-0.004005786,-0.20557187,-0.20279941,0.16779676,0.22627385,0.12416377,-0.13828066,0.011766418,-0.15929171,0.03431706,0.12350142,-0.19179685,-0.2860047,-0.10073609,0.2042813,0.16480558,-0.080621086,0.20039542,0.148358,-0.18892473,0.12661016,0.03978766,-0.1948732,-0.03458896,-0.20294912,0.043175243,-0.015945142,0.07165102,0.030407801,-0.08815328,0.26225805,0.1363697,-0.18704309,0.015736746,0.14716038,0.26376033,-0.018094439,0.055224154,-0.31799704,-0.06331744,-0.0954716,-0.12689775,-0.14029914,0.033330932,-0.09102423,-0.048822608,0.13117455,-0.029050674,-0.04904125,-0.06779367,0.14188129,-0.08939863,-0.12654856,0.13665795,0.17638996,-0.15667394,-0.16759726,0.010716369,0.16744561,-0.0096016275,0.2317941,0.12448669,-0.16469122,-0.060916256,-0.41377392,-0.017376859,-0.09892815,-0.06743554,0.2455423,-0.051675253,-0.018153358,0.2579512,-0.12363947,-0.21341856,0.25573018,-0.26227596,-0.27712902,-0.24784929,0.11417464,0.14591584,-0.029342176,0.22312173,0.07481164,-0.005681671,0.096772835,0.018197104,-0.064013295,-0.22625457,0.09664908,0.08960428,-0.07759711,-0.19819407,0.0044365344,-0.08019906,0.020621965,-0.016086742,0.20825836,-0.124201834,-0.09371767,0.0030628918,0.01162733,0.024190806,-0.10458293,-0.029386213,-0.13935483,-0.14401576,0.021873264,0.12574881,0.47323897,0.00086808455,-0.13035342,0.06534861,0.20589383,-0.090871215,-0.074230395,-0.10597775,-0.0779227,0.20240767,-0.048866354,-0.109680735,-0.10982586,-0.110469915,0.08038736,-0.030918919,-0.27142376,0.031766765,-0.3428612,-0.006572156,-0.26240703,0.018071836,0.10455325,-0.16157772,-0.011310161,0.25372005,-0.29559025,-0.03173093,0.0032529486,0.09748453,-0.068981506,-0.025016231,0.47665796,0.09186137,0.21621984,0.11914104,0.17299463,0.06823927,-0.021756878,-0.12547472,0.028486786,-0.20155774,0.33076924,-0.13911128,0.04859862,-0.21996371,-0.22469775,-0.022667665,0.16213107,0.058138754,0.05645154,0.058928087,-0.05012978,-0.029481113,-0.17792358,-0.3018663,-0.07313325,0.3082651,0.1119849,0.21725413,0.0839222,-0.2289413,-0.026256057,0.07810302,0.1435061,-0.082594335,0.078548044,0.026679948,-0.05533026,-0.14019884,0.028083678,0.06351771,-0.24359146,0.14375661,0.026428172,0.0062064272,-0.03535474,-0.110882655,-0.27845305,-0.0030700804,-0.21880189,-0.13236776,0.13630047,0.073752426,-0.0015806702,-0.0112793995,-0.050486956,0.047244754,-0.21230027,0.011777119,0.19582348,0.10754295,-0.040779006,-0.016991679,0.006310893,-0.10235963,0.1687921,-0.021345098,-0.099748924,0.12087841,0.0006668037,-0.14424634,-0.16855986,-0.13427861,0.07815518,-0.006664313,0.16089411,0.18860185,0.25360703,0.17490128,0.17200147,0.06704093,0.32160836,0.14630444,0.069399506,0.17299697,0.11303544,-0.0057849796,0.021644829,-0.10128358,0.011134958,-0.19756691,-0.21837774,-0.09335358,0.2083252,0.01597133,0.056923937,-0.042214725,-0.2303942,-0.08470827,-0.26190308,-0.10210309,0.11978064,-0.13869792,0.16146977,-0.7660644,0.2234025,0.0015391522,0.13746119,-0.026568614,-0.034096118,0.057854395,-0.06539742,-0.117614605,-0.05524411,-0.016875597,0.032838956,0.29804125,-0.011019632,0.20858078,-0.15097837,-0.066373564,0.027975958,0.007732797,-0.14442399,0.032872126,-0.100885354,0.06825326,0.13302594,0.22195625,-0.16596243,0.0022331313,0.19758695,0.0012334035,-0.013182746,0.056204278,0.13239615,0.08911833,0.04356153,0.14697456,0.2120557,-0.2538919,-0.1192966,-0.036043014,0.19485827,-0.089971095,0.006706776,-0.17552014,-0.20211628,-0.16701525,-0.17582214,0.061170958,0.042172108,0.02251018,0.3536696,-0.08044388,-0.1728248,-0.065862104,0.12745106,-0.13142473,0.0263289,0.016256124,-0.21853757,-0.16968226,0.023162283,0.124005705,0.13258809,0.15583555,0.038094457,0.0033076175,0.030476969,-0.27586475,-0.02912854,0.06728365,-0.123806074,-0.067609586,0.023538018,0.1276391,0.0011782211,-0.10838128,0.18652202,-0.05560531,-0.027958317,-0.12885143,-0.036113404,0.29233378,-0.3358232,0.010458482,-0.1425602,0.07662173,0.18869929,0.096338056,0.2763951,0.08651469,-0.14151365,0.057785228,0.16320677,-0.0040752734,-0.16788736,0.1359239,0.24492224,0.03654903,0.07847364,-0.09937605,0.0431572,0.17848262,0.058855858,0.041729197,0.26017556,0.12104352,-0.01326169,-0.1259177,-0.08788182,-0.02492671,0.028262727,-0.049248762,0.049186185,-0.20834257,0.21630104,-0.057305634,-0.011001733,0.29098707,0.25310677,0.22817576,0.1445172,0.071214035,0.23601711,0.14438722,0.18947123,-0.097437195,-0.17030182,0.14211267,-0.11169281,0.0044369283,0.063532375,0.1132117,-0.17295025,0.045191426,0.21652883,0.2543423,-6.9346747e-06,0.12528639,-0.03640335,-0.12583339,-0.015424345,-0.22000404,0.12220495,-0.1002986,0.0719002,-0.0052832747,0.081081755,0.078787506,-0.2133625,0.025952809,0.12839213,0.14368206,0.16863061,0.10453652,-0.025056604,0.0027372546,-0.13659497,-0.05456532,-0.112233326,0.11907427,0.20109282,0.11806174,-0.07105039,-0.16565561,0.3280575,0.11718806,-0.18708955,-0.1826926,0.18191406,-0.029289098,0.21168672,0.28224188,0.15475573,-0.08699817,0.12359558,-0.07086116,-0.018447591,0.04974479,0.11027831,-0.05408794,-0.16546576,-0.4927858,0.16431884,-0.10755236,-0.0016313421,0.0987742,-0.18495627,-0.07873618,0.034249745,0.23331068,0.017869625,0.15248679,-0.04216544,0.076343626,-0.022242157,0.060590416,-0.12092643,0.07631065,-0.12963149,-0.074786395,-0.030872973,-0.013883574,-0.25146654,0.13816838,0.035034925,-0.17971648,-0.22484605,-0.23644948,0.24186227,-0.027846944,0.015982792,0.13386232,0.25800702,0.0025076005,0.19021522,0.07727157,0.08067263,-0.27227262,0.25727722,0.18655492,-0.25097126,0.26507333,0.2779129,-0.31802633,0.13002422,0.07443538,0.099353135,0.20570622,0.056519073,0.066715464,-0.17376363,-0.11033032,0.11951248,-0.34273863,0.25659925,-0.26692083,-0.052305177,0.039580192,-0.03403793,-0.15487756,-0.092815034,-0.04996353,-0.26241398,-0.31741127,0.028938858,0.049334247,-0.19986904,0.34572643,-0.2501767,-0.22292803,0.11006381,0.051314555,0.1362364,-0.16054675,0.0143149635,-0.028679475,0.045933194,-0.10179528,-0.13538332,0.079268165,-0.2360405,-0.06895004,-0.028241782,0.031836435,0.10524493,0.11591746,0.067294486,0.17702684,0.0362417,-0.072619684,-0.38254753,0.10916762,-0.124764785,0.18392701,-0.018446974,3.3710303,0.19319785,0.10041679,-0.010186094,-0.019636502,-0.031393103,0.1596766,0.017100768,-0.103324115,-0.123144664,-0.048320025,0.123632394,-0.07583207,-0.09613198,0.023793647,-0.07897018,0.22044718,-0.011164834,-0.29307222,0.023703784,0.07341862,-0.09092467,-0.02372065,-0.32251891,-0.13000053,-0.0058818837,-0.065936565,-0.030761167,0.33818454,0.048845824,-0.039187476,-0.057431802,0.06963063,0.05312224,-0.21195273,-0.15951,-0.075205974,0.13007194,0.16423894,-0.19322069,-0.16431005,-0.14849362,-0.03028466,-5.6312867e-05,-0.051689003,-0.07038176,-0.13266662,-0.13459086,0.045194883,-0.09212339,0.21842006,-0.16462241,0.120256886,-0.12232283,0.12860967,0.04134071,0.027289895,0.3457347,-0.05071032,0.07590634,0.058987923,-0.16169296,-0.21536918,-0.16489114,-0.10856427,-0.04354564,-0.18054521,-0.074262016,0.064771205,-0.17297773,0.1965368,0.06703573,0.41059276,-0.1694855,-0.15708481,0.055352997,-0.087664016,0.06829903,0.15051718,-0.07738906,-0.0031272352,0.2199628,0.15889756,-0.22288924,-0.05554365,-0.14773603,0.01688398
ADI-47173,-0.035128295,-0.060228076,0.09364492,-0.1567513,0.05918038,-0.06839328,-0.10674627,-0.2283464,-0.43264994,0.2662582,-0.012242524,0.03822672,0.053902272,0.058220807,0.054293748,-0.2677235,-0.0092872,-0.015622076,-0.28124008,-0.03568734,-0.12458266,0.11798427,0.19352299,-0.0096269855,-0.11379987,0.046100345,-0.1481943,-0.024840686,0.097341724,-0.033244412,0.025576519,0.099477164,0.038783073,0.10877202,-0.052484795,0.22103894,-0.019834056,-0.22558957,-0.20836364,0.17106164,0.22322252,0.09823733,-0.16306244,0.06949488,-0.11707516,0.007820234,0.14472285,-0.15670246,-0.25540027,-0.058139637,0.17608482,0.14124863,-0.020381259,0.17047855,0.14600633,-0.18457678,0.10575091,0.05007225,-0.24538721,-0.04754663,-0.21327166,0.11276209,-0.046884708,0.10030135,0.0082990555,-0.11315542,0.25962973,0.14446098,-0.16486688,0.05595639,0.10766034,0.24184735,-0.023585252,0.04439231,-0.25045103,-0.06067592,-0.081915095,-0.06895232,-0.10659962,-0.018299134,-0.14497186,-0.0714925,0.13318686,-0.017624501,-0.03492974,-0.05773428,0.11286236,-0.04560706,-0.15685454,0.11536401,0.15386872,-0.075063266,-0.15388606,0.031895243,0.10442885,-0.015364801,0.21004277,0.16676371,-0.17025678,-0.04507745,-0.39790696,0.00388301,-0.05883321,-0.06815227,0.2074527,-0.04158693,0.0016466399,0.2179147,-0.1495647,-0.18245208,0.281743,-0.26652482,-0.2576856,-0.29039448,0.11190611,0.12779486,-0.022152023,0.1867707,0.0222977,-0.030423192,0.05543099,0.04690604,-0.021718128,-0.17691214,0.0742967,0.070051886,-0.06167783,-0.13663344,0.009160452,-0.053306814,0.059188355,-0.042585608,0.17456329,-0.13242213,-0.08367854,-0.025997818,-0.025542976,-0.06229962,-0.05903864,0.0226904,-0.15122388,-0.12120713,0.016052129,0.15663712,0.43186322,-0.030525452,-0.14632648,0.038522735,0.1745747,-0.0631086,-0.059706695,-0.08841496,-0.11212269,0.18679497,-0.04028781,-0.05711977,-0.16277036,-0.11706412,0.08267324,-0.022854203,-0.22140908,-0.01673991,-0.32331726,-0.056743637,-0.23626469,0.006922808,0.026169304,-0.12610453,-0.012174033,0.24489048,-0.23986511,-0.037401307,-0.00785503,0.08340304,-0.042143364,0.024112098,0.42271808,0.11768723,0.14633657,0.13908911,0.19675714,0.019400874,0.0063830353,-0.0906901,-0.0064218026,-0.19660087,0.3121839,-0.119632326,0.07037951,-0.2345174,-0.19506678,-0.021960719,0.15573475,0.037724245,0.09194496,0.050673753,-0.097080424,-0.007884803,-0.15353182,-0.24102734,-0.066563286,0.23503599,0.08602729,0.14940907,0.10286897,-0.19515958,-0.01056148,0.024686506,0.12012446,-0.07854195,0.057491176,-0.017028587,-0.11194554,-0.12746154,0.013150855,0.024150625,-0.26183984,0.11636246,0.0087636,-0.030204248,-0.046762593,-0.16249116,-0.19067228,-0.003478754,-0.15100275,-0.13109893,0.11207894,0.08534207,0.007326567,0.018939173,-0.048906535,0.057710584,-0.23320043,0.04479852,0.16188882,0.14108784,-0.07221769,-0.0012111121,0.004168179,-0.03455309,0.10899831,-0.06834752,-0.092320696,0.14108771,0.08290955,-0.17958783,-0.1578235,-0.13169825,0.08409561,-0.03018729,0.15217192,0.081602044,0.1897179,0.25385603,0.16987298,0.065054245,0.28025815,0.060706165,0.09395235,0.11401891,0.12258799,0.010513828,0.01286559,-0.10584663,0.028117457,-0.18318397,-0.21285869,-0.07446214,0.21876363,0.0024541293,0.06698681,-0.08372043,-0.16846365,-0.018255362,-0.25560328,-0.09433948,0.11642629,-0.12984647,0.15101622,-0.951028,0.2234151,0.05939824,0.14050324,-0.0205618,-0.057244524,0.029611638,-0.07820514,-0.086944774,-0.10935563,0.01156167,-0.0057507823,0.4604703,-0.01682696,0.1708103,-0.10637403,-0.04837681,-0.028889967,-0.016061014,-0.18095742,0.05486377,-0.07464634,0.026152544,0.14070904,0.20428252,-0.110894196,-0.011522958,0.2193623,0.0119593,0.03229233,0.004049941,0.11760654,0.07570185,0.038389213,0.13475984,0.15737805,-0.20628853,-0.13337094,-0.012618877,0.18815197,-0.07415679,-0.056832697,-0.20990005,-0.15014726,-0.13872725,-0.18839128,0.031143634,-0.005983846,0.035586156,0.32472757,-0.073605776,-0.0906266,-0.056782313,0.093996026,-0.08687065,0.03814525,-0.0425613,-0.23939617,-0.19505492,-0.036480375,0.11631698,0.1221989,0.13427453,-0.014446247,0.021385772,-0.016111122,-0.2107029,-0.055782627,0.060543053,-0.018861104,-0.07716996,0.016232572,0.11304849,-0.0010958181,-0.10946684,0.15933287,-0.00311191,0.00097345724,-0.10416957,-0.056533247,0.29158095,-0.2781968,0.0012655789,-0.10414346,0.14875366,0.22462928,0.06703639,0.22075447,0.14435431,-0.14808318,0.032184493,0.15691139,-0.027698444,-0.12589175,0.14912821,0.20538397,0.046071008,0.13044934,-0.048380014,0.056326088,0.13789296,0.04128226,-0.016280573,0.27011278,0.158675,-0.021193463,-0.12697165,-0.046476327,-0.042744227,0.024836432,-0.06789067,-0.003118328,-0.16260153,0.16277158,-0.02435337,0.015206043,0.2492155,0.17015766,0.2130717,0.13877591,0.04090083,0.26121366,0.13331813,0.24375333,-0.051545907,-0.21463488,0.18677355,-0.10429047,0.021485664,0.026544409,0.13305822,-0.09708122,0.08860133,0.1833619,0.22568512,-0.004575854,0.11434027,-0.034139227,-0.11280215,-0.04821484,-0.2419318,0.03151153,-0.14308396,0.080476545,-0.0010103297,-0.006996738,0.05031372,-0.18746412,0.03583946,0.15408449,0.08002032,0.1687802,0.026302192,-0.0041857054,-0.0045786942,-0.10172576,0.0028964162,-0.17082056,0.103927255,0.2358358,0.12795039,-0.10329747,-0.14304346,0.28227857,0.1781903,-0.15320197,-0.15885232,0.15299594,0.007924117,0.19861342,0.23492792,0.1490973,-0.06882063,0.13694198,-0.12129958,-0.011907588,0.09216671,0.070311494,-0.053782105,-0.18443772,-0.46057567,0.15015805,-0.0929324,0.054212462,0.1322318,-0.12658042,-0.07637494,0.059266508,0.20322917,0.045136143,0.09176263,-0.0535754,0.13831113,0.009911908,0.06284762,-0.15563385,0.059958335,-0.09164594,-0.04647047,-0.06132105,0.073928475,-0.29409444,0.11559602,0.06391333,-0.18030807,-0.25644037,-0.21578829,0.20514137,-0.048387412,0.012921448,0.10867106,0.23108955,0.02540404,0.20433642,0.071219265,0.06425223,-0.25023288,0.18749543,0.1517745,-0.21988545,0.29311213,0.24107859,-0.29052818,0.10061582,0.006545437,0.12909603,0.15609102,0.024183095,0.07543542,-0.15262255,-0.027332582,0.018318137,-0.33076715,0.24402618,-0.22156908,-0.0019240913,0.019488776,-0.026660748,-0.13044764,-0.04670553,-0.07578479,-0.26423854,-0.2913813,0.03796692,0.06899435,-0.20777777,0.2663604,-0.135556,-0.2164917,0.04111733,0.0661802,0.09242328,-0.10500618,0.036688216,-0.048127208,0.026555095,-0.12025513,-0.13583136,0.03641957,-0.20749235,-0.04908584,-0.090983585,0.03404632,0.11723906,0.09078104,0.046391897,0.151022,0.04690067,-0.073902346,-0.36707914,0.043357946,-0.14656927,0.1828897,-0.06791789,3.994398,0.17001292,0.1599198,0.05009563,-0.075241886,-0.011156801,0.14682393,0.020135205,-0.079731956,-0.12061412,-0.031413853,0.116412014,-0.058935132,-0.052942634,0.01570868,-0.11882975,0.16610596,-0.03355812,-0.251658,0.008299228,0.12279733,-0.10117399,-0.03936492,-0.2933433,-0.11534692,-0.029882465,-0.0075230477,-0.024233473,0.3342735,0.021037094,-0.055446412,-0.055700008,0.04765673,0.06506068,-0.21459542,-0.15314338,-0.097518936,0.069063246,0.16219407,-0.16751564,-0.16147016,-0.058125947,-0.022873957,-0.0036314754,-0.08690313,-0.10456549,-0.16356346,-0.19153453,0.028555907,-0.088341676,0.27046448,-0.17499271,0.09837766,-0.10019562,0.10702941,-0.005193651,0.05299718,0.28647265,-0.090142,0.11381241,0.12935737,-0.1731978,-0.15830417,-0.19204338,-0.13695073,-0.03244898,-0.20710388,-0.025086066,0.053836834,-0.14630532,0.16582724,0.01593886,0.40758088,-0.18908982,-0.10387495,0.01823996,-0.03220688,0.029670928,0.1754611,-0.09983381,0.044154994,0.19195083,0.13766615,-0.21660969,-0.04505131,-0.11557741,-0.027709723
ADI-47054,-0.12841734,-0.01794707,0.060585372,-0.07768889,-0.017740274,-0.10066674,-0.049828388,-0.2322869,-0.41777185,0.2830582,0.022696603,0.032746103,0.12024363,0.06255518,0.08664322,-0.23355713,0.008199222,-0.014749186,-0.32128397,-0.03530379,-0.111847244,0.11433332,0.1566794,0.073825926,-0.11851152,0.043666538,-0.12650256,-0.04848131,0.043976504,-0.0036253678,-0.07151706,0.12667933,0.122084014,0.05770961,-0.15865792,0.17139122,-0.07635094,-0.25679836,-0.23250796,0.1491935,0.21798348,0.16307378,-0.15584616,-0.02206237,-0.096024774,0.043875452,0.08736258,-0.22194727,-0.26482546,-0.101911165,0.18947096,0.14670518,-0.07071584,0.16613641,0.11613549,-0.1151325,0.1028657,0.0027830547,-0.23121196,0.0090211425,-0.19134785,-0.024694191,-0.011724672,0.13389677,0.0018511408,-0.08976156,0.19622503,0.087804474,-0.15472142,0.0099741975,0.09299926,0.23910615,-2.7217468e-05,0.085636206,-0.32810834,-0.05992472,-0.08320801,-0.088274464,-0.07852283,0.022748731,-0.06052352,-0.043531727,0.15774322,-0.022986898,-0.017336497,-0.11771605,0.21705708,-0.042969856,-0.11791877,-0.000598979,0.09974042,-0.113341786,-0.09526297,-0.023336172,0.08463038,-0.035586797,0.23644738,0.113037996,-0.18635498,-0.038566343,-0.32401243,0.005790209,-0.119282834,-0.08693097,0.19167891,-0.05783235,-0.015234786,0.2051706,-0.090524875,-0.14681791,0.15512092,-0.1935321,-0.23790926,-0.27211317,0.032109223,0.11839691,0.04982623,0.17779808,0.07488633,0.036197208,0.0045990227,-0.02548058,-0.10927667,-0.20317249,0.04677587,-0.049740795,-0.041390475,-0.20245248,0.04134778,-0.06987338,0.095634334,-0.009139482,0.11436216,-0.1462036,-0.10264423,0.03022954,0.022791915,-0.025822556,-0.12073718,-0.036546778,-0.13625649,-0.08572806,-0.06503975,0.03549375,0.48232347,0.04160567,-0.16500267,0.016160216,0.19200717,-0.14053966,-0.09365022,-0.044864435,-0.014141644,0.20753364,-0.07375315,-0.11719807,-0.05866125,-0.05250164,0.048609897,-0.0056953817,-0.26369983,0.020360392,-0.3629986,0.035141382,-0.19993071,0.054808494,0.10166969,-0.12315125,0.0053361,0.2292262,-0.28371003,-0.13047689,-0.073293574,-0.02279432,-0.030779006,-0.020500103,0.43065837,0.045443792,0.19298068,0.18053745,0.10777604,0.037038025,-0.011493367,-0.061931793,0.0017812632,-0.1606327,0.32830933,-0.15079783,0.042273518,-0.22169401,-0.19998525,0.030734813,0.1395277,0.026868137,0.01946998,0.034834243,-0.02060594,-0.033492412,-0.11009118,-0.270528,-0.06824981,0.29899746,0.116609044,0.15931916,0.0288661,-0.24903302,0.042958196,0.045223955,0.14477153,-0.044448674,0.10331157,0.01721843,-0.11322974,-0.1178426,0.021296239,0.0014619668,-0.24051854,0.07685477,0.0028682114,0.012525284,-0.061163854,-0.0832776,-0.18258743,0.021623205,-0.225497,-0.10859541,0.06061879,0.12758876,0.10670796,0.04521372,-0.015720816,0.07645547,-0.1606253,-0.031198442,0.1595464,0.057941075,-0.06356929,-0.088882856,0.043100044,-0.1054665,0.13292985,-0.096772835,-0.12110666,0.089623064,-0.0070444066,-0.17207685,-0.15296303,-0.08218352,0.05881528,-0.008027132,0.15183933,0.22491933,0.17566235,0.1608115,0.12426185,0.01439868,0.30412498,0.056439705,0.04129688,0.11499689,0.15434456,-0.10349728,0.0012876192,-0.031338025,0.10145395,-0.13178852,-0.13672988,-0.041092996,0.16078444,0.080528125,0.01709017,-0.08096879,-0.087020196,0.018208144,-0.17198163,-0.095732875,0.118224636,-0.17792216,0.17893864,-0.95965385,0.18196933,0.04011055,0.13056733,-0.045416553,-0.072096266,0.075525776,-0.07263253,-0.10188839,-0.026300669,-0.018855032,-0.04549588,0.3943675,-0.032563757,0.14742969,-0.04657233,-0.069607124,-0.04076028,0.036105193,-0.12792607,0.040031392,-0.06480805,0.016156131,0.02007278,0.17307228,-0.1123671,-0.0560514,0.2104554,-0.0058077774,-0.02885171,0.040612765,0.20581722,0.11607825,0.061073467,0.12332337,0.15886685,-0.2387989,-0.049530897,-0.0041884435,0.08357954,-0.023868117,0.05373394,-0.14098151,-0.15675077,-0.13207527,-0.15938991,0.09400558,-0.037973825,-0.049233846,0.37040463,-0.037602413,-0.13649882,-0.046957888,0.16593298,-0.06699104,0.065697275,0.05481368,-0.2063571,-0.16635834,0.03869768,0.08137938,0.12567492,0.07984521,-0.0065657916,-0.07821906,-0.01302907,-0.22448799,-0.011045422,0.082277045,-0.027454646,-0.043205958,-0.011874331,0.1555875,-0.05585693,-0.08674046,0.16055052,0.0037670508,0.038665615,-0.13227218,0.05013193,0.19731554,-0.272177,-0.011377024,-0.07962843,0.10692329,0.15963125,0.054580405,0.22082189,0.030197166,-0.18772914,0.032432586,0.19353129,0.03669424,-0.17411269,0.1159748,0.21570878,0.07288826,0.09773874,-0.04454764,0.023754645,0.2017738,0.091895394,-0.013078217,0.18915673,0.10398184,-0.07468278,-0.10404774,-0.11176398,-0.031196633,0.03455231,-0.1111775,0.0035090467,-0.20906559,0.15411288,-0.010985514,0.028221762,0.25332075,0.26966655,0.189441,0.08168184,0.048715364,0.12036379,0.12703618,0.15956412,-0.19851874,-0.12673883,0.21246475,-0.18185753,-0.012493006,0.09477131,0.16239743,-0.17308633,0.05065275,0.17781657,0.21315217,-0.033503454,0.20982678,-0.01883113,-0.09448818,0.021365512,-0.21936062,0.16551556,-0.1289866,0.032308772,0.015768724,0.05418816,0.053770237,-0.1593412,-0.028949555,0.16048302,0.114566416,0.13712667,0.048046533,-0.03720423,-0.045756392,-0.15533924,-0.05284419,-0.19139431,0.14304654,0.22418858,0.15942885,-0.09666409,-0.13288766,0.24275467,0.22312418,-0.10672669,-0.18149999,0.19790266,-0.026801635,0.23419033,0.23841111,0.17830367,-0.08799321,0.092924766,-0.02896809,0.01626212,0.066333905,-0.011351307,-0.010427187,-0.12926039,-0.33858687,0.13763599,-0.089033596,0.008070023,0.04026526,-0.08169497,-0.0761077,0.0072943596,0.21525559,-0.008912304,0.094148435,-0.0251498,0.07326659,0.00057190045,0.04758779,-0.109471194,0.065962985,-0.13337387,-0.067215525,-0.031716883,-0.07190902,-0.2533425,0.22885296,0.10130724,-0.11654852,-0.29029045,-0.21650794,0.29011735,-0.029165907,0.031004751,0.14560944,0.2179396,0.048282683,0.15918109,0.056901768,0.035767682,-0.117477626,0.26731318,0.19719358,-0.27775156,0.27849305,0.18779588,-0.20963639,0.121999584,0.05575347,0.13827416,0.18116911,0.036423277,0.10086023,-0.13372645,-0.0771944,0.023442026,-0.31418097,0.23437585,-0.2389615,-0.048241396,0.030843645,0.03880121,-0.10200523,-0.03187881,-0.119695835,-0.2830401,-0.31806237,0.016853064,0.072197296,-0.14826307,0.30316105,-0.14301611,-0.19377656,0.09220362,0.11401267,0.12094357,-0.10491338,0.024643611,-0.025473986,0.07734294,-0.05328857,-0.09760966,0.06293491,-0.20293887,-0.021758052,-0.04994422,0.019810373,0.07285309,0.08885981,-0.029073996,0.14309393,0.046189968,-0.023074893,-0.35398382,0.12286302,-0.099885605,0.14509977,-0.035785947,4.389771,0.23851101,0.060110934,-0.024982782,-0.0198714,-0.039185163,0.1326405,0.07026146,-0.09251317,-0.15896007,-0.097973734,0.07950185,-0.027893309,-0.17591189,0.05827919,-0.059252016,0.1753071,0.033421088,-0.2589586,0.030409778,0.06082106,-0.11580833,-0.0862957,-0.29853004,-0.06834543,-0.064901136,-0.04326529,0.012031731,0.22683208,-0.0036985106,-0.022142822,-0.117031075,0.050289597,0.055112112,-0.21166661,-0.123670675,-0.21162595,0.11342772,0.11781987,-0.165723,-0.1105714,-0.17169473,-0.05024987,-0.056154586,-0.041746493,-0.006496799,-0.1493848,-0.15139832,0.025684953,-0.1107776,0.23959391,-0.10285747,0.1255967,-0.1744964,0.019099284,-0.057332534,-0.011654392,0.38141462,-0.05450613,0.07946194,0.025088863,-0.15484601,-0.16497426,-0.19949529,-0.07088005,-0.042891644,-0.23251761,-0.061393585,0.045204643,-0.087495655,0.16643046,0.091301925,0.2773454,-0.16820551,-0.1299037,0.0890303,-0.07126584,0.09224442,0.16179799,-0.062811464,-0.027592812,0.24111016,0.13611831,-0.10591884,-0.08518788,-0.19996043,0.08215367
ADI-47278,-0.04347309,-0.083052404,0.09423688,-0.15795562,0.09522372,-0.072541066,-0.072025366,-0.2561987,-0.41471025,0.2896905,-0.030192228,0.052209683,0.09335658,0.11407803,0.018436473,-0.17867541,-0.039136495,-0.04254254,-0.33479223,-0.05657293,-0.16637318,0.157224,0.19793868,-0.033449803,-0.13054296,-0.008373626,-0.103486545,0.016944008,0.08869651,-0.08051473,-0.030812021,0.123138785,0.004595666,0.09392209,-0.08094045,0.22615343,-0.0111123165,-0.21693058,-0.25094527,0.19997971,0.30438668,0.122451596,-0.16747534,-0.0003972339,-0.16467589,0.009956646,0.14156328,-0.18303196,-0.29006228,-0.11754425,0.20306255,0.16877726,-0.035033792,0.16615447,0.11073373,-0.11815673,0.16969973,0.050739083,-0.15943736,-0.097483605,-0.19969542,0.017503412,-0.036428712,0.08708796,0.047152787,-0.0738933,0.23020212,0.14134702,-0.14085773,0.022091711,0.16029693,0.24943392,0.015528445,0.0377482,-0.31050363,-0.061084058,-0.05490209,-0.093155496,-0.098583624,-0.009739632,-0.09308971,-0.07244236,0.1179766,-0.04431696,-0.007281595,-0.05772368,0.117519155,-0.044213418,-0.147412,0.13506107,0.09169747,-0.114435874,-0.096669436,0.021894455,0.17000492,-0.0070097786,0.19937494,0.05903631,-0.1650904,-0.06877433,-0.37635514,-0.033605114,-0.061648827,-0.096655555,0.23384927,-0.10616916,-0.049683865,0.25647742,-0.12043122,-0.23388833,0.21220352,-0.24974838,-0.33055902,-0.2091662,0.1271356,0.14569151,0.00086961675,0.20087051,0.06290989,-0.022589333,0.07199053,0.015815994,-0.041782204,-0.21270001,0.053639527,0.16526383,-0.067747846,-0.1547145,-0.009286184,-0.07080033,0.07050063,-0.016896691,0.14402363,-0.1339377,-0.08583046,-0.00484326,0.0020467204,-0.022492569,-0.1373657,-0.06883527,-0.11387338,-0.09823712,-0.017976135,0.13107699,0.3934902,0.013006712,-0.14111368,0.06866774,0.24154413,-0.078559354,-0.10243116,-0.11176882,-0.08938012,0.18887317,-0.06307102,-0.136968,-0.086410396,-0.10810109,0.08639738,-0.07379687,-0.2681414,0.067879654,-0.36586285,0.025021378,-0.24126846,0.045643188,0.08253191,-0.14825784,0.019128636,0.24630512,-0.21208736,-0.046630528,-0.06343904,0.048628416,-0.0298457,0.015012268,0.41025037,0.1253575,0.23508413,0.15917075,0.17123249,0.08271824,-0.03796815,-0.058926333,0.020339938,-0.15839136,0.35623646,-0.084549464,0.08372242,-0.20329985,-0.22145565,-0.0896531,0.1815256,0.025342036,0.098464236,0.07028599,-0.037580445,0.016856214,-0.2035756,-0.28085852,-0.11621775,0.35229588,0.08268994,0.18755844,0.039233457,-0.20171359,0.021246593,0.07233712,0.17777103,-0.051779553,0.088692196,0.0014844785,-0.018693574,-0.13774762,0.003106272,0.010484713,-0.2640825,0.071879536,-0.018510919,-0.02218699,-0.0546599,-0.1051421,-0.2596116,0.010862338,-0.18449746,-0.12017904,0.11907166,0.075557835,-0.003940452,-0.011171221,-0.043755233,0.020325055,-0.14017974,0.009734157,0.12682521,0.08733547,-0.046986565,-0.09098043,0.01697995,-0.08645661,0.15860875,-0.006259644,-0.09716875,0.1714037,-0.02983521,-0.119487755,-0.13626741,-0.09048194,0.088861175,-0.03568225,0.1281019,0.14277592,0.25822052,0.11167813,0.10447834,0.133593,0.2953552,0.119180284,0.10398151,0.1224096,0.16748953,0.018992746,0.009143125,-0.01754269,-0.020647814,-0.17884924,-0.20680493,-0.107735015,0.22739944,0.012263011,0.044266723,-0.055447176,-0.16001746,-0.046944898,-0.20627575,-0.11368881,0.050424915,-0.17430988,0.16093087,-0.7558609,0.20795698,0.011905757,0.10183009,-0.04742594,-0.056700677,0.078273885,-0.08741491,-0.14211044,-0.028557649,-0.004592229,0.052486576,0.3308351,-0.008103568,0.19319703,-0.11188255,-0.081011534,-0.0006388316,0.0589226,-0.16036846,0.017085686,-0.119021624,0.04029792,0.122574404,0.20376162,-0.12706445,-0.02847683,0.25429463,0.011248164,0.012748514,0.038968097,0.13540357,0.1078002,0.026266038,0.13692299,0.22031596,-0.28271657,-0.0686883,-0.031319886,0.17581025,-0.05495582,-0.0386135,-0.09336045,-0.15671252,-0.13392776,-0.1853354,0.075646885,0.011776617,-0.0076200305,0.26762125,-0.07333619,-0.15197505,-0.040789273,0.07568096,-0.0776025,0.02363909,0.04707036,-0.27213547,-0.19225621,-0.000965039,0.11252024,0.13422418,0.19492845,0.058737732,0.013072818,0.030645018,-0.2660004,-0.051596496,0.096997455,-0.09249518,-0.014612927,0.008780033,0.16518664,-0.025406769,-0.13889849,0.11951185,-0.057544276,-0.11894419,-0.14412619,-0.011554615,0.23388948,-0.29787537,-0.015803812,-0.07279564,0.11229744,0.15519707,0.09625824,0.28923222,0.122606345,-0.076169334,-0.034954164,0.14657326,-0.06790602,-0.21147743,0.07689145,0.25122017,0.005426531,0.053076457,-0.102293774,0.05493265,0.12476968,0.10069403,0.03590624,0.20072162,0.14800939,-0.08810267,-0.11956763,-0.10073769,-0.034698334,0.033905867,-0.006912504,0.03868908,-0.2431733,0.20417629,-0.098659225,0.054981634,0.31364796,0.2385326,0.2132283,0.121800125,-0.021717353,0.20712492,0.13839163,0.22245294,-0.13861829,-0.16719918,0.17377502,-0.06672475,-0.012139093,0.037948314,0.1151993,-0.18953171,0.083898045,0.27581352,0.21199246,-0.06382101,0.1413303,-0.066696994,-0.12583151,-0.00014767828,-0.15543738,0.11103853,-0.044165257,0.07447911,0.019152483,0.129026,0.10417718,-0.15048842,-0.041568045,0.09877842,0.14479437,0.2125608,0.099035606,-0.04208367,-0.057689738,-0.13506922,-0.06294568,-0.14058727,0.10372409,0.19191587,0.11414216,-0.099484645,-0.17609966,0.2182265,0.18103403,-0.17274141,-0.1515436,0.16823818,0.0043618283,0.20470807,0.2235477,0.16093647,-0.04230201,0.056310374,-0.07210797,-0.056035753,0.07033795,0.020058813,-0.009122177,-0.16401903,-0.47588313,0.21150531,-0.10080033,0.021582397,0.13150503,-0.16121967,-0.12595178,-0.00072687614,0.15172787,0.0035544543,0.105221935,-0.023380857,0.025474062,0.036763716,0.06368266,-0.12850493,0.07634182,-0.106063925,-0.09561291,-0.043556795,0.0003321912,-0.27529222,0.19039103,0.09266054,-0.16158566,-0.32123792,-0.22303523,0.2684299,-0.0122399535,0.05651158,0.12122034,0.26330972,0.03924427,0.22713763,0.040159073,0.09475514,-0.22339258,0.26440838,0.21340914,-0.16936778,0.32137972,0.24513116,-0.28168422,0.10204523,0.039596885,0.11080777,0.16289726,-0.024630921,0.08797939,-0.1596743,-0.097032666,0.12556793,-0.2913926,0.24527122,-0.25970092,-0.040009085,0.04345402,-0.01356531,-0.15414195,-0.086829916,-0.034105152,-0.2940456,-0.32818958,0.013857262,0.07866024,-0.17188096,0.32185644,-0.18314657,-0.16366084,0.12816423,0.15435746,0.20449172,-0.11952404,0.077703774,-0.015234133,0.081685804,-0.1451347,-0.13171943,0.030972134,-0.23970273,-0.024257151,-0.057691056,0.044267125,0.110769175,0.064774714,0.045737177,0.157887,0.024464495,-0.05452894,-0.31145987,0.12708697,-0.12052992,0.2013601,-0.014363137,3.5163383,0.20552135,0.13980077,0.010995595,-0.045869224,-0.007716327,0.17169559,0.030664278,-0.09317743,-0.10494578,-0.102305934,0.07891041,-0.011195467,-0.13155028,0.102251716,-0.102227606,0.17789142,-0.0004069958,-0.3238237,0.037771687,0.045493133,-0.14566359,-0.031145774,-0.36267957,-0.1094124,-0.011590242,-0.09775795,-0.025091669,0.26098254,0.021016326,-0.03743647,-0.056054335,0.078394085,0.10150747,-0.20990066,-0.14967482,-0.1483671,0.17784487,0.11553898,-0.16882642,-0.19092986,-0.122769736,-0.028110582,-0.017684178,-0.07417369,-0.06400664,-0.14823857,-0.16196708,0.05440262,-0.093096696,0.24000126,-0.15466534,0.09999045,-0.15605518,0.06869754,0.035413228,0.0007525492,0.38866755,-0.09834138,0.05810442,0.02976661,-0.19555101,-0.22527587,-0.13941714,-0.08581787,0.018394543,-0.2045549,-0.05659936,0.080077596,-0.14333707,0.13710798,0.10585179,0.38182256,-0.13190468,-0.15295264,0.023624647,-0.077271245,0.089749075,0.15049495,-0.098082945,-0.013260589,0.2866842,0.12508316,-0.22775768,-0.08218555,-0.18292058,-0.03064937
ADI-47055,-0.042000983,-0.10015054,0.08159423,-0.14557503,0.061053075,-0.04154442,-0.08861094,-0.20970558,-0.47139764,0.28931725,-0.033917606,0.020739585,0.08048723,0.09276171,0.05761129,-0.25562832,-0.010467677,-0.0352638,-0.35003877,-0.043723542,-0.14485465,0.16282988,0.19351356,-0.050227422,-0.14327283,0.004383088,-0.10620102,-0.031554073,0.07415817,-0.055811357,-0.040100135,0.092897415,0.020253764,0.108812064,-0.09423875,0.23935235,0.004327414,-0.215103,-0.24449833,0.19882473,0.23342004,0.093343526,-0.13940725,0.036117483,-0.1271371,-0.01231675,0.1242777,-0.15775621,-0.29543364,-0.1373372,0.17106093,0.17592332,-0.076738894,0.16561675,0.16042215,-0.18160994,0.12999271,0.040433105,-0.21699303,-0.055076186,-0.20874284,0.06001241,-0.012946133,0.07968395,0.05020779,-0.08524231,0.30182382,0.13078468,-0.19523695,0.07061141,0.134791,0.28015405,-0.0023476044,0.055439163,-0.28683233,-0.08168806,-0.080981046,-0.09710077,-0.11164633,0.0046217847,-0.116706885,-0.044674605,0.13404517,-0.06279654,-0.046843626,-0.07219427,0.14838646,-0.06822792,-0.17137992,0.13290888,0.15760104,-0.13936885,-0.18450144,-0.0045139636,0.15492095,-0.0389079,0.23015904,0.14532657,-0.14878252,-0.07650262,-0.4115886,-0.012713413,-0.11965358,-0.07586969,0.20801409,-0.037712883,-0.039572198,0.25363964,-0.16421072,-0.25383365,0.29901084,-0.23687953,-0.2573529,-0.27423027,0.10410559,0.1368488,-0.052240986,0.24864806,0.022621864,-0.031511303,0.06412837,0.04970941,-0.04498054,-0.21427345,0.0953426,0.13286191,-0.06376545,-0.19826515,-0.009668758,-0.06532477,0.047575418,0.005352697,0.22603437,-0.11485196,-0.091079384,0.0065122577,-0.022318564,-0.026380502,-0.09385763,-0.039452843,-0.122486256,-0.12985809,0.015205911,0.120105475,0.44985768,0.016973352,-0.13605659,0.05169914,0.20499673,-0.09604851,-0.08372858,-0.13991196,-0.07517364,0.25281966,-0.056526523,-0.11171082,-0.15458545,-0.14735349,0.06836699,-0.038766734,-0.23645175,0.04823475,-0.3392781,-0.05294898,-0.22297795,0.014989383,0.05466024,-0.14992769,0.0019535634,0.24940576,-0.23087929,-0.017557569,-0.012082935,0.06883899,-0.05629224,-0.009826189,0.4257552,0.077096514,0.22573048,0.13336536,0.17212786,0.104458995,-0.001136169,-0.076634645,0.00952454,-0.19912595,0.35766736,-0.13349476,0.065133,-0.21845432,-0.20549907,-0.054056972,0.18407792,0.03945958,0.0969084,0.070734724,-0.117035955,-0.031979535,-0.14843637,-0.25476074,-0.08663213,0.28489217,0.09489732,0.1926395,0.10069561,-0.22671188,-0.022154195,0.061588515,0.14310083,-0.060354825,0.07314213,0.038789008,-0.06077635,-0.13742037,-0.002526899,0.03358745,-0.2512914,0.11407138,0.010007401,-0.0013978095,-0.04918219,-0.14655864,-0.25753856,0.0052518398,-0.20269957,-0.14986773,0.17020777,0.07017801,-0.0005769631,-0.010476479,-0.05751264,0.016447503,-0.20045522,0.053669564,0.20639402,0.13523792,-0.07428996,-0.02480921,0.010478418,-0.045067105,0.15147412,-0.013964646,-0.098699905,0.1477413,0.042689048,-0.10983972,-0.15111928,-0.12351772,0.07601279,-0.02190912,0.20603713,0.20675139,0.24386887,0.19389305,0.14817889,0.10956032,0.31155673,0.14105254,0.1153666,0.13974765,0.12387333,0.073682405,0.014034011,-0.0727292,-0.010467896,-0.19321045,-0.19929197,-0.09675271,0.20726147,-0.0012337157,0.057410967,-0.06332995,-0.15557238,-0.06629578,-0.26064005,-0.11853943,0.1084729,-0.1250634,0.16565776,-0.81215376,0.19171032,0.045969985,0.11544473,-0.02037205,-0.031484958,0.01630457,-0.06024489,-0.11138084,-0.044611126,0.005099459,0.044729143,0.4240377,-0.02543626,0.19797744,-0.114919566,-0.06481578,0.00091617065,-0.0064867367,-0.16939025,0.0246156,-0.111456096,0.04421549,0.1120247,0.22212031,-0.16476731,-0.02120816,0.20931819,-0.021711078,0.024829935,0.024560485,0.13923883,0.06692235,0.028873282,0.11794827,0.19860393,-0.24892801,-0.089630656,-0.02938438,0.19038928,-0.075573675,-0.015655562,-0.15307632,-0.18611334,-0.121081986,-0.15842009,0.056503654,0.031347156,0.03737872,0.32001612,-0.10406593,-0.13180749,-0.045620497,0.10679266,-0.11248899,-0.00713024,-0.0016573047,-0.23821183,-0.22486219,-0.026889306,0.10756218,0.13163942,0.17329097,0.007889136,0.02819958,0.029195856,-0.2713731,-0.05741813,0.07000846,-0.078810066,-0.06482774,0.03936918,0.10497245,-0.010847989,-0.12080056,0.15560089,-0.047100693,-0.036734853,-0.08951341,-0.037841253,0.2950619,-0.3008148,-0.015130756,-0.12542816,0.14518124,0.19520468,0.09717175,0.265338,0.09198017,-0.121728815,0.015099864,0.15133616,-0.043325927,-0.13493566,0.13472445,0.25046632,0.024216574,0.075697616,-0.06909498,0.038552836,0.110047355,0.062003836,0.03774385,0.27877206,0.135679,-0.03783967,-0.107650936,-0.088925324,-0.08655127,0.025818864,-0.023276296,0.055701703,-0.1920053,0.22848186,-0.08165572,0.06850479,0.28687721,0.23361875,0.24187326,0.14738087,0.051572006,0.21762638,0.09944323,0.21492861,-0.09347317,-0.16996436,0.15563665,-0.09074138,0.01796756,0.03916203,0.12311787,-0.1665608,0.08088015,0.23587193,0.24552906,0.030505152,0.13286312,-0.03138696,-0.13831133,-0.018313142,-0.20873605,0.11462331,-0.08747088,0.06805136,-0.00084049295,0.061866257,0.112856776,-0.2216776,0.011132859,0.12649834,0.13683195,0.17527653,0.100719295,-0.010137703,-0.018905273,-0.13969047,-0.042568427,-0.12222414,0.12158851,0.19977286,0.1116191,-0.0661588,-0.16519155,0.30940744,0.15719275,-0.19576254,-0.14545412,0.16917628,0.012504493,0.21922459,0.25880527,0.118481636,-0.09909168,0.077511236,-0.081554875,-0.017761296,0.084164776,0.095848136,-0.05483242,-0.16677327,-0.53214854,0.18243624,-0.1073072,0.005139734,0.10947393,-0.17784812,-0.080913514,0.03705041,0.21686636,0.03768542,0.12609354,-0.023828425,0.087827526,-0.0006276391,0.077399224,-0.17310756,0.08154182,-0.12246653,-0.07301961,-0.026534159,0.024854742,-0.28973925,0.15979296,0.034266174,-0.17828402,-0.23685133,-0.23948888,0.22062312,-0.016206978,0.005201,0.10582171,0.23723802,0.01426863,0.17073484,0.12436723,0.09229228,-0.25826713,0.25382826,0.19934107,-0.2271288,0.29910094,0.24898888,-0.32260248,0.1310614,0.03871809,0.098992184,0.16791946,0.00038407705,0.069757245,-0.16473313,-0.1033254,0.105827846,-0.3808528,0.25679913,-0.24532443,-0.048049916,0.04685879,-0.029804798,-0.15381108,-0.056724302,-0.032366313,-0.2766695,-0.30230704,0.028596811,0.046706278,-0.21932068,0.27516127,-0.23261526,-0.23359066,0.113067195,0.050258446,0.14711152,-0.108119205,0.05148623,-0.050486997,0.040869433,-0.1408463,-0.1408702,0.0433844,-0.22169116,-0.07089967,-0.05762539,-0.0019504315,0.04721023,0.10510028,0.083531804,0.1380507,0.028806245,-0.096005395,-0.37189603,0.107310936,-0.14887945,0.18517259,-0.03374872,3.664857,0.20395887,0.079943545,-0.013405327,-0.047259506,0.0023324105,0.17575637,0.012267349,-0.0961276,-0.1138135,-0.054515474,0.108526215,-0.056883764,-0.08132596,0.017890804,-0.07100788,0.2071588,-0.015283459,-0.2914449,0.030344458,0.09721642,-0.10540509,-0.021392467,-0.3439025,-0.11841762,-0.0055335527,-0.059480663,-0.015627548,0.33746535,0.06892131,-0.03618477,-0.077601805,0.054560114,0.07827445,-0.2205001,-0.13743706,-0.11112594,0.12850308,0.1631776,-0.15317951,-0.15009272,-0.1092816,-0.0061521814,-0.010148372,-0.080381505,-0.09363026,-0.17698571,-0.15839471,0.02877831,-0.08533061,0.25631502,-0.14485814,0.1084521,-0.13551025,0.10059353,0.010393031,0.042367514,0.38450876,-0.06666209,0.082632564,0.07332585,-0.20005694,-0.23201475,-0.16887844,-0.12521625,-0.04568879,-0.18496342,-0.029103829,0.08052192,-0.13473958,0.1659887,0.05816139,0.37132245,-0.18763022,-0.1339024,0.020181589,-0.067535296,0.065396324,0.13271004,-0.053500928,-0.012735644,0.22123177,0.13758317,-0.2267025,-0.049576364,-0.13346715,0.0025980906
ADI-47174,-0.015059117,-0.070182085,0.083067924,-0.13568757,0.085408635,-0.08600531,-0.10138367,-0.23181812,-0.41107062,0.25763372,0.022524456,0.047684338,0.08710327,0.08329691,0.040380087,-0.20661005,-0.0027105042,-0.0037269944,-0.29912248,-0.063428156,-0.13749054,0.14372066,0.1726415,-0.00043252012,-0.11920535,0.02033275,-0.14686209,-0.02076238,0.08528881,-0.028002042,-0.033157565,0.1052507,0.044281602,0.08401305,-0.07128334,0.21108116,-0.014076193,-0.23096919,-0.20405908,0.17668852,0.2250836,0.12191356,-0.17577904,0.0049871462,-0.15467755,0.011009906,0.13671158,-0.21533068,-0.2516585,-0.109504506,0.20374788,0.16815645,-0.039582077,0.1922656,0.14188723,-0.17934276,0.14186256,0.048330884,-0.19894132,-0.051729202,-0.20350753,0.0794154,-0.020544337,0.09570575,0.05082744,-0.08303222,0.22912566,0.14681305,-0.13722762,0.03180767,0.11627698,0.2127147,0.008709109,0.06820897,-0.30127275,-0.07105847,-0.12759033,-0.08571946,-0.11219754,0.013511763,-0.12603049,-0.08009349,0.16328135,-0.009424722,-0.025700295,-0.057955887,0.11466869,-0.04723323,-0.16679478,0.11164675,0.13208269,-0.115156196,-0.14781237,0.0080861505,0.13508676,-0.011536693,0.2377571,0.121573575,-0.16753295,-0.05078583,-0.38054463,-0.0030367773,-0.057881538,-0.08349855,0.21272561,-0.073357195,0.0032367702,0.24038151,-0.1324653,-0.19840583,0.22886935,-0.25202128,-0.26465303,-0.25056663,0.08763154,0.1461604,-0.006402654,0.19342159,0.0558743,0.011298261,0.06679109,0.022359554,-0.03813284,-0.18093148,0.037281092,0.07200526,-0.0828338,-0.16713889,-0.011017587,-0.08932126,0.0671772,-0.03783657,0.1828466,-0.10045977,-0.07355566,-0.0032040752,-0.0071909255,-0.025223294,-0.09000425,-0.050053444,-0.12870304,-0.12519923,0.020419061,0.11690921,0.47158253,-0.0019797932,-0.12414535,0.06943197,0.18456505,-0.06219958,-0.074440114,-0.08056726,-0.120250806,0.16819619,-0.041179102,-0.08078133,-0.10392662,-0.074310765,0.08066676,-0.027557373,-0.2455648,0.00951575,-0.34028706,-0.03320583,-0.24926344,0.019642863,0.06473262,-0.15673976,0.017810507,0.25178894,-0.24042888,-0.04270355,0.016633993,0.05894913,-0.08739156,0.0057049114,0.4261013,0.12135312,0.18441719,0.14294882,0.18959138,0.042757228,0.025554188,-0.08272316,0.021484224,-0.18759187,0.3367548,-0.10225336,0.038694162,-0.21390745,-0.22861546,-0.06608754,0.13852167,0.049520183,0.08202449,0.08479837,-0.047280543,-0.0051405868,-0.14411893,-0.28164214,-0.08304289,0.2877393,0.0702919,0.19691676,0.08672263,-0.23450722,-0.015213919,0.04449196,0.14365287,-0.07072737,0.067147866,-0.012194185,-0.049163118,-0.1253383,-0.011921153,0.021623878,-0.242072,0.10473833,-0.0022512202,-0.020686874,-0.034385,-0.1316672,-0.23627155,-0.0017982741,-0.1712056,-0.11782903,0.1381836,0.08008707,0.006424446,-0.015876975,-0.021950252,0.036816534,-0.2039765,0.008262978,0.15914719,0.12651369,-0.0603001,-0.032697402,0.015273768,-0.08436232,0.14559163,-0.037932385,-0.09383366,0.12830609,0.014010224,-0.14568149,-0.14706816,-0.10362617,0.08286016,-0.00032805104,0.12951015,0.1460836,0.20903486,0.21301584,0.11957999,0.08472229,0.29489908,0.09430431,0.09460218,0.09759114,0.14234808,-0.020754,0.012423138,-0.08751491,0.033681348,-0.17651828,-0.20918253,-0.084738955,0.21087046,0.041076947,0.08128727,-0.047135185,-0.17795254,-0.022058453,-0.21157956,-0.12266562,0.111756414,-0.1301275,0.14644207,-0.82430714,0.20636272,0.03796015,0.15627052,-0.035020936,-0.046754163,0.04713986,-0.05743102,-0.10861666,-0.0863101,-0.019530963,0.006789905,0.4028482,-0.046123628,0.18776877,-0.07845788,-0.059698474,0.024965622,0.0006963603,-0.15959324,0.05061272,-0.08304334,0.03497217,0.12166981,0.20104788,-0.11326377,-0.014118151,0.24027658,0.015077759,0.011552069,0.007188214,0.1304313,0.08676909,0.035386585,0.15800767,0.18853982,-0.23465379,-0.08034816,-0.01899538,0.17954175,-0.08176658,-0.035927784,-0.17114674,-0.17858551,-0.17154004,-0.19572154,0.059339486,0.0015154829,-0.0030155065,0.3221463,-0.069533244,-0.12705772,-0.092141,0.09272827,-0.055516206,0.040569562,-0.00581821,-0.21823722,-0.20082252,-0.030622382,0.12009341,0.14445141,0.12605508,0.02006597,0.034383364,-0.016802318,-0.23417772,-0.023472037,0.075094014,-0.05763599,-0.047692988,0.025291951,0.12518087,-0.005451828,-0.11952993,0.1649674,-0.011972868,-0.031612754,-0.10271264,-0.0028825556,0.2841424,-0.2826144,-0.010069379,-0.110441595,0.1268102,0.21109548,0.07391001,0.26350933,0.10163649,-0.12343982,0.018220285,0.14392567,-0.021483911,-0.15526928,0.12585457,0.21551488,0.004258099,0.029115813,-0.09683654,0.027174987,0.14155672,0.07374344,0.022647819,0.24116698,0.12634689,-0.03709929,-0.09838006,-0.08962147,-0.032586515,0.055253766,-0.042252176,0.026331158,-0.22637938,0.2039948,-0.059058752,0.026335707,0.2830107,0.20937453,0.20050189,0.12755103,0.04070147,0.2281005,0.13715532,0.22236921,-0.08440169,-0.18308102,0.17340927,-0.09664993,0.0067804134,0.033081908,0.12899221,-0.16873813,0.07705414,0.19048296,0.2294183,-0.044313364,0.14002186,-0.012072051,-0.10523915,-0.031072326,-0.21595447,0.07638205,-0.051646184,0.07509553,0.011461898,0.062177304,0.05190852,-0.20101413,0.0013582249,0.14384297,0.120556735,0.17626725,0.060541175,-0.023216434,-0.03650764,-0.11708345,-0.02115995,-0.12528293,0.093739755,0.18768756,0.1276388,-0.06485459,-0.13640049,0.30523774,0.1393312,-0.18738261,-0.15755574,0.16124626,0.019122452,0.17967002,0.23682101,0.118880205,-0.09900007,0.10453132,-0.08300103,-0.036038972,0.08700681,0.08838843,-0.05044057,-0.16236551,-0.4578893,0.1381921,-0.1038496,0.023229565,0.10827706,-0.13702574,-0.08277715,0.027271973,0.23003575,0.0071289022,0.118668824,-0.03839233,0.081177875,-0.0021387637,0.044099886,-0.12813048,0.03995626,-0.1241649,-0.080997065,-0.05072735,-0.0005807633,-0.2800888,0.16022402,0.08233716,-0.19447443,-0.22423196,-0.24450874,0.20525613,-0.02372136,0.05777911,0.13541909,0.2220808,0.039616082,0.16424868,0.08181604,0.078294724,-0.22368148,0.24649723,0.15743804,-0.21586533,0.26754153,0.23566958,-0.2684159,0.08972132,0.04754049,0.11426795,0.17979698,0.020070102,0.08841177,-0.13179007,-0.064530544,0.06910447,-0.3140747,0.24485534,-0.26223296,-0.005755323,0.03803153,-0.030716388,-0.14361413,-0.060875066,-0.05884632,-0.29235452,-0.3207768,0.019136988,0.10861301,-0.20556949,0.30189365,-0.20394243,-0.21560717,0.081719026,0.07396219,0.13218832,-0.13374133,0.02863143,-0.03660732,0.066223934,-0.11813659,-0.13935997,0.06024637,-0.21080634,-0.048289623,-0.08083581,0.011303469,0.07884965,0.09254055,0.047030907,0.15561885,0.033100385,-0.0737622,-0.3395123,0.07172532,-0.11613833,0.18966714,-0.031720847,3.841719,0.19694844,0.13229296,0.014226594,-0.024295704,-0.030030752,0.15806957,0.0125888735,-0.09319143,-0.10510986,-0.06520034,0.11284583,-0.058742803,-0.11003893,0.031305715,-0.09746769,0.1549082,-0.037567005,-0.2779742,0.015073222,0.083190605,-0.09080894,-0.022163773,-0.323823,-0.10040269,-0.04880363,-0.066503316,-0.021648077,0.28408813,-0.0008472378,-0.060654085,-0.04847862,0.04121232,0.067794256,-0.22165044,-0.16715145,-0.1005421,0.11130663,0.1447276,-0.15528694,-0.14010231,-0.0980105,-0.021149822,-0.040597662,-0.07965932,-0.060572363,-0.120864786,-0.15861635,0.022983106,-0.08155449,0.26139992,-0.16900457,0.087447785,-0.101098284,0.0890175,0.0038042318,-0.0061535966,0.32923442,-0.08052162,0.074892916,0.055543624,-0.15009053,-0.18948735,-0.20397347,-0.13953431,-0.016430262,-0.21187676,-0.056394175,0.076293424,-0.11055712,0.17254998,0.04253494,0.37624952,-0.15477525,-0.13692337,0.04851107,-0.037121825,0.059579067,0.16192536,-0.12850034,0.007702306,0.23311554,0.1056225,-0.2039266,-0.08643349,-0.1628182,0.027732437
ADI-47056,-0.053888593,-0.08633741,0.06979336,-0.13071248,0.048530865,-0.057355437,-0.07912022,-0.24322161,-0.45870978,0.23916563,0.006098019,0.02089588,0.06538813,0.061058447,0.06553484,-0.27472857,0.0011322893,-0.020506458,-0.31178242,-0.043059357,-0.11653218,0.16429438,0.19903183,0.0124366805,-0.12879828,0.02518592,-0.16025655,-0.022179833,0.06123996,0.002837873,-0.02432906,0.12852795,0.03851458,0.09440096,-0.07795863,0.2315843,0.0031689883,-0.21158102,-0.23370656,0.17180592,0.2006509,0.114327826,-0.14070794,0.0039925883,-0.12532845,0.013081337,0.1327447,-0.19799267,-0.2746742,-0.090032555,0.1910227,0.15038806,-0.04669942,0.15503028,0.14382921,-0.18615256,0.12358167,0.048270255,-0.21279706,-0.034820966,-0.19706687,0.0700007,-0.02982298,0.08075739,0.033075433,-0.08515484,0.24773179,0.1287978,-0.18047842,0.020012395,0.12200516,0.25538653,0.0067704595,0.048684973,-0.32318974,-0.049698472,-0.09093767,-0.075635806,-0.112633675,0.012132157,-0.1083346,-0.047299046,0.13921931,-0.01427303,-0.030924128,-0.09888266,0.13222453,-0.055369977,-0.10610501,0.10630109,0.12810853,-0.14217824,-0.12448536,0.045402266,0.13419019,-0.029336775,0.269818,0.1485858,-0.19614683,-0.0383899,-0.3889336,-0.007179227,-0.054236215,-0.082160994,0.2187379,-0.03375517,0.0065966872,0.24330169,-0.13666002,-0.18212387,0.24520312,-0.2341459,-0.2991348,-0.23877119,0.076232694,0.13974427,-0.018077785,0.18771577,0.044372186,-0.0099820085,0.06461335,0.04683742,-0.032619834,-0.21284316,0.110885516,0.058510374,-0.087800875,-0.17344502,-0.0018899683,-0.08452159,0.02539117,-0.033580903,0.16071324,-0.13009709,-0.091295116,-0.020646293,-0.0033927776,0.007867162,-0.08361008,-0.00535958,-0.17547745,-0.120713204,0.035957493,0.14772166,0.5125014,0.00073207973,-0.13146465,0.04226029,0.18975298,-0.09702946,-0.050118834,-0.09341439,-0.08281135,0.20857511,-0.035995536,-0.094709225,-0.12727521,-0.13070561,0.076350756,-0.039936498,-0.23414221,0.006295049,-0.34204593,0.026476283,-0.243845,0.026769275,0.090920016,-0.16617897,-0.009685777,0.24397585,-0.2530276,-0.057138253,-0.022473013,0.06790878,-0.033667207,-0.030102791,0.42288664,0.08717898,0.21097565,0.16041586,0.19142163,0.03965176,-0.002541829,-0.09252092,0.011233468,-0.18473344,0.29855734,-0.13850595,0.08333755,-0.20738167,-0.22711241,-0.029459106,0.16024245,0.050531544,0.03790405,0.04722222,-0.060127,-0.020604733,-0.19062752,-0.27105102,-0.08088261,0.29594266,0.11228402,0.15964578,0.08687306,-0.22366881,-0.023643963,0.018808901,0.15868637,-0.07373235,0.07328782,0.04289733,-0.050843224,-0.1230142,0.05299426,0.045240425,-0.24428327,0.10565716,0.017456617,-0.024575198,-0.045013156,-0.10159103,-0.25956511,-0.0006105541,-0.19654238,-0.1275248,0.13217129,0.08248844,0.020131318,0.00048087476,-0.07958604,0.041589558,-0.22258484,0.026761796,0.16464172,0.10304184,-0.06503604,-0.045479525,0.04625111,-0.07687357,0.1421201,-0.051028445,-0.12142707,0.12185657,0.008951441,-0.15319778,-0.16725524,-0.11830507,0.07907644,0.0078226095,0.1679611,0.17501062,0.22515628,0.201258,0.16337205,0.083191514,0.31588316,0.11853804,0.08194473,0.14212285,0.13005234,0.022146441,0.01051417,-0.10486836,0.035245858,-0.17758706,-0.2001277,-0.08729355,0.2047399,0.020368049,0.075162746,-0.046117682,-0.20796123,-0.06409804,-0.22585404,-0.10087903,0.12342438,-0.13611847,0.17383476,-0.7895372,0.19720362,0.058012024,0.12157938,-0.029907465,-0.050178226,0.03328691,-0.07328175,-0.13074304,-0.068720095,0.0052731717,-0.0016130083,0.37618515,-0.0129458755,0.17976113,-0.11780965,-0.03609398,-0.006188009,0.017167352,-0.13587274,0.038615737,-0.10172266,0.069938414,0.13239618,0.20546071,-0.13470078,-0.015154733,0.22328289,-0.016596386,-0.007567574,0.039273687,0.15770227,0.073512144,0.04554411,0.12904434,0.19089544,-0.23407464,-0.14161773,-0.043834373,0.18048126,-0.087155014,-0.033599723,-0.18141423,-0.14362769,-0.18133317,-0.19579855,0.071880355,0.041253537,0.018282352,0.33720112,-0.07560161,-0.1573428,-0.060227312,0.119424604,-0.121736996,0.023932721,-0.013448545,-0.23375125,-0.17128198,-0.028207783,0.11140498,0.13661177,0.12936229,0.04551244,0.0019964688,0.007557836,-0.23114805,-0.057334196,0.06394686,-0.07788169,-0.057869833,0.011367912,0.13612379,-6.927756e-05,-0.1281485,0.19314711,-0.0020773048,-0.0018773157,-0.13090004,-0.051203627,0.29579854,-0.31126887,-0.0023988911,-0.12863904,0.11636453,0.16542648,0.06427672,0.26713347,0.08100348,-0.123612925,0.014117918,0.18053423,0.00019745565,-0.17940794,0.12872532,0.22153075,0.038007863,0.104469225,-0.07497128,0.03206224,0.14678214,0.07051654,0.0167223,0.25058,0.15935743,-0.027601384,-0.13094167,-0.086080775,-0.060346007,0.031821627,-0.07747214,0.05604076,-0.1737761,0.20890985,-0.0957808,0.0077692177,0.27851897,0.2238263,0.23143092,0.13206166,0.06339044,0.23179378,0.14205468,0.21322972,-0.0840384,-0.15425175,0.16403735,-0.107415654,0.024496488,0.026710285,0.13565303,-0.18001087,0.07862507,0.2073998,0.24255987,-0.008377023,0.1286547,-0.028506733,-0.14054006,0.00042741036,-0.18941882,0.07904195,-0.10797424,0.08033899,-0.010623841,0.06944176,0.040862158,-0.17438167,0.017019885,0.14285451,0.097754054,0.1658028,0.06130932,-0.008545925,-0.029906107,-0.123615995,-0.040464222,-0.13689488,0.10247746,0.21539676,0.13727276,-0.11382715,-0.16526859,0.2899549,0.15548362,-0.16096023,-0.1587733,0.14871457,-0.015255515,0.19898641,0.2455306,0.1734181,-0.0670739,0.14244476,-0.08609302,-0.016321937,0.05440087,0.0893137,-0.03825662,-0.14127259,-0.47722137,0.18160121,-0.105585076,0.033083133,0.12958156,-0.15717778,-0.05376154,0.035450097,0.22574082,0.034258213,0.12062784,-0.04091116,0.075048596,-0.047781833,0.07098149,-0.16091755,0.07085321,-0.12003168,-0.06458846,-0.05210081,-0.016114507,-0.28055045,0.16506505,0.042153344,-0.17511138,-0.2297149,-0.25831404,0.22032787,-0.047550492,0.02300646,0.14315908,0.21979645,-0.0024294397,0.18533549,0.061039418,0.07443027,-0.22393708,0.24379863,0.19021343,-0.2289875,0.25823578,0.24373516,-0.29066044,0.13269682,0.060793728,0.12774204,0.17035139,0.055383317,0.062843226,-0.16506796,-0.08060322,0.08866922,-0.34084675,0.22982056,-0.25819695,-0.014865968,0.034697812,-0.031637654,-0.13737185,-0.06334672,-0.05655586,-0.28210998,-0.3274449,0.01574052,0.0747824,-0.19971707,0.2789639,-0.20050295,-0.22165366,0.097887054,0.056720085,0.10148676,-0.12670569,0.0041273204,-0.05728377,0.01953467,-0.1030164,-0.10768313,0.07231649,-0.25045428,-0.04715994,-0.024563657,0.03909728,0.09792736,0.06508992,0.059243977,0.1346885,0.03955464,-0.043398496,-0.38416198,0.102993816,-0.15233046,0.18276477,-0.023977473,3.6999207,0.17395093,0.1331638,-0.036027107,-0.046140406,-0.03779299,0.15260482,-0.013138156,-0.08047623,-0.13342936,-0.06955039,0.10733076,-0.07538567,-0.061513394,0.025100568,-0.09447766,0.18721966,0.0026114376,-0.2765074,-0.00050009775,0.08716424,-0.11830754,-0.05824176,-0.33739758,-0.10357453,-0.01976782,-0.02883329,-0.014583016,0.2986258,0.023581011,-0.0176721,-0.07268715,0.04576351,0.085475154,-0.20047836,-0.1686463,-0.08884409,0.11395327,0.17240216,-0.19218431,-0.14339228,-0.114041,-0.042324383,-0.025362793,-0.07402066,-0.04506131,-0.14759524,-0.10852866,0.030649839,-0.07133766,0.25147197,-0.15620725,0.12564905,-0.1339752,0.10703594,0.025962435,0.053445183,0.35315487,-0.074683465,0.08731332,0.077764876,-0.15261179,-0.21540122,-0.17270392,-0.12590827,-0.035171997,-0.19127297,-0.04361204,0.03275464,-0.16486752,0.17000474,0.03370251,0.39046755,-0.15779251,-0.114470735,0.051529497,-0.04901065,0.08718717,0.16741687,-0.08160523,0.010432036,0.21248223,0.13917607,-0.17176323,-0.03762508,-0.15772219,-0.004812772
ADI-47279,-0.051309522,-0.06670482,0.09846957,-0.14698808,0.035209022,-0.093673155,-0.08747381,-0.2530917,-0.44748774,0.25016043,0.0068898816,0.033218626,0.06276523,0.10914034,0.068346046,-0.18950333,-0.026471885,-0.014437346,-0.31628063,-0.03725462,-0.14248674,0.13200971,0.16509576,-0.010997895,-0.15163727,0.011362121,-0.14640142,-0.03406677,0.057806406,-0.055376653,-0.030566335,0.10295059,0.019342272,0.11296482,-0.0805365,0.2228669,0.0063502593,-0.22470342,-0.20458801,0.13630924,0.2280551,0.14167649,-0.15806554,-0.0065725013,-0.18235931,-0.0031572187,0.14325549,-0.18930022,-0.25857073,-0.14201818,0.18297379,0.1849897,-0.08813981,0.17910707,0.15771407,-0.16356464,0.13383043,0.032107584,-0.19071211,-0.042504676,-0.20486858,0.05122283,-0.026696242,0.07664691,0.054235056,-0.070039466,0.26014054,0.13398392,-0.17567335,0.03699943,0.15048422,0.2548025,-0.0029321031,0.043670144,-0.2914872,-0.06314147,-0.07631796,-0.11064962,-0.07569689,0.018313484,-0.12755992,-0.023238966,0.116731666,-0.052773472,-0.036809687,-0.093271464,0.1368309,-0.0749516,-0.18683752,0.098673284,0.1502875,-0.13216324,-0.15370858,-0.017386599,0.14498195,-0.03498311,0.22235435,0.12276455,-0.15819873,-0.026847316,-0.45455375,-0.003456552,-0.102425225,-0.092885986,0.23698516,-0.044330195,-0.042315785,0.25147173,-0.13553318,-0.21946827,0.24124762,-0.25454047,-0.25260076,-0.25615266,0.11498433,0.1204482,-0.019461676,0.20616733,0.054437842,-0.019907417,0.077436514,0.03649069,-0.04215955,-0.20754729,0.078519784,0.09104766,-0.08294885,-0.17921895,-0.019437859,-0.07018482,0.024026554,-0.016654413,0.2136783,-0.08968835,-0.09240925,-0.011130263,0.009109547,-0.037717026,-0.07425533,-0.04574917,-0.096827015,-0.09500355,0.0004123106,0.12147119,0.48782223,0.03112045,-0.13915978,0.040910922,0.22211793,-0.08143489,-0.09394227,-0.089651555,-0.0493825,0.23406762,-0.04597807,-0.10813634,-0.1314768,-0.15210654,0.07144788,-0.06417003,-0.24959622,0.045969713,-0.33363256,-0.021940352,-0.24800104,-0.0061551975,0.10028397,-0.1473823,-0.01738556,0.25620905,-0.2671605,-0.030329933,-0.0038278007,0.037474487,-0.049098734,-0.013306455,0.42589036,0.07984962,0.19408862,0.13538848,0.16284949,0.049832053,-0.016534658,-0.07909326,-0.009088366,-0.18870308,0.34536874,-0.14859256,0.038957484,-0.23737714,-0.22289805,-0.04484146,0.16998051,0.07503118,0.051139876,0.061731167,-0.07814452,-0.018388772,-0.13805659,-0.3006178,-0.089844204,0.29427952,0.10336233,0.19263336,0.085760266,-0.21363696,-0.012230109,0.06992475,0.17304529,-0.07103542,0.063242115,0.025608964,-0.025003972,-0.1411965,-0.017621467,0.042188857,-0.252743,0.07552737,-0.007437078,-0.013551269,-0.062317267,-0.13396019,-0.24990112,0.018546535,-0.1878241,-0.10172209,0.15444583,0.07887181,0.020701526,-0.013921054,-0.022612706,0.02342787,-0.20771497,0.01928666,0.16491392,0.12769878,-0.060785618,-0.031555705,0.019621022,-0.075619526,0.15601146,0.00014632333,-0.08224526,0.1441955,-0.018600112,-0.13025391,-0.15464154,-0.118006885,0.068153396,-0.01846349,0.17103451,0.1959686,0.24942546,0.14179401,0.11255955,0.10261344,0.33455458,0.14770462,0.07831479,0.15555765,0.13266322,0.010476225,-0.0139987385,-0.051733058,0.01801003,-0.17929418,-0.22768997,-0.121600024,0.18683559,0.024060952,0.0733697,-0.045802925,-0.16368142,-0.058953468,-0.2513106,-0.10201901,0.10787319,-0.14072864,0.14628239,-0.77604604,0.22634909,0.036931377,0.11467841,-0.025140997,-0.029604146,0.03481835,-0.05635869,-0.12631467,-0.04029088,-0.0047149193,0.031037815,0.36386302,-0.011750949,0.20504916,-0.11936912,-0.050343893,0.03255261,0.0205826,-0.1711361,0.018911641,-0.094972394,0.03358789,0.097361505,0.21967901,-0.13180992,-0.0024577167,0.23745704,-0.01783786,0.009379011,0.0647632,0.13781632,0.054497976,0.026469614,0.1407793,0.17569734,-0.22139822,-0.12577575,-0.033308942,0.17492051,-0.06291421,-0.013384963,-0.1638349,-0.20682259,-0.13248155,-0.15158425,0.060687505,0.05472049,0.052780036,0.34862763,-0.086182415,-0.156184,-0.051763,0.06352877,-0.12397788,0.018687207,0.014064357,-0.24104622,-0.17570183,-0.0028741895,0.0718107,0.14101891,0.16572252,0.02569015,0.010107111,0.02512227,-0.26111543,-0.041209,0.08965801,-0.12623286,-0.040892903,-0.0006905415,0.13389653,-0.010651929,-0.1246782,0.18815464,-0.01844941,-0.01685417,-0.12039505,-0.037728645,0.27451158,-0.2969735,-0.01149024,-0.15221274,0.074467845,0.17792563,0.087793075,0.28389013,0.08562582,-0.14078602,0.028930837,0.17083639,-0.0020334937,-0.15695702,0.1458301,0.25549272,0.024414916,0.037189867,-0.11391649,0.031119322,0.13205214,0.058820337,0.026260614,0.26006827,0.1247982,-0.03151209,-0.11909697,-0.084785566,-0.06365588,0.021046663,-0.02763152,0.039355617,-0.19653277,0.21547171,-0.06882328,0.032169458,0.31122518,0.24595034,0.20757046,0.12549995,0.06750375,0.24071503,0.1159085,0.19463062,-0.0877609,-0.1679851,0.18959755,-0.11203339,0.01590553,0.05629515,0.16404803,-0.16786024,0.07955761,0.20074908,0.25615367,-0.0035644602,0.16180171,-0.01795666,-0.113862254,0.0125078745,-0.19370526,0.11715017,-0.07992347,0.06764043,0.014188048,0.07249163,0.09316594,-0.19284473,0.002354149,0.12153696,0.13113502,0.16395819,0.107863426,-0.04386249,-0.012005174,-0.16039951,-0.037879802,-0.119663335,0.10827337,0.21752247,0.10617121,-0.059212126,-0.16672108,0.28074595,0.18783283,-0.15980275,-0.15346798,0.1474301,-0.017175848,0.20476241,0.24688733,0.13186324,-0.11888113,0.088188924,-0.055628363,-0.02727418,0.08307289,0.10486907,-0.04658219,-0.15618546,-0.49370846,0.16754022,-0.09900122,0.029318934,0.085851945,-0.12801796,-0.10005267,0.012926717,0.22883977,0.016007314,0.12684561,-0.02015958,0.10270135,-0.0043508606,0.074892454,-0.12938477,0.09326822,-0.12275908,-0.05319698,-0.04342249,-0.0014909996,-0.28714645,0.14282537,0.03707243,-0.13511446,-0.23000056,-0.2559044,0.24891342,0.00045380805,0.029914608,0.09513769,0.23851158,0.011664831,0.1570599,0.07803565,0.086931854,-0.22889684,0.24496047,0.17352071,-0.23264156,0.29690513,0.26527938,-0.2889721,0.12771131,0.050132617,0.10886613,0.19176686,0.020302502,0.093460165,-0.14181636,-0.09480866,0.081985466,-0.3662028,0.2500249,-0.279276,-0.087271914,0.024353618,-0.009948953,-0.15442203,-0.06844157,-0.043492187,-0.2805088,-0.3454084,0.034313213,0.06478326,-0.18806897,0.28765106,-0.22524476,-0.2130955,0.11625587,0.08136581,0.12059871,-0.13771166,0.01062804,-0.0340327,0.06203041,-0.11561557,-0.109381065,0.079906695,-0.25883424,-0.064930804,-0.07681798,0.022447262,0.097750984,0.101203635,0.059883196,0.1429047,0.0106866695,-0.07283753,-0.3807683,0.10188732,-0.1188711,0.17518707,-0.02861113,3.6616216,0.19400296,0.10648831,-0.033924308,-0.031851128,-0.040815737,0.16937347,0.015346904,-0.07161011,-0.11402804,-0.07450341,0.10501359,-0.047709413,-0.09589586,0.034418467,-0.07350761,0.1907666,0.034695398,-0.2892837,0.020892628,0.06352659,-0.12102203,-0.029273974,-0.31738493,-0.12883359,-0.018151838,-0.075421244,-0.03601093,0.26848698,0.050674014,-0.06385635,-0.069581755,0.03473596,0.0787829,-0.20157269,-0.14840719,-0.12924618,0.123416826,0.16231187,-0.17520833,-0.13023637,-0.10515736,0.004698104,-0.030663919,-0.056656197,-0.06548413,-0.1219659,-0.11351547,0.05307369,-0.100585036,0.24344984,-0.14717428,0.13216735,-0.09872401,0.10641507,0.022902409,0.00580667,0.35911357,-0.081381306,0.08267626,0.05506745,-0.17917095,-0.22206615,-0.15002294,-0.14018226,-0.017650748,-0.19092466,-0.044223804,0.0775734,-0.13803804,0.1660566,0.053594537,0.39493412,-0.16344433,-0.12262814,0.029577166,-0.06523042,0.09083313,0.143281,-0.07557925,0.0013720212,0.22683793,0.15178624,-0.2174046,-0.10263955,-0.1499446,0.039126493
ADI-47057,-0.000104134044,-0.108994514,0.06648113,-0.11592166,0.030207396,-0.08434591,-0.08686594,-0.2092703,-0.39265528,0.2212154,0.06533891,0.021854522,0.07213334,0.040648397,0.028628213,-0.26435822,-0.0137711745,-0.022096744,-0.25629735,-0.020462736,-0.08414376,0.122041225,0.14901195,0.015588325,-0.096886694,0.03563085,-0.14119017,-0.0064619742,0.08090318,0.0062638028,-0.0053112335,0.09438354,0.05044583,0.059754767,-0.07648382,0.23388754,-0.008439249,-0.20245375,-0.20214416,0.17778718,0.17549269,0.10950993,-0.16266963,0.010868852,-0.12830748,-0.0006776045,0.10255882,-0.1984929,-0.24065757,-0.06855556,0.19868085,0.1717064,-0.033303127,0.15675336,0.13829483,-0.19319032,0.09007774,0.0472841,-0.18230468,-0.01296942,-0.24002206,0.10409757,-0.02930388,0.09864927,0.043161876,-0.09459406,0.24990761,0.14008552,-0.13477215,0.030360935,0.12913233,0.2193451,0.00025409175,0.05396204,-0.24686493,-0.07214546,-0.10579252,-0.058486372,-0.08074458,-0.03330956,-0.14170164,-0.0648574,0.16443132,-0.02168984,-0.021498494,-0.08747049,0.080167696,-0.060574777,-0.10745756,0.1162425,0.09442821,-0.080641314,-0.14822586,0.010374643,0.11035565,-0.01648119,0.265957,0.13221307,-0.17590755,-0.06298103,-0.34074366,0.009337092,-0.008147366,-0.09756117,0.18913567,-0.072272494,0.042569384,0.20808995,-0.10971502,-0.1273235,0.21985877,-0.22036327,-0.27138028,-0.26743922,0.03637101,0.13063614,-0.0033455174,0.1770935,0.020931398,-0.0043411455,0.029014029,0.020620255,-0.055556532,-0.2143518,-0.0118020885,0.047274575,-0.06889595,-0.14657666,0.0062268707,-0.08871748,0.077498525,-0.03161487,0.18125184,-0.11861851,-0.08655551,-0.0022061982,-0.030154316,-0.013026934,-0.079838134,0.03882733,-0.13623904,-0.15229042,0.051329102,0.13947542,0.4918929,-0.029284095,-0.12186631,0.09099821,0.16466519,-0.060149718,-0.035682715,-0.07987209,-0.11464246,0.14791223,-0.05209028,-0.062888615,-0.091833405,-0.0718375,0.10853907,0.026379792,-0.19580829,-0.018116849,-0.3087918,-0.032596294,-0.25665325,0.048684154,0.08449237,-0.16968034,0.034652095,0.22013818,-0.20999832,-0.048966724,0.008153228,0.046439964,-0.04796028,0.010045496,0.37166566,0.104611106,0.19194067,0.15675528,0.21466823,0.040334404,0.008078432,-0.120609894,0.024417378,-0.18745866,0.28715897,-0.082850546,0.06814759,-0.18283771,-0.19782543,-0.05143046,0.14412645,0.040902924,0.08821216,0.08525208,-0.05592446,0.016129505,-0.19139124,-0.24003786,-0.07278263,0.25800243,0.057316072,0.14843325,0.08130795,-0.21853133,-0.06396967,-0.027524868,0.10354007,-0.059535634,0.057884425,-0.064944424,-0.03969113,-0.11335585,0.017172696,0.024651872,-0.2683635,0.11482384,0.010836743,-0.021548213,-0.05764494,-0.16329712,-0.23012215,-0.030862229,-0.14562915,-0.10757383,0.10726175,0.10407374,0.006246868,0.033763804,-0.03690847,0.04445727,-0.18125793,0.0321583,0.16383016,0.092177704,-0.04692997,-0.011125662,0.06566833,-0.047256198,0.16146718,-0.03515405,-0.10751042,0.0801738,0.04403234,-0.20034702,-0.11828989,-0.08598751,0.070194766,0.01016369,0.11588249,0.10031808,0.19604068,0.21276878,0.12545739,0.07695594,0.29401445,0.075097784,0.117539264,0.095717855,0.1392643,-0.027845252,0.0020974174,-0.12429916,0.037714835,-0.14674026,-0.20054689,-0.055976406,0.18140194,0.021695677,0.11298339,-0.029197773,-0.2100112,-0.00487538,-0.17027143,-0.07517293,0.10156329,-0.092350475,0.13802817,-1.0085086,0.22212821,0.043390572,0.1261501,-0.032702316,-0.03669431,0.080631614,-0.08035233,-0.104696795,-0.10870296,-0.004647906,-0.015582934,0.48347878,-0.030537253,0.14316422,-0.08016137,-0.070889086,-0.0079335235,-0.030617366,-0.1399792,0.06602373,-0.033192735,0.042688183,0.108155526,0.21282686,-0.09505369,-0.008819156,0.23200047,-0.014265304,-0.023807963,-0.022751706,0.11017188,0.075063676,0.053549316,0.12725535,0.1895741,-0.19831498,-0.09511345,-0.01090154,0.14369625,-0.084705085,-0.028182518,-0.19341142,-0.19577396,-0.1704488,-0.18144822,0.031488076,0.028814444,-0.009823971,0.2866522,-0.08947874,-0.104020014,-0.09208667,0.1319752,-0.021574104,0.06255002,0.019360414,-0.20563401,-0.2143214,-0.04889651,0.14854518,0.11164206,0.0826933,0.0019833976,0.022810131,-0.035443626,-0.18427218,0.0010658436,0.06263072,0.0120993145,-0.05774118,0.060491625,0.113009125,-0.0118461,-0.10613717,0.13521688,-0.013504127,-0.0038308029,-0.09779056,-0.04270839,0.28101757,-0.2637531,-0.04015345,-0.10219265,0.115101635,0.18935981,0.023705723,0.2811796,0.14943756,-0.13199157,0.014174827,0.13993093,0.0021167805,-0.12778592,0.12255281,0.19931237,-0.017506815,0.049185656,-0.09699553,0.024348622,0.15929875,0.08445708,0.017498739,0.2257074,0.1262338,-0.02761185,-0.118140176,-0.05797837,-0.013340596,0.043138325,-0.09679329,0.03344334,-0.16149355,0.17150159,-0.055770416,0.03281744,0.23560463,0.19735615,0.18164964,0.12845667,0.03609469,0.22933984,0.17551869,0.20588453,-0.06714704,-0.1678311,0.18436547,-0.064585716,-0.017254168,0.040564544,0.11070842,-0.12816983,0.071995296,0.18363482,0.2288049,-0.01473718,0.088940464,-0.017922543,-0.08863864,-0.05146578,-0.22827943,0.05966617,-0.05253538,0.07134194,-0.023454353,0.029835772,0.024803462,-0.15216641,0.0013505117,0.12850814,0.057858516,0.15755133,0.04312213,-0.0039778524,-0.044211235,-0.091380894,-0.019467574,-0.08164071,0.12738654,0.1773988,0.10794191,-0.10352342,-0.13732715,0.28195658,0.12236305,-0.19834219,-0.14938292,0.10577099,-0.033110656,0.16854775,0.24150376,0.11569034,-0.036623772,0.11700356,-0.09182519,-0.0039175767,0.089353554,0.092551276,-0.056188177,-0.16533577,-0.4627829,0.14479485,-0.07516333,0.02547194,0.117087096,-0.100193426,-0.022805026,0.053851884,0.22055237,0.017685698,0.112712845,-0.059301253,0.006759629,-0.0456675,0.0134559525,-0.14142488,0.04907364,-0.09684428,-0.07064156,-0.051006645,-0.0007571601,-0.25559992,0.10839008,0.061946556,-0.16621779,-0.21556093,-0.26822698,0.213532,-0.057791334,0.058802824,0.1539601,0.20634562,0.024946896,0.17756474,0.0906432,0.06087435,-0.21579865,0.18280683,0.13960397,-0.2304322,0.2680493,0.25994638,-0.24306716,0.093931116,0.016754964,0.10170164,0.14310582,0.025661584,0.05178394,-0.11989749,-0.05699717,0.05074457,-0.2559809,0.23227908,-0.22831832,-0.008871834,0.0048711207,0.0005072516,-0.14466682,-0.050738674,-0.030497102,-0.28182563,-0.26397914,0.010886499,0.08931203,-0.1946261,0.25116503,-0.19118759,-0.21617922,0.057969622,0.077864386,0.12700973,-0.097739525,0.015122739,-0.07363265,0.046064164,-0.092006385,-0.11097962,0.09433406,-0.24889664,-0.055980247,-0.05287964,-0.023438366,0.09179802,0.06454123,0.061666515,0.087484226,0.038318187,-0.06803193,-0.34273016,0.05338882,-0.14231984,0.18518846,-0.037468363,4.200149,0.180746,0.1617816,-0.0028068745,-0.05066279,-0.04253007,0.16884986,0.018504469,-0.077702075,-0.07207944,-0.08040586,0.122320555,-0.084700264,-0.08055363,0.021698417,-0.10919781,0.1852407,-0.03310908,-0.2611965,-0.032782592,0.103575215,-0.081586815,-0.04085449,-0.30646718,-0.095259756,-0.061637804,-0.022963751,-0.009268169,0.2754681,-0.039330628,-0.05607549,-0.052978493,0.051073506,0.052600935,-0.19301255,-0.17214514,-0.057681184,0.085226476,0.14548638,-0.15388966,-0.14876916,-0.08194234,0.028788036,-0.03972082,-0.07369191,-0.049072575,-0.15073967,-0.16687869,-0.020065902,-0.068375684,0.270864,-0.17723908,0.086538136,-0.10354196,0.11054858,-0.025104806,0.03834237,0.27534994,-0.0646686,0.039208323,0.08098311,-0.10884604,-0.18428081,-0.23076935,-0.14147353,-0.0138498265,-0.18954732,-0.058232307,0.056957584,-0.116187446,0.19761673,0.011552916,0.42425856,-0.16886811,-0.06324461,0.029990537,-0.022606509,0.038445603,0.13510932,-0.1485307,0.03916866,0.21916294,0.11437954,-0.17764175,-0.11879223,-0.17626251,-0.026268236
ADI-47280,-0.10397267,-0.05520365,0.062442817,-0.10215434,-0.025934875,-0.09599527,-0.08853349,-0.17824347,-0.44189364,0.29975942,0.010195747,0.037432294,0.05692073,0.0701413,0.050632767,-0.18209356,0.014891471,-0.037562225,-0.31789297,-0.01859228,-0.14194852,0.10850321,0.1511808,0.0610179,-0.13021046,0.059285633,-0.116150476,-0.071846135,0.037509143,-0.024076449,-0.08455323,0.0788496,0.078695685,0.08379916,-0.11694566,0.2072717,-0.070822254,-0.26938373,-0.22347073,0.14186338,0.21185927,0.17494985,-0.15147644,-0.06195216,-0.093693756,0.018233722,0.087745056,-0.24178466,-0.27662167,-0.12573436,0.16525342,0.16874678,-0.050121758,0.13446559,0.1092387,-0.099198334,0.13169943,-0.031603698,-0.22411369,-0.01953079,-0.15604177,0.014929212,-0.009707295,0.14083885,0.021265972,-0.049815502,0.2076427,0.064199656,-0.13087429,0.06894587,0.06680243,0.1886193,-0.008821217,0.061302792,-0.3306458,-0.07089415,-0.04465745,-0.10143089,-0.044817094,0.016767263,-0.049606517,-0.04590569,0.12165121,-0.029146835,-0.05443927,-0.12172876,0.17898588,-0.024648527,-0.1390174,0.012348042,0.120112285,-0.1824327,-0.13375996,0.0005316666,0.12886398,-0.0247743,0.22512864,0.08963833,-0.1496457,-0.04407288,-0.36709857,0.0025853286,-0.15059562,-0.06957252,0.21278593,0.0008841375,-0.02362877,0.23914321,-0.13268493,-0.2077963,0.19777064,-0.19633728,-0.21530497,-0.23814735,0.051254652,0.11128787,-0.016478589,0.18530323,0.057943754,0.02439389,0.026399719,0.03088301,-0.119141154,-0.15166584,0.06741307,-0.008132384,-0.08033128,-0.20355064,0.04048449,-0.035319954,0.12961419,-0.03336378,0.1398723,-0.1209399,-0.07137869,0.016476898,0.014432637,-0.011332717,-0.08025355,-0.049185485,-0.14007284,-0.09551776,-0.035258044,0.05758413,0.42979684,0.03940696,-0.15239088,-0.0150503,0.19844057,-0.15106496,-0.09741,-0.037816692,0.008793265,0.24495265,-0.053276744,-0.1118993,-0.12681909,-0.086642176,0.0024591887,-0.06502407,-0.24246746,0.065476485,-0.36067575,0.018618092,-0.18557113,0.05718087,0.09041793,-0.071064405,-0.014272125,0.21062984,-0.24780388,-0.079152286,-0.052486006,-0.022638611,-0.028701657,-0.05104063,0.3943443,0.05919521,0.19834478,0.1695011,0.10390332,0.0406843,-0.020702675,-0.03309055,-0.022642322,-0.13300851,0.35957524,-0.15818809,0.042777285,-0.22389936,-0.19071728,0.031657048,0.12203854,0.032873437,0.03680372,0.04673582,-0.0071476893,-0.04931614,-0.07921008,-0.24581763,-0.10032507,0.27102584,0.11850549,0.17844516,0.02304503,-0.22465886,-0.00078909524,0.06671564,0.19015458,-0.01859048,0.061114173,0.056019705,-0.05151719,-0.1267218,-0.02530329,-0.025142044,-0.24116804,0.044135958,-0.026295,0.0015686916,-0.06415133,-0.09298349,-0.22930397,0.01111858,-0.21618517,-0.10570251,0.09008583,0.09726506,0.11498802,0.039845843,0.006609402,0.0025290598,-0.18428159,-0.038710807,0.14870906,0.09743072,-0.08232754,-0.0919949,0.020100942,-0.09657932,0.13088642,-0.061341025,-0.09543824,0.096052274,-0.047275532,-0.11939821,-0.12596501,-0.102189295,0.07962798,-0.0014015858,0.20989317,0.22304584,0.1950696,0.1471015,0.0964711,0.04214655,0.31867635,0.104369015,0.052591603,0.09321447,0.17347467,-0.063480414,0.009480688,-0.013320569,0.113481835,-0.12574092,-0.15990858,-0.09890569,0.2010114,0.064656034,0.012880493,-0.065005705,-0.07876931,0.005932878,-0.18375425,-0.109443456,0.069521956,-0.1872577,0.1794482,-0.9362108,0.154896,0.07552771,0.096293375,-0.02447044,-0.06990161,0.027562665,-0.0702637,-0.093053974,0.028642178,-0.00074444164,-0.015353159,0.54404736,-0.04678526,0.16951378,-0.031744562,-0.06916406,-0.02737527,0.06850969,-0.13926537,0.026914503,-0.07211893,-0.029033372,0.007181899,0.18186724,-0.14266433,-0.08963742,0.19880632,-0.009743507,0.0036010134,0.009839458,0.2201655,0.105269514,0.025913805,0.10312156,0.1388931,-0.24157415,-0.042734046,-0.018908584,0.11530062,-0.004959205,0.06463009,-0.11475371,-0.13665432,-0.14636897,-0.14941572,0.11245272,0.009418115,0.03691367,0.33808228,-0.014198495,-0.13198039,-0.049719412,0.12387837,-0.076404706,0.03563313,0.051584203,-0.20785613,-0.17135902,-0.0005286394,0.06788438,0.13587838,0.10514466,0.02769962,-0.070262134,-0.010735086,-0.2132545,-0.05070955,0.0659185,-0.059210107,-0.032862935,-0.0042748423,0.12374315,-0.04190974,-0.09958715,0.15948053,-0.02511219,0.04285696,-0.09597683,0.040081486,0.199512,-0.2797021,0.011281775,-0.06507967,0.13496488,0.1612344,0.02307888,0.21517055,0.02397755,-0.15517175,-0.0060126144,0.15588304,0.015474224,-0.1521096,0.1198855,0.22982636,0.052961357,0.12505089,-0.04608092,-0.0022548959,0.1450063,0.07199589,0.016179662,0.20066413,0.09789555,-0.06397624,-0.10662029,-0.11423155,-0.10176372,0.0586654,-0.097977504,0.018382898,-0.18558109,0.16751578,0.007819954,0.025330788,0.2684935,0.25578302,0.18161562,0.046088815,0.0727395,0.13294627,0.06890138,0.16071121,-0.16562559,-0.1630926,0.14267479,-0.15670256,0.008327528,0.06897689,0.13898852,-0.16449355,0.05144184,0.17746875,0.20213377,0.00046959642,0.21775313,-0.04448975,-0.094935216,0.07261011,-0.17562126,0.20331381,-0.17397669,0.040021352,0.050072506,0.05810991,0.07803391,-0.12194407,-0.03452142,0.14341474,0.101934694,0.17091024,0.07939305,-0.03304724,-0.06595996,-0.14570196,-0.03550366,-0.16197056,0.08720909,0.23368534,0.16736348,-0.10038645,-0.10195656,0.25201896,0.24766454,-0.12065977,-0.13796149,0.15358336,-0.0005047447,0.2254391,0.2282692,0.15919082,-0.10921998,0.08600354,-0.025429856,-0.0139895445,0.08069079,7.209351e-05,0.0043681404,-0.16192928,-0.3835457,0.20415466,-0.08408832,-4.6065184e-06,0.07732568,-0.099441215,-0.083207555,-0.018503949,0.16595964,-0.030728208,0.069817275,0.008327909,0.10649735,0.029187854,0.058688838,-0.13724832,0.09094456,-0.1274514,-0.06807657,-0.023349565,-0.085142925,-0.27237558,0.24856004,0.06178493,-0.14762434,-0.27648634,-0.23960257,0.23570745,-0.023248019,0.0020029342,0.098540746,0.2298704,0.01873299,0.15903392,0.06523654,0.09356878,-0.14671119,0.26102662,0.19679704,-0.24216005,0.25948948,0.19600473,-0.21472083,0.10101439,0.03280543,0.13246924,0.18485643,0.0431913,0.098308854,-0.14047778,-0.07326787,0.042597078,-0.32728434,0.20559086,-0.2337758,-0.11134346,0.054117557,0.020988837,-0.116557375,-0.04599884,-0.0834797,-0.31229353,-0.32191616,0.027192244,0.071487084,-0.13079268,0.28316355,-0.1669887,-0.16717412,0.13446943,0.06450118,0.108652,-0.11760666,0.039177585,-0.05216048,0.049872898,-0.08361423,-0.09542941,0.04771519,-0.17798111,-0.005236797,-0.0870456,-0.013626074,0.0772105,0.08142774,-0.008802392,0.15742576,0.06361892,-0.06674135,-0.33753553,0.13895226,-0.08631039,0.15177971,-0.049215578,4.551158,0.25247884,0.041498665,-0.019910812,-0.0040052626,-0.0048065553,0.13605468,0.07861228,-0.08003804,-0.1541462,-0.09748702,0.06109872,-0.03968668,-0.1249378,0.03336073,-0.039569046,0.15777518,0.048826244,-0.2312534,0.006867845,0.055975012,-0.14232396,-0.084689185,-0.33172303,-0.05943466,-0.026833143,-0.041313197,0.0128865745,0.2286018,0.035755854,-0.019879453,-0.11101822,0.023878802,0.06568615,-0.18958771,-0.09168874,-0.20649168,0.10647075,0.14675651,-0.1516352,-0.108549535,-0.16027658,-0.0492833,-0.040167164,-0.04088908,-0.019723361,-0.14283836,-0.09413718,0.014638092,-0.10023869,0.24763554,-0.09463984,0.12946899,-0.17300764,0.027371034,-0.048620064,0.0021551915,0.38027495,-0.043165024,0.10980769,0.022029847,-0.1669068,-0.20242281,-0.19548394,-0.10301925,-0.05164337,-0.21359518,-0.04619148,0.05054534,-0.07934649,0.12174067,0.0918066,0.2372765,-0.17974001,-0.13741547,0.074408546,-0.084308155,0.08106256,0.16245846,-0.09582669,-0.08591363,0.21916462,0.124392934,-0.16753387,-0.07029539,-0.19207945,0.029401103
ADI-47058,-0.054290246,-0.07773642,0.07763528,-0.16290352,0.0115872435,-0.047195602,-0.09702583,-0.18336885,-0.422149,0.282328,-0.048035927,0.047824495,0.017601976,0.09273205,0.112685196,-0.32559982,-0.006216883,-0.022382239,-0.3125081,-0.07385885,-0.08283747,0.14892891,0.17358977,-0.041163884,-0.14877406,0.020100946,-0.117435545,-0.059093572,0.066617414,-0.039763797,-0.0070524532,0.07373909,0.07055464,0.051175248,-0.11528677,0.2324985,-0.0042176517,-0.23358774,-0.23529196,0.18113475,0.26025268,0.08522997,-0.17012233,0.005716425,-0.081336334,-0.013588812,0.13622868,-0.14583106,-0.25499323,-0.09414709,0.122534074,0.14227001,-0.021440454,0.17028475,0.13165517,-0.19031125,0.13761173,0.053086825,-0.26621705,0.010464652,-0.20715155,0.13502741,-0.02209513,0.09085981,-0.010536699,-0.07763202,0.29078463,0.15033866,-0.1927399,0.10276687,0.11401123,0.2651665,-0.006129055,0.03948984,-0.26759735,-0.053060986,-0.058618665,-0.12888524,-0.088760845,0.0032461896,-0.068695165,-0.07791475,0.1491453,-0.029928455,-0.046304137,-0.07181697,0.13104899,-0.06496269,-0.13194212,0.08802056,0.15628153,-0.09679159,-0.16237456,-0.007776095,0.077885345,-0.060129605,0.19443946,0.16980681,-0.18436879,-0.07549746,-0.40324304,-0.035740223,-0.072912715,-0.083570495,0.21529362,-0.030048674,0.010228661,0.25037482,-0.15857157,-0.21492212,0.310274,-0.24045457,-0.2395708,-0.3055968,0.11592199,0.13023242,-0.029627915,0.20460537,0.017921021,-0.029963277,0.063932806,0.06942548,-0.0792598,-0.17176865,0.09088959,0.1669311,-0.03796888,-0.18243903,-0.030255841,-0.05962429,0.0712692,0.063527815,0.20136961,-0.13277128,-0.11248347,-0.019112587,0.01990846,0.005153077,-0.10918931,-0.01963536,-0.123317264,-0.12839167,0.0013144236,0.1397928,0.44445467,0.012668651,-0.13402855,0.040882908,0.24210764,-0.11699889,-0.071302906,-0.10494384,-0.13497473,0.23158687,-0.044944283,-0.08042866,-0.153347,-0.13275813,0.044141233,0.0013089756,-0.23495069,-0.010604872,-0.3068601,-0.038544804,-0.21711633,0.0042669834,0.023312658,-0.10981554,0.010061706,0.20761454,-0.23104882,-0.030958127,-0.041076355,0.08967459,-0.041596573,-0.031697366,0.42161176,0.05582701,0.2122421,0.14507814,0.18217973,0.0989076,-0.020690482,-0.08001344,-0.03279826,-0.16999167,0.303526,-0.12465636,0.06416284,-0.21117546,-0.16878943,0.025025526,0.15205786,0.046959873,0.06464588,0.06660666,-0.08622383,-0.056592334,-0.16599338,-0.2401049,-0.1075744,0.24975409,0.07676264,0.15480235,0.11655489,-0.246883,-0.05742206,0.060317233,0.14083265,-0.06793604,0.069146164,0.039199155,-0.11320269,-0.16621979,0.008850706,0.0761403,-0.23446861,0.13352221,0.03602249,0.013726964,-0.07259276,-0.1538546,-0.23167275,0.0050236695,-0.16259693,-0.15391682,0.14489356,0.08343517,-0.0076739797,-0.04543672,-0.060249113,0.021291437,-0.25222048,0.11058332,0.16150407,0.11765536,-0.072737075,-0.004937125,0.017201716,-0.05817773,0.12934308,-0.046000946,-0.11391726,0.153858,0.06085723,-0.15345429,-0.15565124,-0.13066873,0.053810194,-0.037963737,0.22152309,0.13912967,0.19626881,0.24212913,0.15806815,0.09469276,0.3189031,0.11164042,0.07644088,0.17917603,0.11252445,0.059037667,-0.008613506,-0.09412763,0.0034417831,-0.21914087,-0.17875129,-0.111783676,0.1891178,0.0017976069,0.04329352,-0.10045015,-0.1270221,-0.058720686,-0.2516771,-0.09427494,0.11634793,-0.13029146,0.16353664,-0.8387368,0.16234611,0.06690135,0.09079301,-0.029158479,-0.018965164,0.04511046,-0.08936271,-0.09322272,-0.05322735,-0.024801318,0.04798151,0.3781036,-0.01378345,0.18587662,-0.0963048,-0.0589035,-0.038659316,0.019064259,-0.19218215,0.024857778,-0.08897905,0.09354891,0.091286965,0.18107998,-0.17982344,-0.07130069,0.19535857,0.012444645,0.02482447,0.025499059,0.12347194,0.071532816,0.0305277,0.090775706,0.13555108,-0.19003989,-0.13442354,-0.034947395,0.18485127,-0.07392404,-0.012351501,-0.20514336,-0.15159154,-0.09949485,-0.14001922,0.015420399,0.012578887,0.02431268,0.34452072,-0.11050177,-0.071926534,-0.04057449,0.12168005,-0.13438591,0.020505326,-0.011332411,-0.22871514,-0.18727581,-0.05957092,0.10801551,0.12803057,0.18937102,0.0054469043,-0.02135591,0.008399723,-0.23005791,-0.076997474,0.055935536,-0.039096568,-0.08662309,0.056756556,0.110816814,-0.020223228,-0.13244033,0.17846705,-0.03694409,0.017231906,-0.08308208,-0.06659252,0.31365094,-0.29418942,0.01608068,-0.091072954,0.1375391,0.21837498,0.12188127,0.20128614,0.10613236,-0.15733701,-0.0063290093,0.18240139,-0.039187983,-0.13045944,0.14843445,0.2182019,0.04956367,0.15816075,-0.0493457,0.030586878,0.12800765,0.034193665,0.018182922,0.29555222,0.13996437,0.0074272575,-0.1331477,-0.078443274,-0.09565712,0.0144772185,-0.07412489,0.050404053,-0.13968354,0.22034872,-0.015062624,0.093604386,0.26965314,0.21074474,0.20663232,0.13074993,0.08572644,0.19988056,0.099556066,0.22056112,-0.10415896,-0.13396874,0.14520387,-0.07347128,0.049608056,0.044345062,0.10994562,-0.13212873,0.057367813,0.24507539,0.23488252,0.033998944,0.120847344,-0.007926099,-0.14325091,-0.01291722,-0.19107628,0.088650644,-0.11348736,0.063464604,0.002743435,0.0355565,0.112401135,-0.205667,0.013330895,0.1252918,0.13965243,0.14698516,0.06298989,-0.017870298,0.000101406535,-0.13744679,-0.016126864,-0.18404798,0.14639978,0.22917204,0.12814842,-0.08199797,-0.17717443,0.28144738,0.20355836,-0.18553372,-0.15428075,0.17016584,-0.02142404,0.19664508,0.26264504,0.1233318,-0.082719274,0.08488755,-0.09278114,0.0009914029,0.06928581,0.09289267,-0.014278472,-0.1887986,-0.47324324,0.1854415,-0.123719536,0.029741636,0.10917675,-0.19109857,-0.07373436,0.06200527,0.18019068,0.046958826,0.075789794,-0.041275658,0.13175991,0.027547862,0.08371266,-0.1446877,0.09849699,-0.0807007,-0.06891578,-0.04227189,0.03274995,-0.29099268,0.1642812,0.058273192,-0.15828453,-0.24502942,-0.26684624,0.21520697,-0.03088077,-0.0070839017,0.10073048,0.2510444,0.010895419,0.17374125,0.058643006,0.11446081,-0.24183269,0.24234651,0.21779683,-0.2313498,0.3376701,0.2298324,-0.28566518,0.1290205,-0.005513147,0.09988469,0.15443426,0.0035224892,0.04751528,-0.18734577,-0.044798385,0.096648306,-0.37955862,0.2311771,-0.2172578,-0.06145675,0.015450057,0.009569158,-0.15227062,-0.048406117,-0.053482298,-0.25681764,-0.30922604,0.032601118,0.020634545,-0.20260121,0.26027104,-0.1979253,-0.2606772,0.06809095,0.079118475,0.14044368,-0.10900936,0.047181617,-0.04451614,0.026728904,-0.08722964,-0.17100573,0.05641247,-0.21672368,-0.05060874,-0.059386987,0.028767634,0.124355376,0.094995186,0.018091355,0.17182864,0.06305516,-0.053549983,-0.34735876,0.09522969,-0.15261413,0.1952709,-0.098558016,3.9600544,0.17542222,0.08856166,0.0035099753,-0.005973955,-0.017254112,0.18583211,0.034201775,-0.123283066,-0.14107123,-0.060173042,0.10518942,-0.06492822,-0.09111374,-0.0010646436,-0.08525579,0.19291706,-0.016353805,-0.24548855,0.0025250737,0.11058832,-0.08587791,-0.021326357,-0.32538974,-0.11114119,-0.008076459,-0.048600584,-0.011926032,0.36576626,0.06729857,-0.052808087,-0.05247234,0.047795404,0.071325764,-0.24261753,-0.14115189,-0.10560378,0.06248305,0.15690154,-0.149985,-0.18498756,-0.120913155,-0.0076268497,-0.0014098076,-0.051182345,-0.07019413,-0.1323121,-0.22054186,0.017737744,-0.060451493,0.24806297,-0.10346971,0.10810065,-0.14433894,0.06188394,0.013866555,0.04850444,0.3530406,-0.08363028,0.0759045,0.09000384,-0.19130161,-0.24093519,-0.1455738,-0.14740227,-0.08518392,-0.18176444,-0.052904878,0.058837105,-0.18207242,0.16596694,-0.004832232,0.36494064,-0.15226404,-0.10904341,0.036805082,-0.055402316,0.031985644,0.1095797,-0.115730025,-0.03996744,0.15455085,0.13971196,-0.16799816,-0.022243746,-0.1174808,-0.0014652845
