Clone name,vl_0,vl_1,vl_2,vl_3,vl_4,vl_5,vl_6,vl_7,vl_8,vl_9,vl_10,vl_11,vl_12,vl_13,vl_14,vl_15,vl_16,vl_17,vl_18,vl_19,vl_20,vl_21,vl_22,vl_23,vl_24,vl_25,vl_26,vl_27,vl_28,vl_29,vl_30,vl_31,vl_32,vl_33,vl_34,vl_35,vl_36,vl_37,vl_38,vl_39,vl_40,vl_41,vl_42,vl_43,vl_44,vl_45,vl_46,vl_47,vl_48,vl_49,vl_50,vl_51,vl_52,vl_53,vl_54,vl_55,vl_56,vl_57,vl_58,vl_59,vl_60,vl_61,vl_62,vl_63,vl_64,vl_65,vl_66,vl_67,vl_68,vl_69,vl_70,vl_71,vl_72,vl_73,vl_74,vl_75,vl_76,vl_77,vl_78,vl_79,vl_80,vl_81,vl_82,vl_83,vl_84,vl_85,vl_86,vl_87,vl_88,vl_89,vl_90,vl_91,vl_92,vl_93,vl_94,vl_95,vl_96,vl_97,vl_98,vl_99,vl_100,vl_101,vl_102,vl_103,vl_104,vl_105,vl_106,vl_107,vl_108,vl_109,vl_110,vl_111,vl_112,vl_113,vl_114,vl_115,vl_116,vl_117,vl_118,vl_119,vl_120,vl_121,vl_122,vl_123,vl_124,vl_125,vl_126,vl_127,vl_128,vl_129,vl_130,vl_131,vl_132,vl_133,vl_134,vl_135,vl_136,vl_137,vl_138,vl_139,vl_140,vl_141,vl_142,vl_143,vl_144,vl_145,vl_146,vl_147,vl_148,vl_149,vl_150,vl_151,vl_152,vl_153,vl_154,vl_155,vl_156,vl_157,vl_158,vl_159,vl_160,vl_161,vl_162,vl_163,vl_164,vl_165,vl_166,vl_167,vl_168,vl_169,vl_170,vl_171,vl_172,vl_173,vl_174,vl_175,vl_176,vl_177,vl_178,vl_179,vl_180,vl_181,vl_182,vl_183,vl_184,vl_185,vl_186,vl_187,vl_188,vl_189,vl_190,vl_191,vl_192,vl_193,vl_194,vl_195,vl_196,vl_197,vl_198,vl_199,vl_200,vl_201,vl_202,vl_203,vl_204,vl_205,vl_206,vl_207,vl_208,vl_209,vl_210,vl_211,vl_212,vl_213,vl_214,vl_215,vl_216,vl_217,vl_218,vl_219,vl_220,vl_221,vl_222,vl_223,vl_224,vl_225,vl_226,vl_227,vl_228,vl_229,vl_230,vl_231,vl_232,vl_233,vl_234,vl_235,vl_236,vl_237,vl_238,vl_239,vl_240,vl_241,vl_242,vl_243,vl_244,vl_245,vl_246,vl_247,vl_248,vl_249,vl_250,vl_251,vl_252,vl_253,vl_254,vl_255,vl_256,vl_257,vl_258,vl_259,vl_260,vl_261,vl_262,vl_263,vl_264,vl_265,vl_266,vl_267,vl_268,vl_269,vl_270,vl_271,vl_272,vl_273,vl_274,vl_275,vl_276,vl_277,vl_278,vl_279,vl_280,vl_281,vl_282,vl_283,vl_284,vl_285,vl_286,vl_287,vl_288,vl_289,vl_290,vl_291,vl_292,vl_293,vl_294,vl_295,vl_296,vl_297,vl_298,vl_299,vl_300,vl_301,vl_302,vl_303,vl_304,vl_305,vl_306,vl_307,vl_308,vl_309,vl_310,vl_311,vl_312,vl_313,vl_314,vl_315,vl_316,vl_317,vl_318,vl_319,vl_320,vl_321,vl_322,vl_323,vl_324,vl_325,vl_326,vl_327,vl_328,vl_329,vl_330,vl_331,vl_332,vl_333,vl_334,vl_335,vl_336,vl_337,vl_338,vl_339,vl_340,vl_341,vl_342,vl_343,vl_344,vl_345,vl_346,vl_347,vl_348,vl_349,vl_350,vl_351,vl_352,vl_353,vl_354,vl_355,vl_356,vl_357,vl_358,vl_359,vl_360,vl_361,vl_362,vl_363,vl_364,vl_365,vl_366,vl_367,vl_368,vl_369,vl_370,vl_371,vl_372,vl_373,vl_374,vl_375,vl_376,vl_377,vl_378,vl_379,vl_380,vl_381,vl_382,vl_383,vl_384,vl_385,vl_386,vl_387,vl_388,vl_389,vl_390,vl_391,vl_392,vl_393,vl_394,vl_395,vl_396,vl_397,vl_398,vl_399,vl_400,vl_401,vl_402,vl_403,vl_404,vl_405,vl_406,vl_407,vl_408,vl_409,vl_410,vl_411,vl_412,vl_413,vl_414,vl_415,vl_416,vl_417,vl_418,vl_419,vl_420,vl_421,vl_422,vl_423,vl_424,vl_425,vl_426,vl_427,vl_428,vl_429,vl_430,vl_431,vl_432,vl_433,vl_434,vl_435,vl_436,vl_437,vl_438,vl_439,vl_440,vl_441,vl_442,vl_443,vl_444,vl_445,vl_446,vl_447,vl_448,vl_449,vl_450,vl_451,vl_452,vl_453,vl_454,vl_455,vl_456,vl_457,vl_458,vl_459,vl_460,vl_461,vl_462,vl_463,vl_464,vl_465,vl_466,vl_467,vl_468,vl_469,vl_470,vl_471,vl_472,vl_473,vl_474,vl_475,vl_476,vl_477,vl_478,vl_479,vl_480,vl_481,vl_482,vl_483,vl_484,vl_485,vl_486,vl_487,vl_488,vl_489,vl_490,vl_491,vl_492,vl_493,vl_494,vl_495,vl_496,vl_497,vl_498,vl_499,vl_500,vl_501,vl_502,vl_503,vl_504,vl_505,vl_506,vl_507,vl_508,vl_509,vl_510,vl_511,vl_512,vl_513,vl_514,vl_515,vl_516,vl_517,vl_518,vl_519,vl_520,vl_521,vl_522,vl_523,vl_524,vl_525,vl_526,vl_527,vl_528,vl_529,vl_530,vl_531,vl_532,vl_533,vl_534,vl_535,vl_536,vl_537,vl_538,vl_539,vl_540,vl_541,vl_542,vl_543,vl_544,vl_545,vl_546,vl_547,vl_548,vl_549,vl_550,vl_551,vl_552,vl_553,vl_554,vl_555,vl_556,vl_557,vl_558,vl_559,vl_560,vl_561,vl_562,vl_563,vl_564,vl_565,vl_566,vl_567,vl_568,vl_569,vl_570,vl_571,vl_572,vl_573,vl_574,vl_575,vl_576,vl_577,vl_578,vl_579,vl_580,vl_581,vl_582,vl_583,vl_584,vl_585,vl_586,vl_587,vl_588,vl_589,vl_590,vl_591,vl_592,vl_593,vl_594,vl_595,vl_596,vl_597,vl_598,vl_599,vl_600,vl_601,vl_602,vl_603,vl_604,vl_605,vl_606,vl_607,vl_608,vl_609,vl_610,vl_611,vl_612,vl_613,vl_614,vl_615,vl_616,vl_617,vl_618,vl_619,vl_620,vl_621,vl_622,vl_623,vl_624,vl_625,vl_626,vl_627,vl_628,vl_629,vl_630,vl_631,vl_632,vl_633,vl_634,vl_635,vl_636,vl_637,vl_638,vl_639
ADI-38502,-0.09969188,-0.01839549,0.02116056,-0.14187056,-0.03574265,-0.13713032,-0.07955362,-0.203484,-0.35831916,0.28010163,-0.002882181,0.054763902,0.12494784,0.048632216,0.05873451,-0.20544524,-0.00018715336,-0.007546962,-0.29935524,-0.041873157,-0.15864237,0.08829332,0.1006134,0.01880045,-0.07182595,0.059123017,-0.10364778,-0.048866026,0.10339179,-0.025893006,-0.03510086,0.17332847,0.058088936,0.06538544,-0.13828498,0.16198331,-0.09726788,-0.24401367,-0.1705569,0.11968371,0.2873255,0.11284523,-0.15513156,-0.044396948,-0.10572323,0.0060179667,0.11882509,-0.25641802,-0.23899674,-0.053676005,0.15344264,0.14125997,-0.03927844,0.14416462,0.046899714,-0.13170147,0.17560107,0.043617748,-0.2785121,0.030869417,-0.15309472,-0.0073385136,-0.008559654,0.073993966,-0.027963044,-0.0063192165,0.16794404,0.069181636,-0.12856469,0.04715785,0.0541839,0.19623114,-0.0128182275,0.1006866,-0.30057976,-0.07293521,-0.09539658,-0.06690447,-0.051486615,-0.047983482,-0.039914917,0.015178748,0.1365787,-0.016723134,-0.00030152264,-0.15328889,0.20366605,-0.061181117,-0.09075142,0.048960026,0.11009697,-0.09841321,-0.15723443,-0.022415658,0.111825705,-0.035631407,0.2522578,0.066751964,-0.16250372,0.047381718,-0.29236853,-0.017213117,-0.058299422,0.005788639,0.18321192,-0.11402458,-0.06642356,0.21416439,-0.14259146,-0.21706471,0.20011584,-0.19844384,-0.22763133,-0.3483313,0.07686091,0.11878678,0.013275824,0.15565424,0.033462815,0.067308955,-0.0153183695,0.00059727643,-0.07967104,-0.1956433,0.101595566,-0.002230593,0.03136233,-0.17529255,0.02358068,-0.11023007,0.097188644,-0.0078065963,0.13541476,-0.11159649,-0.10110318,0.015614372,0.009031445,-0.024587026,-0.13074936,-0.07087517,-0.10820267,-0.15684776,-0.12458536,0.06426755,0.37092274,0.10953905,-0.09668234,0.021997606,0.24071541,-0.08575809,-0.10981209,-0.04755087,-0.009660227,0.1805624,-0.073243946,-0.09429763,-0.040235564,-0.067300215,0.043029036,-0.08098449,-0.2758067,0.0131674055,-0.28740877,-0.0040699122,-0.14684448,-0.0006906797,0.033762146,-0.11641547,0.043868747,0.1991232,-0.3346932,-0.05892581,-0.028272666,-0.026380235,-0.06846001,-0.031673174,0.41302484,0.010399387,0.17078884,0.18190373,0.128993,-0.0046185968,-0.026732957,-0.002956212,-0.016245522,-0.18072759,0.33657387,-0.120138586,0.056631472,-0.2076755,-0.17273746,0.03270878,0.06565146,0.117509976,0.058006242,0.044812176,-0.04705265,-0.012888567,-0.105965324,-0.1878219,-0.09919679,0.29152653,0.086897455,0.16274923,0.053501785,-0.23868328,0.03221902,0.06530248,0.16414951,-0.037776064,0.065593764,-0.02025233,-0.17125553,-0.08438301,0.050281066,0.0019002997,-0.19308071,0.097231135,0.02662442,-0.029689383,-0.034937464,-0.09164162,-0.18793851,0.022547629,-0.17577295,-0.078921005,0.077009104,0.10339614,0.09969772,0.06186791,-0.03424733,0.015311282,-0.16292198,0.03037069,0.15286066,0.02652048,-0.06648372,0.006253064,0.0072407876,-0.053932704,0.07852763,-0.047560185,-0.11323269,0.122756734,0.00092335284,-0.14197664,-0.090350576,-0.09173153,0.070031874,-0.006297007,0.14157753,0.19172814,0.18731451,0.1770324,0.14824362,-0.017066726,0.32645494,0.053339247,0.059190508,0.096483685,0.1489302,-0.04603931,-0.022344256,-0.02527165,0.15196131,-0.138096,-0.14263493,-0.035569835,0.17241827,0.06889337,-0.03497643,-0.055920955,-0.08142007,0.035559,-0.18620625,-0.13201329,0.073443964,-0.210152,0.18091305,-0.85373104,0.21181303,0.1012898,0.14822376,-0.031054081,-0.06452868,0.08645401,-0.041126836,-0.089047946,-0.02753201,-0.024987273,0.008994383,0.34870026,-0.06287355,0.11974741,-0.1153409,-0.01699706,-0.029639758,0.005403921,-0.1899861,0.027608864,-0.093994536,0.029990174,0.05092416,0.14783475,-0.15551233,-0.080751285,0.20165831,-0.013069225,-0.021431807,0.00024455116,0.19208348,0.08208716,0.011995099,0.14388494,0.17179888,-0.26840597,-0.008021125,-0.038771916,0.14616895,-0.03452842,0.097994335,-0.054351393,-0.15167865,-0.098655745,-0.12957995,0.09354979,-0.018982664,-0.042305678,0.32872102,-0.0061621265,-0.060558736,-0.069916025,0.107934676,-0.06887553,0.006518509,0.06333648,-0.24846855,-0.16282254,0.0054046963,0.087358505,0.09843249,0.042592272,-0.015526421,-0.013076171,-0.0064830924,-0.1917305,-0.073299065,0.08808041,0.004104689,-0.057543967,-0.040328182,0.15398826,-0.075446345,-0.118283734,0.08003566,-0.044794966,0.05979918,-0.04784683,0.02628953,0.20564124,-0.2704199,0.0032289217,-0.07827966,0.14257285,0.23365365,0.0041448143,0.17804448,0.09016889,-0.19195123,0.06534424,0.1294147,-0.01743049,-0.19757055,0.15081424,0.185582,-0.015341928,0.1367835,0.011102886,0.034119036,0.14297438,0.14216514,0.03595071,0.19740638,0.07030967,-0.063325755,-0.10175352,-0.15907352,-0.054709498,0.049940616,-0.049769692,0.008496481,-0.22042945,0.08775852,0.076594725,0.04894523,0.18073316,0.19430293,0.24221328,0.06487637,0.08959015,0.12234468,0.090386756,0.1693388,-0.1846843,-0.14965054,0.15799226,-0.12643431,-0.04087516,0.09676493,0.1053045,-0.15323573,0.10664844,0.11752001,0.18636048,0.019470729,0.16488148,-0.03385377,-0.05123866,0.0019316371,-0.17183067,0.18688536,-0.18610805,0.016800757,0.03945382,0.072676376,0.09001586,-0.15678766,-0.07342417,0.1404319,0.1674306,0.15958105,0.078066096,-0.08727051,-0.06404808,-0.083395556,-0.042579588,-0.24317145,0.10357656,0.24568267,0.13232328,-0.0016972163,-0.121483594,0.2593983,0.2253547,-0.12690303,-0.16712861,0.14901648,0.02999676,0.18399419,0.27475673,0.12351741,-0.15450852,0.101999335,-0.04117906,0.007843148,0.05066154,0.009105173,0.022494694,-0.17991966,-0.37639886,0.12190666,-0.13231802,-0.11592384,-0.02215643,-0.1082223,-0.05003846,0.005558638,0.19353577,-0.04999152,0.07537881,0.0011591722,0.07718849,0.045600552,0.06515154,-0.14116275,0.08567361,-0.14505425,-0.021796145,-0.02162614,-0.026928265,-0.26209188,0.20600592,0.113724306,-0.11845058,-0.30428553,-0.19099471,0.34829912,-0.025499241,-0.043812227,0.11400589,0.21591814,0.056973267,0.1357298,0.07594286,0.103040546,-0.13157056,0.21439543,0.1958682,-0.22245522,0.19925246,0.17340542,-0.25585434,0.0493704,0.06002742,0.113407485,0.21746446,0.047074836,0.11873568,-0.15271953,-0.04397083,-0.0050855028,-0.3287798,0.19968942,-0.2088023,-0.08014042,0.024641873,0.1291992,-0.077901006,-0.038634762,-0.08807255,-0.28131106,-0.30074036,0.05180194,0.034298584,-0.1018124,0.28895953,-0.09269111,-0.14682136,0.14647599,0.13232107,0.1615308,-0.13260257,0.09120569,-0.014745309,0.033713534,-0.04881883,-0.12776168,0.054001447,-0.12875575,-0.03950344,-0.13159065,0.035088398,0.12501709,0.10898712,-0.04197839,0.15415134,0.052998792,-0.08424136,-0.32754013,0.066307165,-0.17593525,0.09908872,-0.08135123,4.1924086,0.2036081,0.052266188,-0.014776086,-0.050964292,-0.0054134065,0.105003,0.065360665,-0.11083684,-0.15170054,-0.059910253,0.07071678,-0.04972798,-0.16954705,0.06705909,-0.0122940885,0.14108373,0.06172811,-0.23715319,0.064824864,0.045019034,-0.1891057,-0.057585947,-0.28252253,-0.1037357,-0.044554282,-0.03110915,-0.021904187,0.25079235,0.00533701,0.015817935,-0.09738018,0.054549627,0.04320127,-0.17238162,-0.10195276,-0.16151418,0.122759186,0.11555471,-0.16565658,-0.11677756,-0.15860897,-0.07664214,-0.074063614,-0.03749675,-0.08176412,-0.15108792,-0.12323927,0.053262863,-0.057393126,0.2297149,-0.10792735,0.11526993,-0.20926705,0.035171945,-0.061731137,0.04280406,0.31466427,-0.066736795,0.11967318,0.031102885,-0.16399178,-0.098548375,-0.19597682,-0.11069464,-0.046911936,-0.17222397,-0.03335705,0.09125972,-0.08896066,0.11739163,0.09966761,0.20993567,-0.19851184,-0.12088512,0.042808775,-0.028835379,0.07729658,0.1645534,0.008345214,-0.07457767,0.1592638,0.15471424,-0.11324845,-0.041344758,-0.16666926,0.10592132
ADI-38501,-0.08280886,-0.04819031,-0.0035675522,-0.13892135,0.0016995338,-0.14979826,-0.049015164,-0.18769056,-0.31650952,0.25564915,0.040909007,0.084095106,0.14849766,0.10657367,0.0765034,-0.23272167,0.023715248,-0.04488345,-0.26906812,-0.025184311,-0.09136694,0.04514113,0.076517455,-0.009483002,-0.05017231,0.05789549,-0.13897564,-0.053887755,0.067971,0.054648336,-0.03763449,0.13608387,0.11830678,0.061140895,-0.1518958,0.21174309,-0.073101245,-0.21009262,-0.18070257,0.17151567,0.19889128,0.065951996,-0.14458382,-0.02698529,-0.089822404,-0.013428609,0.0771885,-0.25101048,-0.2200842,-0.09994484,0.09084922,0.1406079,-0.05353398,0.12147919,0.031464178,-0.1534053,0.12443218,0.092458755,-0.2509582,0.027673569,-0.13517849,0.013294768,-0.020230303,0.08349055,0.0057472223,-0.0029667725,0.19614407,0.08930012,-0.08658738,0.04377903,0.03337324,0.22180586,-0.0017944999,0.06948467,-0.26257244,-0.070273444,-0.10528792,-0.005775841,-0.03288267,-0.02443241,-0.038919024,-0.018934915,0.113111466,-0.0469918,-0.035557985,-0.13201144,0.1755078,-0.053305935,-0.054216288,0.050851066,0.0649284,-0.099052325,-0.11652789,-0.017961739,0.08671179,-0.047502287,0.24773727,0.057239324,-0.17056647,0.07905546,-0.32253316,-0.008489065,0.004385893,-0.014514809,0.15535823,-0.1353358,-0.06537389,0.20208752,-0.100804724,-0.17467949,0.2465917,-0.18712725,-0.21277173,-0.35318616,0.068424255,0.06712223,0.0033094452,0.17306593,0.015132631,0.048099462,0.0042656,-0.013752487,-0.059984807,-0.17476933,0.07945159,0.03403437,0.07051343,-0.16017959,0.054907195,-0.1210973,0.10865417,0.059803978,0.15457286,-0.14128244,-0.13306448,0.016486594,-0.0012749897,0.014616406,-0.1286954,-0.030464552,-0.13667423,-0.14302732,-0.11230103,0.030031355,0.35502172,0.12995026,-0.12522173,0.034512263,0.22856557,-0.099830866,-0.11064544,-0.072992645,-0.015993211,0.123455696,-0.046459958,-0.09520955,-0.036516827,-0.04099024,0.01940904,-0.023192428,-0.28074872,-0.0027541888,-0.24576086,0.015141138,-0.1408875,0.03580609,0.010074766,-0.07773655,0.03017415,0.16914262,-0.28419688,-0.12652718,-0.0712598,-0.061500434,-0.012240337,-0.0044411193,0.35791543,0.0025947494,0.18099502,0.13696286,0.17277695,-0.021712659,-0.06330393,-0.008045307,-0.02929151,-0.20213985,0.28308728,-0.12352194,0.07170007,-0.22611363,-0.14762622,0.017029142,0.060712323,0.10125708,0.07370205,0.040808097,-0.015828338,-0.0047260127,-0.13242067,-0.19786079,-0.10628634,0.2338813,0.021494053,0.17224304,0.035760757,-0.22010349,0.026996946,0.039481215,0.14436935,-0.009246826,0.05829675,-0.045479555,-0.15226537,-0.07220048,0.07126451,0.025415108,-0.21110824,0.11146973,0.047938433,8.224999e-05,-0.047282513,-0.16105649,-0.19080962,0.016094608,-0.13065556,-0.05600147,0.08033739,0.09311083,0.042000677,0.046210904,-0.054411024,0.013430191,-0.18148544,0.11223689,0.097185366,0.0005908851,-0.08035851,0.0133251315,-0.0011839601,-0.01198126,0.108610384,-0.047115177,-0.11602111,0.11674367,0.006414014,-0.19536974,-0.077439114,-0.076188736,0.06386277,-0.011654675,0.20197293,0.13688128,0.18696088,0.19088583,0.15959257,0.03997852,0.3055397,0.05010981,0.081556976,0.1106495,0.11834186,-0.025792267,-0.0022265404,-0.028410567,0.093237005,-0.12626082,-0.12080022,-0.04876718,0.121816225,0.05775363,0.00060974667,-0.07708043,-0.039404467,0.06754423,-0.16883676,-0.09687234,0.147593,-0.18695997,0.17426251,-1.0115261,0.15828876,0.07404856,0.077409506,-0.030480566,-0.03514462,0.07618475,-0.1117875,-0.055530112,-0.0020531162,-0.0130742425,0.0074383747,0.43528268,-0.054745633,0.13079813,-0.1066648,-0.05283383,-0.040553078,-0.004642152,-0.22525367,-0.0018830928,-0.078155056,0.06327425,0.00793367,0.10268969,-0.16577162,-0.07028207,0.20314485,-0.00343066,-0.044405665,-0.023193201,0.13935901,0.041777115,-0.002409916,0.12113263,0.13480262,-0.2689758,-0.060750917,0.015331507,0.14447623,-0.040242143,0.04747603,-0.114707075,-0.153022,-0.10258899,-0.15015194,0.021043183,-0.011498873,0.019408049,0.3490574,-0.047718093,-0.047122024,-0.10255826,0.12608829,-0.08308277,-0.009043883,0.039753534,-0.2290063,-0.17598666,-0.016514681,0.065902196,0.086600356,0.07783744,0.0012819734,-0.004241002,-0.0005681404,-0.15471202,-0.035831068,0.11748772,0.046403453,-0.058469366,-0.012379402,0.11112628,-0.058320675,-0.14381735,0.097651705,-0.043092873,0.081596,-0.04604601,0.009156274,0.17406568,-0.27005428,-0.020733781,-0.04317371,0.15419918,0.20208876,0.010727113,0.18958019,0.08909622,-0.18662554,0.014402248,0.16289817,-0.059237298,-0.19107917,0.11431345,0.15831202,0.014411737,0.16179746,0.019071141,0.0064210747,0.15956509,0.2004578,0.014161177,0.23405436,0.038999435,-0.040514704,-0.10415056,-0.12235884,-0.07325023,-0.0061012306,-0.09658929,0.018950144,-0.18651064,0.07960523,0.054816317,0.053330775,0.14811261,0.17088738,0.22309059,0.1093434,0.08434075,0.13849372,0.10540021,0.12665728,-0.11695315,-0.108576745,0.18857813,-0.11342701,-0.037957184,0.11432496,0.098853976,-0.12874874,0.086908475,0.17053197,0.12376812,0.056170367,0.12824024,-0.0105026625,-0.06981033,-0.03995628,-0.15566652,0.16580349,-0.17970641,0.00546105,0.054218337,0.072472446,0.100987114,-0.13027908,-0.056305364,0.13545933,0.17308272,0.12054833,0.039878782,-0.06562988,-0.10007807,-0.12474778,-0.047106553,-0.2610146,0.11360199,0.23295571,0.13404353,-0.022199359,-0.13796505,0.26847482,0.19891751,-0.11056498,-0.14865305,0.15625155,-0.008239318,0.17463315,0.26474983,0.096682936,-0.09906459,0.095211945,-0.07296444,0.060566302,0.017671818,-0.022412602,-0.0024924544,-0.1688477,-0.3388449,0.10783038,-0.13121271,-0.083985515,-0.032536693,-0.14446536,-0.065908946,0.017101489,0.18517496,-0.046435792,0.09016691,-0.036277194,0.09620318,0.05122514,0.029802477,-0.16621046,0.09946689,-0.11796928,-0.014038832,-0.01528102,-0.008691517,-0.2610139,0.19055647,0.1520128,-0.14050406,-0.26986057,-0.2177218,0.2862937,-0.031097598,-0.039021093,0.109972775,0.21015917,0.07910535,0.1489414,0.04858002,0.08880897,-0.18461227,0.19631372,0.19329539,-0.20853817,0.2273097,0.14588028,-0.2633778,0.05307405,0.04227528,0.1367735,0.1744241,0.015949396,0.10071526,-0.16602236,-0.026614798,0.005963447,-0.28820625,0.21703628,-0.17029059,-0.06783543,0.05381039,0.16591813,-0.050418016,-0.014930667,-0.031843133,-0.2655916,-0.25358015,0.016800342,0.040523548,-0.12326158,0.22102794,-0.11367231,-0.18094672,0.12156502,0.12508824,0.10104782,-0.10005261,0.06883052,-0.0046254722,-0.0041250084,-0.023484556,-0.061347198,0.09345084,-0.14354885,-0.004735591,-0.09509848,0.046880078,0.10568866,0.09860562,-0.035981707,0.12942587,0.039087567,-0.0548832,-0.31563857,0.093948774,-0.18148652,0.08514134,-0.08087066,4.402938,0.15559761,0.07545088,0.0076099318,-0.067712374,-0.0062137833,0.13800186,0.05020049,-0.11815527,-0.119150706,-0.08032022,0.08848954,-0.075346835,-0.15297791,0.07034296,0.01843274,0.15992056,0.035534278,-0.19879077,0.041301847,0.052592985,-0.14483804,-0.061038688,-0.24897915,-0.043754596,-0.029448876,-0.024984203,-0.038315274,0.25738394,0.060313232,0.011310164,-0.08137802,0.028290812,0.006020185,-0.20349352,-0.10483809,-0.12053203,0.05246435,0.12261533,-0.14401355,-0.13310249,-0.106828675,-0.012564234,-0.07469077,0.008975465,-0.07244552,-0.13978665,-0.18334793,0.056683466,-0.049154688,0.20424081,-0.0817247,0.09926391,-0.20846109,0.024535943,-0.04539353,0.023268921,0.27475783,-0.09288298,0.106587805,0.055648107,-0.16286555,-0.09314162,-0.23553649,-0.14332508,-0.07795176,-0.13800901,-0.06706035,0.070833616,-0.08763447,0.10185065,0.085440636,0.25330406,-0.16831072,-0.060248103,0.10075173,-0.021037672,0.041616775,0.178851,-0.03921257,-0.05145948,0.09166624,0.14185749,-0.09229242,-0.04495972,-0.13408495,0.1064511
ADI-47173,-0.059329137,-0.02586065,0.041550655,-0.1268049,-0.051143825,-0.10223718,-0.11545142,-0.111098744,-0.29405752,0.32856944,-0.019557033,0.0733508,0.12503146,0.08764576,0.054299887,-0.12209006,0.010733898,-0.027875802,-0.24755533,0.017360797,-0.13728681,0.06525342,0.08949172,-0.026712233,-0.08008371,0.063223705,-0.11611648,-0.06753512,0.13079332,0.0071429047,-0.025211293,0.054856375,0.071737826,0.033236515,-0.12373999,0.17515059,-0.09752505,-0.21546163,-0.17137586,0.20601293,0.2321638,0.107614346,-0.1593683,-0.06330791,-0.089269176,-0.043145157,0.085360885,-0.18890259,-0.1871373,-0.12161272,0.10718784,0.18386105,-0.030889895,0.11257792,0.06995267,-0.18043424,0.17616448,0.040173043,-0.23544605,0.027293377,-0.12321416,0.031086896,0.012569446,0.06907287,-0.039141286,-0.018511007,0.18119219,0.098246194,-0.08126055,0.07025526,-0.0027008455,0.17210205,-0.024345314,0.13446854,-0.19937438,-0.103829,-0.089789934,-0.002287424,-0.05793415,-0.046988763,-0.096145526,-0.020489903,0.12120632,-0.051808424,-0.021843025,-0.08524199,0.14851378,-0.041677557,-0.111349404,0.061015837,0.07794825,-0.081515044,-0.20283766,-0.05109546,0.07555096,-0.020785982,0.23113811,0.05057262,-0.13375154,0.014452487,-0.31057188,-0.023449179,-0.062302068,0.004702684,0.1525031,-0.07458699,-0.07138254,0.19733436,-0.1605448,-0.19575398,0.2220486,-0.22249879,-0.17038356,-0.30933782,0.052398562,0.10060348,-0.050573327,0.16759326,0.01631514,0.041785907,-0.03177708,-0.0033540446,-0.068170704,-0.18921673,0.06337861,0.08255354,0.053849053,-0.15380065,-0.006861574,-0.09408167,0.12910876,-0.022656033,0.19875838,-0.121125095,-0.06336013,-0.0024261174,-0.028481072,-0.09309642,-0.085018866,-0.037496988,-0.12941088,-0.13531813,-0.0617476,0.028870406,0.35878733,0.07126895,-0.13634486,0.037770316,0.1847508,-0.061652195,-0.08375431,-0.052874647,-0.073326826,0.17866425,-0.028948583,-0.03025092,-0.120015465,-0.0720838,0.04598991,-0.0154753,-0.19270438,-0.002340246,-0.2650545,-0.08103034,-0.15232827,0.036991354,-0.0051090913,-0.03922324,0.015257364,0.16419443,-0.26424828,-0.071196936,-0.02340709,-0.04669081,-0.091199376,-0.021731505,0.3314025,0.015930854,0.2047789,0.13149033,0.19785205,0.0077338475,-0.020060444,-0.016042314,-0.047721665,-0.11191876,0.350115,-0.15972632,0.045974,-0.23159379,-0.1437275,-0.008136998,0.06835575,0.048395637,0.111945935,0.06535995,-0.07755676,-0.0014814772,-0.045318764,-0.18820257,-0.12252985,0.23934434,0.069615036,0.14776039,0.042633187,-0.2171348,0.0039785714,0.004094067,0.12079104,-0.058290724,0.065607935,-0.046166163,-0.15005691,-0.08301228,0.03934593,-0.043132473,-0.23324825,0.065328054,0.0228446,-0.05360767,-0.068017535,-0.16313115,-0.118467845,0.04532065,-0.10168884,-0.07960684,0.117088035,0.082829826,0.053929076,0.038341466,-0.07097287,0.028853798,-0.17842588,0.12381318,0.14365296,0.06903439,-0.068654895,-0.025692867,0.005477071,-0.010435828,0.08668617,-0.063679606,-0.118040465,0.13653587,0.054563105,-0.18428852,-0.10725263,-0.069685355,0.060138594,-0.056537773,0.19812442,0.11242072,0.1641406,0.21447846,0.09535573,0.02615911,0.30316663,0.044717163,0.078029186,0.060836736,0.16150565,0.043090373,-0.027701877,-0.022073355,0.10092039,-0.089755155,-0.11903775,-0.019885004,0.18266451,0.039467767,0.017702574,-0.060900215,-0.10903976,0.05832077,-0.1718089,-0.13409787,0.12085159,-0.14380604,0.17437041,-1.043652,0.19145156,0.088856086,0.1183451,-0.0041283467,-0.047139384,0.027298776,-0.09414518,-0.064058505,-0.041626282,-0.019120604,0.00486609,0.6067055,-0.04183714,0.1560158,-0.041197304,-0.042419303,-0.019298665,-0.024948869,-0.23183186,0.008963671,-0.04521993,0.0064448947,0.05271819,0.11439233,-0.19320661,-0.104680754,0.21801937,-0.0012439177,-0.025697103,-0.02494062,0.16793753,0.060070887,0.0017310671,0.09629399,0.1266515,-0.2458479,-0.043605667,0.038641434,0.14055113,-0.03988393,0.04212783,-0.096820116,-0.13646197,-0.1110552,-0.15868707,0.05349994,0.02263028,-0.009679411,0.27073604,-0.05870821,0.00403844,-0.09077901,0.049428243,-0.023786107,-0.02428489,0.029824188,-0.24646042,-0.17371844,-0.030020166,0.034978624,0.12291724,0.14608134,-0.045822807,0.009080726,-0.033039354,-0.23520759,-0.074118815,0.12424975,0.078269854,-0.06803857,0.005873256,0.13488738,-0.03154842,-0.13348094,0.10036835,-0.04943441,0.009419194,-0.027789073,0.013833644,0.22801018,-0.24867214,-0.018938554,-0.060423575,0.17325056,0.26155722,-0.00077031966,0.19719969,0.11425124,-0.16966805,-0.013701069,0.10763826,-0.04573271,-0.1923016,0.11903319,0.18700032,-0.047267947,0.11880464,0.011402731,0.0014075631,0.12994958,0.14576228,-0.0393125,0.22471307,0.099032134,-0.027602326,-0.11328693,-0.12622868,-0.09679862,0.045024164,-0.053416874,0.01068806,-0.18907686,0.06748299,0.047318973,0.084803455,0.16237956,0.15889853,0.20438641,0.13824466,0.056608777,0.1756494,0.077594854,0.18019041,-0.12821597,-0.13189383,0.17472364,-0.09107864,0.00280476,0.0703821,0.09143269,-0.09323037,0.11221966,0.12632856,0.14697295,0.033380006,0.16436517,-0.02055788,-0.05799309,-0.06612095,-0.18412118,0.14333463,-0.1428726,0.0245242,0.06503152,0.02434938,0.082432225,-0.1777831,-0.0729005,0.10524346,0.15227711,0.17449057,0.042737614,-0.06932359,-0.10897126,-0.060074583,-0.028668042,-0.19695117,0.056715548,0.23243879,0.104408376,0.023380421,-0.12860794,0.25957718,0.20677869,-0.11216067,-0.09874327,0.06619536,0.0070683807,0.14594221,0.23727778,0.088621296,-0.1498052,0.053852838,-0.057129413,-0.023297705,0.06565796,-0.01769731,0.016700687,-0.18532974,-0.39549497,0.09071255,-0.10393741,-0.0363746,0.0040938,-0.06861495,-0.027954325,-0.015545731,0.1719286,-0.018685343,0.064860836,-0.019427247,0.11945635,0.010369292,0.07453622,-0.16879241,0.05396376,-0.100512184,-0.015095227,-0.027503941,0.003794095,-0.28825188,0.16662605,0.10879055,-0.121840864,-0.25962913,-0.14934361,0.26000205,0.030155117,0.031008022,0.12382443,0.18065038,0.02290037,0.12084679,0.1264838,0.115967184,-0.14471765,0.15720925,0.1868522,-0.20025462,0.2164422,0.11997668,-0.23820657,0.060427267,0.025630334,0.10554268,0.1684377,-0.04406206,0.09541994,-0.14442785,-0.017280547,0.008325078,-0.29040977,0.21530563,-0.1548917,-0.058704864,0.018940767,0.15998425,-0.076516114,-0.013984914,-0.024304252,-0.2671354,-0.22251096,0.02655055,0.07218234,-0.13264231,0.23274985,-0.1714005,-0.15252617,0.07287545,0.09830731,0.1134476,-0.108709455,0.047955465,-0.03164911,0.026797527,-0.104393244,-0.10314683,0.014411313,-0.123880506,-0.036257047,-0.12241226,-0.013113941,0.050010964,0.08484969,0.03420013,0.11600288,0.05766554,-0.10982097,-0.2910946,0.04162516,-0.14485957,0.09816156,-0.07202687,4.6371818,0.20878467,0.017726604,0.014029854,-0.07013098,0.05308841,0.15357168,0.08042457,-0.109302126,-0.091150284,-0.02881633,0.06294885,-0.06988366,-0.11633019,-0.0063603567,0.006016349,0.14712049,0.026438199,-0.19694148,-0.0005847162,0.06507196,-0.14644319,-0.04815792,-0.25551614,-0.075341046,-0.010147499,-0.027860025,0.0077905045,0.22608192,0.059301414,-0.011486375,-0.07604527,0.024641626,0.01967791,-0.14892593,-0.11259651,-0.113303125,0.10336038,0.14443704,-0.15641753,-0.14926586,-0.05347634,0.033672,-0.025687497,-0.07345925,-0.103144325,-0.14656177,-0.14202732,0.013644891,-0.037354965,0.25586858,-0.09856896,0.03365384,-0.13023117,-0.017932797,-0.058496647,0.012874223,0.29002944,-0.08944302,0.11365229,0.06926094,-0.1773391,-0.077467546,-0.2320945,-0.17075314,-0.034854457,-0.13652542,-0.028036175,0.109017245,-0.07386506,0.11439739,0.085834496,0.2525726,-0.20256661,-0.0689457,0.044578016,0.036001004,0.03677595,0.130094,-0.08784797,-0.09996189,0.11318369,0.12752043,-0.13685612,-0.0732504,-0.13634427,0.09350978
ADI-47054,-0.107733235,-0.012986874,0.006347285,-0.105711676,-0.043920364,-0.07450494,-0.07777456,-0.15265962,-0.3999979,0.33910242,-0.03178636,0.064804524,0.124335155,0.08838165,0.09853981,-0.26460883,0.023844516,-0.046656318,-0.28654006,-0.13153447,-0.077999644,0.08107367,0.06459444,0.015637212,-0.113592856,0.101545624,-0.10770498,0.011958412,0.14071922,-0.024911005,0.0048917052,0.0992055,0.12377761,0.11460873,-0.16081344,0.17359796,-0.10925578,-0.2505764,-0.2002927,0.17493463,0.32154077,0.061727032,-0.16896555,0.020163903,-0.057469692,-0.00050004746,0.04290779,-0.21495385,-0.20613383,-0.039839424,0.11142822,0.16756314,-0.011665687,0.12746318,0.09379538,-0.15786986,0.08072748,0.047901258,-0.2851552,-0.004371243,-0.2410928,0.07154048,-0.024600655,0.11914481,-0.048098832,-0.08321746,0.184528,0.13109024,-0.14214422,0.031325094,0.052462555,0.27251014,0.025772126,0.12653407,-0.25058815,-0.12230459,-0.07034611,-0.071669705,-0.09980514,-0.0014481494,-0.02859752,-0.029174134,0.21326421,-0.06273407,-0.0024033184,-0.1744334,0.16051327,-0.066784546,0.07735257,-0.020899981,0.05667141,-0.06214608,-0.17557111,-0.048928678,0.13008039,-0.055169016,0.22635417,0.048631504,-0.16810751,-0.0031230294,-0.27585,0.014243534,0.02553474,-0.019066213,0.14456786,-0.12145925,-0.049599472,0.21049464,-0.17417555,-0.25819975,0.2513764,-0.18798548,-0.1763732,-0.37792352,0.051992413,0.05963074,0.03443389,0.1723245,0.040660582,0.036160514,-0.022271244,-0.036826197,-0.16605791,-0.27052495,0.04790853,0.072621286,0.09007101,-0.1867189,0.027067002,-0.12573066,0.072993316,0.05833402,0.23165788,-0.17303434,-0.09137478,-0.0034104018,0.003975429,-0.030631268,-0.10616653,-0.04456255,-0.16631804,-0.14757591,-0.09230573,0.076208465,0.2371687,0.03450625,-0.1949178,0.08307499,0.24198456,-0.09971399,-0.06689676,-0.06532056,-0.08897996,0.16690317,-0.16262166,-0.09000615,0.022804184,-0.012080842,0.06731968,-0.020031372,-0.24524817,-0.042486038,-0.26318076,-0.08924943,-0.1405516,0.02163214,-0.05781248,-0.12359239,0.017310869,0.17683192,-0.28361014,-0.046714302,-0.08039827,-0.04299032,-0.031008592,-0.007410867,0.3918089,-0.0035057631,0.23532982,0.21880008,0.23513843,-0.01777158,-0.014579851,-0.049136497,-0.004762409,-0.14503902,0.28688207,-0.12768908,0.04810335,-0.22397077,-0.1487195,0.07934678,0.05274005,0.04493084,0.15467,0.07732919,-0.07844016,0.06264272,-0.14089379,-0.10947222,-0.11473033,0.2686013,0.059550986,0.18193169,1.19922315e-05,-0.26733395,0.033738457,0.0137017565,0.16298874,-0.09008198,0.10632002,-0.04249453,-0.22327602,-0.099086724,0.050962456,0.050373368,-0.22414143,0.18950032,0.004625402,-0.013595024,-0.09096324,-0.09311192,-0.148261,0.028347122,-0.09789687,-0.092665635,0.038567066,0.08583819,0.034447946,0.0260287,-0.022254203,0.031497482,-0.15641196,0.100513175,0.17212823,0.036214314,-0.04537259,0.0023457136,-0.047129247,-0.012857109,0.052873656,-0.07728427,-0.064928025,0.05259603,0.08314036,-0.2355562,-0.029312424,-0.0958405,0.0534124,-0.05219709,0.13468097,0.07462045,0.20932327,0.20962189,0.19264638,-0.043264132,0.2699245,0.026944611,0.115362346,0.1165172,0.14367777,-0.0055312254,0.044284146,-0.03470845,0.058538955,-0.11274212,-0.14944737,-0.05032692,0.1631894,0.065215595,-0.022788832,-0.115583554,-0.08189213,0.046252616,-0.1689748,-0.13352656,0.120240286,-0.18960036,0.14621592,-1.1220654,0.20773299,0.08624843,0.12950885,-0.02148218,-0.028645977,0.09599717,-0.13991821,-0.059556797,-0.05811443,0.021527689,-0.0014764079,0.38460442,-0.045403328,0.1303134,-0.086077556,-0.10490205,-0.027752917,-0.025434671,-0.17923428,0.060163163,-0.054294705,0.10828557,0.0676473,0.11900351,-0.12238057,-0.07173457,0.1751236,-0.028223813,-0.010386768,-0.018754842,0.16066353,0.08771595,0.028656108,0.10544201,0.1969995,-0.24934688,0.022752905,0.0006725521,0.16156597,-0.06480015,0.041021626,-0.13981071,-0.089207664,-0.031198164,-0.14147744,0.06414974,-0.0346881,-0.0545055,0.34534034,-0.02641176,0.013419364,-0.095169075,0.1981229,-0.048271727,0.046031512,0.017811853,-0.21435392,-0.18515922,-0.023950806,0.13161798,0.07258183,0.03928607,-0.04855672,0.018477444,-0.008825729,-0.21634965,-0.051572867,0.15447907,0.103332534,-0.20397694,0.031932816,0.15201801,-0.10067104,-0.12626468,0.102197506,-0.11696172,0.06621953,-0.05782503,0.015662434,0.26640016,-0.19317594,-0.007470935,-0.00569229,0.18100148,0.20068732,0.019527853,0.13050975,0.14476632,-0.2606397,0.053900283,0.18712455,-0.083726026,-0.14097923,0.18287814,0.21960655,0.016857252,0.14778213,-0.024772475,0.09312128,0.18280946,0.1552167,0.02956076,0.29387856,0.086353496,-0.075236894,-0.12763542,-0.09658527,-0.10395646,0.05345579,-0.14386033,-0.006557646,-0.22900648,0.05125295,0.099267066,0.073717944,0.14095765,0.16276659,0.19489935,0.15367533,0.05112114,0.14406212,0.19644791,0.14223996,-0.11045534,-0.107043855,0.15437223,-0.13412856,-0.077337645,0.080055445,0.07906363,-0.07459335,0.09917186,0.17913783,0.22735257,0.03604418,0.15484983,-0.09020875,-0.060555384,-0.081486754,-0.23592478,0.11669096,-0.09083242,0.06091575,0.012340975,0.047951307,0.0723289,-0.1936723,-0.04516846,0.10590474,0.12218286,0.122101314,0.026218118,-0.07137707,-0.06453267,-0.109170504,-0.015733937,-0.27099583,0.18093829,0.28149208,0.14626691,-0.033109196,-0.13087675,0.24897213,0.18039164,-0.1534278,-0.14576,0.13800052,0.017130965,0.18089306,0.24536389,0.12166338,-0.09658486,0.07867929,-0.0923264,0.055181365,0.09400748,0.018492762,-0.02683261,-0.19046229,-0.4002192,0.16543745,-0.08239097,-0.09103301,0.016270498,-0.16656345,-0.10330049,0.094088964,0.156449,-0.033926796,0.080236316,-0.052742578,0.030427817,0.049762733,0.062360562,-0.15136473,-0.016396299,-0.12309007,-0.003662994,0.0005488507,0.035453793,-0.27496153,0.21303712,0.13982579,-0.09047225,-0.27857503,-0.17572097,0.33709243,-0.075170204,0.049461666,0.13492164,0.2000352,0.06366917,0.14919469,0.17933847,0.0036243692,-0.16237576,0.17458135,0.21786556,-0.19057654,0.25085425,0.20517704,-0.26791337,0.12903048,0.0054536466,0.17684746,0.17271772,-0.01236797,0.07228332,-0.16214882,-0.0035389033,0.0068572136,-0.27982813,0.2735752,-0.14467679,-0.043832228,-0.043778162,0.089754455,-0.08318324,-0.011109831,-0.067522675,-0.30643195,-0.27598122,0.10301169,-0.03498631,-0.109602876,0.32279244,-0.14573304,-0.209808,0.077429265,0.11869968,0.27455777,-0.073022895,0.088920236,0.0031784521,0.04287111,0.030904802,-0.21413016,0.08599004,-0.1388158,-0.022976505,-0.1298834,-0.000550147,0.123243935,0.16221575,-0.01925398,0.07698491,0.041203324,0.010844942,-0.33506417,0.11828249,-0.12879628,0.14847125,-0.06633685,4.070232,0.18952604,0.0070799557,0.034795206,-0.074345596,-0.04474795,0.10916495,0.04039146,-0.078412905,-0.09354523,-0.05690962,0.09040942,-0.05770831,-0.17343783,-0.017853996,-0.067212895,0.21439615,0.046274472,-0.17857143,0.08282671,0.065151915,-0.12904128,-0.07216259,-0.23605308,-0.015507306,-0.060991675,-0.0042771543,0.036575664,0.31286237,-0.025045635,-0.036298726,-0.13383448,0.04997389,-0.08520367,-0.22681482,-0.17652524,-0.11415959,0.064855345,0.14362489,-0.12071463,-0.10011854,-0.123365365,-0.011295663,-0.022630224,-0.029631583,-0.08211975,-0.20088722,-0.21201588,-0.025216144,-0.005894803,0.28232133,-0.06956384,-0.013429057,-0.2129038,-0.007512644,-0.06471383,0.034642123,0.26285863,-0.027054636,0.045872644,0.07904362,-0.15197727,-0.17276508,-0.21617907,-0.1381333,-0.077453755,-0.21678253,-0.02040465,0.0365554,-0.07279529,0.14581688,0.072842404,0.2722665,-0.26476756,-0.05566416,0.054901216,-0.05479717,-0.016008945,0.10706743,-0.07073452,-0.063244894,0.12774079,0.15418999,-0.10442407,-0.047549587,-0.1661311,0.067520514
ADI-47278,-0.09880639,-0.037251137,0.022362094,-0.11278628,-0.051443942,-0.1318677,-0.03441034,-0.18211338,-0.33885032,0.25790337,-0.006922035,0.07531519,0.10686316,0.11477875,0.0648768,-0.21010217,0.01185157,-0.03116108,-0.31794176,-0.04322846,-0.11549394,0.040066496,0.05013144,-0.037853733,-0.045196146,0.041700497,-0.0924906,-0.04800733,0.0785701,-0.02468788,-0.010471565,0.13554262,0.09661425,0.07922314,-0.14299312,0.19285531,-0.08946944,-0.22423272,-0.16729331,0.18351784,0.24144363,0.0782059,-0.11684119,-0.030983433,-0.12757775,-0.025098372,0.072655596,-0.2577416,-0.21884865,-0.11490082,0.12107177,0.18417555,-0.05749591,0.15644787,0.03274578,-0.12581958,0.14311372,0.07443675,-0.22454426,0.024014106,-0.15793201,-0.002984802,0.0146663645,0.06638907,-0.025942413,-0.021572554,0.21312617,0.097362414,-0.11040422,0.037199203,0.04018271,0.21318969,0.0017624807,0.08997929,-0.25827986,-0.0823788,-0.06954328,-0.04994803,-0.0666652,-0.042255234,-0.034409348,-0.0014664709,0.14817435,-0.06064082,-0.040030096,-0.1498806,0.20251158,-0.06637927,-0.030539874,0.052293714,0.096514076,-0.1042698,-0.14717253,-0.013251868,0.10163131,-0.07211271,0.25200567,0.016408559,-0.15525216,0.042496666,-0.31174567,-0.037462287,0.02855509,-0.013696035,0.14871244,-0.1313144,-0.09144098,0.20604245,-0.11372253,-0.18558203,0.16575839,-0.2227167,-0.18572561,-0.33213884,0.051969305,0.08300791,-0.025638826,0.20078959,0.04355442,0.044151235,-0.0007146207,0.0021520464,-0.08651865,-0.20449077,0.054879196,0.07790037,0.08393493,-0.18094729,0.050551575,-0.114614695,0.08133218,0.016582923,0.19490907,-0.14659643,-0.12717383,0.00861986,-0.022123167,-0.033425555,-0.109640524,-0.08548697,-0.09498181,-0.14130454,-0.12078016,0.04337749,0.28335318,0.08401737,-0.14097774,0.043004822,0.237926,-0.060439512,-0.08601472,-0.060923275,-0.008502422,0.13524567,-0.04603158,-0.1123544,-0.052131403,-0.07727098,0.04332073,-0.04317904,-0.26919407,0.0066462555,-0.25918996,0.025163878,-0.13479775,0.033150215,0.0053594285,-0.13911505,0.06208049,0.16386957,-0.3006631,-0.085654184,-0.044641566,-0.034205128,-0.06331118,-0.01791856,0.3376382,-0.010245287,0.21834041,0.13013856,0.16126184,0.017635433,-0.058832586,-0.024052043,-0.015200047,-0.18106149,0.26209027,-0.13173085,0.07186226,-0.24092141,-0.123169065,-0.004798846,0.07495543,0.08940286,0.08506728,0.060416088,-0.041633483,-0.025935506,-0.11010087,-0.17567736,-0.0948361,0.28258818,0.05231457,0.20828117,0.05009736,-0.23450948,0.0076434705,0.06666839,0.15101066,-0.047330078,0.09137893,-0.029634802,-0.14045563,-0.057800595,0.090415224,-0.0038532654,-0.18085554,0.120800644,0.029793605,-0.028267032,-0.05852983,-0.15271908,-0.20553707,0.015041449,-0.19011465,-0.07591941,0.10555294,0.10100974,0.051703915,0.05089454,-0.016370714,0.010118774,-0.15820514,0.07614794,0.12499393,0.0009976325,-0.057942554,0.002780609,-0.023288822,-0.0045727496,0.08247615,-0.03879651,-0.12059378,0.13633862,-0.029215747,-0.1754994,-0.07451034,-0.08990911,0.06314513,-0.030991087,0.20046842,0.1872533,0.21030846,0.14154404,0.14987873,0.014155108,0.33264175,0.077656664,0.059501216,0.11202696,0.15543355,-0.014025587,-0.011159632,0.04430033,0.08125656,-0.12943882,-0.10910394,-0.053696558,0.17094824,0.05478892,-0.022999048,-0.05614115,-0.11363142,-0.0054448876,-0.19791803,-0.1217287,0.13319823,-0.24158375,0.14736722,-0.9830116,0.21815583,0.048644267,0.11470362,-0.008832088,-0.055153616,0.09976847,-0.1309321,-0.05832574,0.0063395253,0.0012685317,0.03418819,0.3146591,-0.033498026,0.140281,-0.13601747,-0.06106922,-0.010063681,0.00027857986,-0.22693485,0.020654846,-0.098638594,0.075558156,0.026592353,0.15382685,-0.19881997,-0.07129696,0.19629905,-0.012804456,-0.035787508,-0.026874153,0.1555532,0.06360708,0.016725903,0.12888506,0.15569273,-0.28450853,-0.030787986,0.021692183,0.14508559,-0.04278183,0.1001418,-0.087827764,-0.18655069,-0.07883318,-0.12841754,0.05523144,0.017639218,-0.01526161,0.32638606,-0.052026946,-0.068777874,-0.094454825,0.10202586,-0.0905199,-0.022987612,0.04755543,-0.27077347,-0.15301326,-0.01959859,0.050656904,0.11082192,0.12312437,-0.0019053489,0.03204083,0.023849344,-0.20584372,-0.04991667,0.12974992,-0.007122113,-0.058356907,0.018227693,0.13871661,-0.051837098,-0.13446666,0.06730676,-0.083603814,0.02407494,-0.06885824,0.02305157,0.17714043,-0.28059852,-0.014305048,-0.067628756,0.13219717,0.1935561,-0.010128127,0.21199206,0.11107803,-0.19487138,0.043871354,0.11310428,-0.06952319,-0.17911437,0.11300592,0.18266857,0.026804978,0.120272465,0.00785616,0.012939664,0.19246416,0.19948667,0.017347155,0.22692092,0.04177512,-0.0470609,-0.09229515,-0.13715035,-0.04696953,0.010335097,-0.033815455,0.035239745,-0.19130641,0.1006356,0.06175169,0.07840105,0.16287008,0.18389203,0.23560582,0.10481751,0.09031579,0.1557239,0.11710945,0.14004466,-0.15509506,-0.1187296,0.17281759,-0.07937108,-0.047196306,0.118642725,0.06093824,-0.13020739,0.08198551,0.17044723,0.135379,0.041061737,0.1617663,-0.033683147,-0.06424532,-0.015493228,-0.18806782,0.1954837,-0.1101941,0.03548981,0.040707015,0.088280916,0.12223152,-0.1750559,-0.08278824,0.09179534,0.19356199,0.12415303,0.061695084,-0.06787178,-0.053797055,-0.11840321,-0.0635094,-0.25321302,0.13229837,0.22162831,0.11756725,0.033911224,-0.13479474,0.27819178,0.2063123,-0.14650132,-0.1494015,0.13559742,0.00090014824,0.15181117,0.2510805,0.08925485,-0.14105414,0.03869963,-0.056035124,0.048704766,0.05988419,-0.00468635,0.022418793,-0.1686309,-0.3529064,0.13331029,-0.112313375,-0.09533623,-0.038749542,-0.112951994,-0.04552104,0.010734318,0.17256819,-0.067927286,0.0863136,-0.010370805,0.066368155,0.0368116,0.060528476,-0.1530182,0.11741248,-0.12188907,-0.031751093,-0.0074093486,-0.023643779,-0.23742923,0.20227112,0.118247986,-0.12001148,-0.30073744,-0.19998829,0.33529112,-0.0011561987,-0.047362637,0.076809384,0.22128199,0.051040083,0.13961211,0.06842545,0.07265739,-0.16814852,0.23702186,0.21983217,-0.2113911,0.25590718,0.17087245,-0.2546816,0.07581702,0.054520443,0.13749193,0.21766105,0.0027582245,0.09233106,-0.1604507,-0.07665545,0.00055509864,-0.3047881,0.23548919,-0.14382243,-0.13113756,0.028471261,0.16369611,-0.055028796,-0.030615637,-0.014299937,-0.2421885,-0.21629976,0.04904526,0.02867383,-0.093372785,0.28064692,-0.1472237,-0.17095791,0.084855214,0.14602602,0.15676184,-0.112912014,0.06517229,0.029775238,0.014197139,-0.028476784,-0.092255585,0.06217921,-0.14306207,-0.049247198,-0.09273461,0.034818448,0.12174354,0.11866777,-0.030319622,0.14092027,0.047562037,-0.07556575,-0.3407358,0.095285624,-0.15952349,0.0760773,-0.049167022,4.2064867,0.17628388,0.07446565,-0.008647934,-0.036447473,0.018661048,0.17056818,0.08024247,-0.091960415,-0.09872658,-0.052126013,0.06171427,-0.05359741,-0.1634216,0.04477296,0.00075888523,0.16248706,0.04661759,-0.23716933,0.04719139,0.0597191,-0.16481733,-0.05072643,-0.258988,-0.05877068,-0.015089776,-0.03552381,-0.037071668,0.262849,0.06863078,-0.035565,-0.103673965,0.047349866,-0.0058573596,-0.1911257,-0.10083339,-0.12466273,0.12110562,0.10152765,-0.14883274,-0.13655885,-0.1355015,-0.011029175,-0.06129118,0.003928405,-0.08444854,-0.17351893,-0.1555483,0.032502137,-0.038402464,0.198025,-0.13801962,0.08409109,-0.2338876,0.026086679,-0.031649277,0.05113601,0.2759704,-0.088283435,0.083348334,0.025269682,-0.14422259,-0.11284942,-0.20654923,-0.14509647,-0.056805998,-0.14475378,-0.07403507,0.11748766,-0.09688859,0.10546926,0.0965959,0.27241787,-0.15632549,-0.05592792,0.042583767,-0.02007592,0.027894694,0.13919885,-0.016480107,-0.07302986,0.09911546,0.16832875,-0.12326622,-0.053474594,-0.14290814,0.098014735
ADI-47055,-0.07887469,-0.047558133,-0.0022444269,-0.056618378,-0.00335697,-0.14624062,-0.09857854,-0.14493267,-0.34234273,0.263737,-0.0018827397,0.09000589,0.13796882,0.023525128,0.043641303,-0.18572842,0.0364725,-0.047236253,-0.27673718,-0.109590404,-0.13680677,0.10032971,0.07482797,0.04985362,-0.060080394,0.08405051,-0.11404623,-0.092327125,0.07234114,0.016668178,-0.02843742,0.13484731,0.10164123,0.091622345,-0.1855646,0.17327543,-0.13197039,-0.20509666,-0.14772962,0.17448342,0.27074146,0.081199765,-0.14160356,-0.033799507,-0.0676721,-0.018913811,0.07203191,-0.2910035,-0.18064584,-0.05845364,0.14703944,0.13487601,-0.0382486,0.15520078,0.026671099,-0.13948378,0.14876752,-0.0053600073,-0.34340048,0.062151343,-0.15089287,0.044990607,-0.011526694,0.08151921,-0.021811225,-0.06276277,0.10144779,0.07049516,-0.13539706,0.02111615,-0.017278014,0.19291878,-0.01122808,0.1293869,-0.32293233,-0.095596775,-0.123092055,-0.05403932,-0.087969,-0.03776766,-0.027535522,0.0018334595,0.15208401,0.03709447,-0.022990366,-0.14240481,0.20191127,-0.03701942,-0.043445617,0.046677504,0.088681735,-0.07979277,-0.2060522,-0.028658245,0.09070632,-0.07618551,0.24035732,0.023595218,-0.15061761,0.016449189,-0.22424959,-0.0148375705,-0.018354587,0.06355387,0.14748259,-0.12504429,-0.02137704,0.2027693,-0.13099056,-0.23445475,0.21028146,-0.16792049,-0.19256763,-0.35083884,0.061890174,0.05275613,0.005335488,0.15283982,-0.012844939,0.06603378,-0.038585056,-0.010483315,-0.11727927,-0.22676532,0.05026168,0.044556536,0.05558461,-0.17308237,0.0542525,-0.108162895,0.11199831,-0.042547416,0.09321099,-0.1454853,-0.10046661,0.031054683,0.014540755,0.013397641,-0.10094807,-0.050260257,-0.18835886,-0.1470579,-0.108313434,0.019101107,0.2640859,0.072200395,-0.07025597,0.026080359,0.17443405,-0.09830821,-0.1133875,-0.022201557,-0.03251965,0.16254252,-0.08556596,-0.038617983,-0.048458166,-0.09119933,0.0086176945,-0.031453494,-0.23592748,-0.03205372,-0.24513024,-0.029862368,-0.102494635,0.036103763,0.030764403,-0.079016976,0.08341403,0.20310475,-0.33774325,-0.09344851,0.0046962653,-0.050795697,-0.11121268,0.00720949,0.3783737,0.013633889,0.19028553,0.17996843,0.0770612,-0.058626283,-0.013595572,0.01818977,-0.032280505,-0.15554744,0.29145288,-0.11825975,0.065294266,-0.19513486,-0.16069104,0.048809186,0.055604827,0.06174675,0.07654489,0.08008433,-0.05088089,0.0012788683,-0.08420189,-0.11394651,-0.1309083,0.30433714,0.05625272,0.07715542,-0.009530928,-0.2153954,-0.000236548,0.070682585,0.1572962,-0.024322063,0.088746846,-0.026684985,-0.2534524,-0.09412742,0.016970772,0.053337663,-0.19917503,0.14357024,0.016250178,-0.007861387,-0.04861145,-0.09512543,-0.16538244,-0.009670416,-0.13036361,-0.077063076,0.08994347,0.08809145,0.12219723,0.045318834,-0.041285302,0.022504939,-0.14372793,0.028096894,0.17568491,-0.0035216608,-0.06555904,0.03387102,0.0017416731,-0.051781032,0.047126967,-0.071554676,-0.09661711,0.04647869,0.022445498,-0.16280912,-0.040682063,-0.08399093,0.082640775,0.0015472686,0.15026174,0.1432832,0.17334808,0.23388661,0.105473936,-0.061959397,0.2948965,-0.0025903443,0.11354543,0.01927179,0.17283769,-0.045627713,-0.027818618,-0.04897933,0.12523857,-0.07426744,-0.10924557,-0.025355112,0.19394912,0.15465021,-0.032112908,-0.015152577,-0.11972538,0.07049725,-0.102803186,-0.12253438,0.063513905,-0.19515589,0.21091054,-0.96681106,0.19736305,0.090530485,0.15613128,-0.023361834,-0.09505684,0.12648542,-0.057598695,-0.04321123,-0.029264377,-0.0061089066,-0.03379519,0.42945528,-0.0487604,0.12932861,-0.037360128,-0.04108956,-0.03430281,0.013439402,-0.19413069,0.08009362,-0.0307631,0.0635986,0.04739368,0.10146985,-0.10071349,-0.08055234,0.15887925,-0.0030664485,0.029129116,-0.046728097,0.19515222,0.10449068,0.010149477,0.14387277,0.25451553,-0.28090867,0.007934842,0.01895655,0.15553004,-0.012806777,0.09811697,-0.07076219,-0.051152,-0.109198,-0.21545625,0.102622196,-0.013227255,-0.10183994,0.38090938,0.031274665,-0.03079517,-0.14885613,0.15771246,0.0013018757,0.06781333,0.055190515,-0.19133186,-0.1888694,-0.008784681,0.113390304,0.14672948,0.009538446,-0.08656619,-0.03977232,-0.05456182,-0.18834995,-0.07575183,0.067708984,0.094749115,-0.11833062,-0.014156484,0.11541123,-0.0861366,-0.12727557,0.09475601,-0.010217572,0.053460672,-0.01811855,0.059957866,0.22983073,-0.19871016,0.038712636,-0.04383219,0.18085413,0.24161129,-0.04869544,0.16696364,0.015284166,-0.15460636,0.048251815,0.11163556,-0.05739164,-0.20440815,0.120585896,0.16507764,-0.013689712,0.17109329,-0.0009394408,0.05014597,0.12688257,0.18237834,0.06510863,0.17939587,0.077689074,-0.06636355,-0.109570384,-0.12881786,-0.12418738,0.037022244,-0.052593477,-0.038254507,-0.21521038,0.03401036,0.077605434,0.01591791,0.11515546,0.15605117,0.2439698,0.09173492,0.036176685,0.10379613,0.07831741,0.17584738,-0.13586378,-0.12308669,0.14172071,-0.11753126,-0.0532326,0.07961817,0.07763597,-0.16843432,0.059252884,0.082899876,0.18323787,0.007386415,0.13788655,0.03281556,-0.019583216,-0.056947254,-0.13571341,0.18161592,-0.14460385,0.02507363,0.03672742,0.09907121,0.008610234,-0.17756589,-0.09037205,0.15025967,0.08139673,0.16349968,0.012936733,-0.10279982,-0.10101158,-0.069393404,-0.021412738,-0.2511228,0.07091508,0.23408206,0.16027889,-0.020399548,-0.09139602,0.2552743,0.17812392,-0.09072688,-0.21009737,0.13637291,0.072298385,0.1530376,0.24898344,0.051333386,-0.15078335,0.1026412,-0.070573255,0.017869458,0.06215173,0.0066012633,-0.0064820154,-0.18170455,-0.30039492,0.13810176,-0.09267104,-0.11313574,-0.017225727,-0.11526172,-0.046199072,0.035511635,0.18109618,-0.03621132,0.054845966,-0.026793841,0.04870317,0.01271927,0.025931172,-0.1756084,0.0046794126,-0.15020506,0.014827302,0.002190339,-0.061387975,-0.25535017,0.21890111,0.15381189,-0.11580482,-0.25669423,-0.2050479,0.30971512,-0.061955586,0.03021054,0.13923258,0.18325861,0.09987821,0.13269897,0.14165203,0.07027222,-0.10056273,0.21811396,0.21630962,-0.1784881,0.18587077,0.103227116,-0.27766705,0.040274333,0.009596082,0.12578641,0.18225966,0.048876643,0.12450597,-0.10902247,-0.06760598,-0.024002314,-0.27919012,0.21801098,-0.14513525,0.023884501,-0.0021541766,0.11945933,-0.06422339,-0.0041983384,-0.103152186,-0.33904317,-0.26531258,0.034018163,0.048819788,-0.083371736,0.32670084,-0.13424031,-0.12024318,0.15068747,0.13356842,0.14387918,-0.1391888,0.11143502,-0.0006515328,0.025922002,0.030460691,-0.11493179,0.02309157,-0.101652995,-0.05386504,-0.14153215,0.041760407,0.09841884,0.07894785,-0.048530035,0.12372753,0.10800815,-0.062328756,-0.33043203,0.040888324,-0.14977928,0.16596583,-0.08395936,4.3954506,0.18358874,0.04324548,0.005640836,-0.009752188,0.01089134,0.1364284,0.079692595,-0.14364007,-0.13151132,-0.058808014,0.06609044,-0.034066554,-0.23696528,0.04694829,-0.0006827278,0.12594032,0.025316257,-0.20870236,0.09698356,0.08769807,-0.15993589,-0.074753076,-0.26083803,-0.023200205,-0.045251288,-0.017560547,0.050962307,0.27226958,-0.07857642,0.0821422,-0.08724783,0.051377304,0.019219764,-0.17669031,-0.14526393,-0.16016924,0.08374365,0.13170223,-0.12898515,-0.10508129,-0.16862775,-0.12227725,-0.012152191,-0.016535578,-0.098966435,-0.18386538,-0.16279916,0.01831373,-0.02096099,0.260551,-0.13632716,0.07596162,-0.19324964,-0.00893337,-0.10645626,0.040209413,0.2973399,-0.023298426,0.11735228,0.057665937,-0.110238396,-0.13387899,-0.19898048,-0.11819399,-0.06870321,-0.19271854,-0.05670891,0.05123631,-0.032703493,0.12391595,0.056947738,0.18594278,-0.27039793,-0.045800254,0.06648063,-0.010477213,0.06156126,0.1549422,0.023184927,-0.14599708,0.17842254,0.15153593,-0.08601493,-0.016854018,-0.225185,0.104395494
ADI-47174,-0.069864236,-0.055543516,0.051440384,-0.1779201,0.009333087,-0.08579968,-0.095957756,-0.14982288,-0.30198494,0.3331143,-0.024820875,0.06559085,0.1060877,0.12964198,0.034825403,-0.12367342,0.032214228,-0.034163672,-0.2325484,-0.03554962,-0.15040855,0.08238492,0.08678059,-0.007193833,-0.09475049,0.042488802,-0.12081917,-0.06889165,0.12889458,-0.03010246,-0.04417338,0.07018513,0.067516916,0.06684222,-0.11201982,0.20686121,-0.098387286,-0.20635378,-0.16957474,0.18603596,0.24905868,0.10240424,-0.1723459,-0.05479329,-0.08349844,-0.025867948,0.09723701,-0.18013343,-0.19738735,-0.11252541,0.11398528,0.15672287,-0.026831506,0.12404263,0.060043294,-0.17458276,0.19295366,0.045990106,-0.24295889,-0.009535194,-0.13192879,0.042370435,-0.004486154,0.061336987,-0.034269776,-0.025438666,0.14531602,0.07233621,-0.097551145,0.08397988,0.0028300597,0.16812743,-0.040244214,0.13863967,-0.22105972,-0.09766112,-0.09143954,0.0066591376,-0.05233449,-0.02015108,-0.06856329,0.010646737,0.108146004,-0.05209718,-0.03598445,-0.097491995,0.16054298,-0.0457576,-0.0920869,0.070113376,0.07460133,-0.10347041,-0.18487199,-0.07221661,0.111909665,-0.00899812,0.22060058,0.050065972,-0.12951194,0.032987513,-0.32148895,-0.015739964,-0.07399241,0.012020817,0.17159866,-0.096654065,-0.074300356,0.21932848,-0.15490067,-0.21953465,0.21284093,-0.21366502,-0.18990195,-0.3211081,0.08080284,0.09838302,-0.019534731,0.17512603,0.013575658,0.03995222,-0.01872399,-0.004081121,-0.0717155,-0.18934233,0.08810209,0.08820963,0.05196429,-0.1751022,-0.0069523947,-0.09936871,0.104224525,-0.017074645,0.17748846,-0.11960351,-0.07829322,0.017985446,0.0028805921,-0.052245993,-0.09559671,-0.04078426,-0.13742681,-0.123213775,-0.060709964,0.025196752,0.32776138,0.08473591,-0.1329283,0.024793802,0.20762752,-0.054341644,-0.10640136,-0.09092732,-0.06669999,0.19191527,-0.03493576,-0.050305374,-0.12288316,-0.07790041,0.0079593165,-0.06813361,-0.20591906,0.046128888,-0.26985064,-0.07326435,-0.15346675,0.017247193,0.010790944,-0.0626278,0.017584698,0.16935053,-0.29838243,-0.05207001,-0.023096055,-0.01416614,-0.07474991,-0.0342819,0.33855042,0.020238599,0.18484087,0.106719255,0.14601028,-0.0077723986,-0.04815844,0.0077867336,-0.048109356,-0.12565282,0.35949704,-0.1516305,0.0446142,-0.19525567,-0.13293412,0.036806118,0.09689467,0.06530253,0.10214479,0.07231794,-0.07390975,0.009574319,-0.060699645,-0.16417241,-0.10702141,0.26701552,0.065484904,0.1528735,0.013572596,-0.17945404,0.025701152,0.041443396,0.1522186,-0.06988894,0.07245268,-0.029692026,-0.14938483,-0.07716634,0.01501696,-0.040316995,-0.21563275,0.0821627,0.01713136,-0.027566578,-0.06604049,-0.14812204,-0.14911969,0.02139086,-0.11843657,-0.078121655,0.11608221,0.07341711,0.06934866,0.017544802,-0.075249135,-7.288797e-05,-0.16106625,0.10962568,0.14372729,0.0857646,-0.08486498,-0.022670375,0.025575051,-0.015101999,0.096759744,-0.04489994,-0.10823299,0.1389179,0.0572075,-0.14012899,-0.0808192,-0.08656827,0.04486444,-0.038337927,0.17592214,0.10991024,0.16774309,0.19921649,0.09062986,0.032861896,0.29181382,0.06358861,0.0640294,0.071924694,0.16277169,0.029157404,-0.05025884,-0.033682745,0.098530106,-0.08782865,-0.14886524,-0.01647318,0.18047146,0.034512423,-0.0021492413,-0.056349214,-0.08394002,0.04951827,-0.15762213,-0.123490885,0.087082885,-0.1568856,0.18851288,-1.0429841,0.19082956,0.10314951,0.086110756,-0.017832048,-0.046172865,0.0511482,-0.06448909,-0.052915312,-0.03009862,-0.03083087,0.00048338322,0.5481177,-0.041736275,0.13187315,-0.05640812,-0.02293714,-0.021980558,-0.011059324,-0.23210646,0.011380966,-0.055736877,-0.0024045762,0.067861706,0.12676647,-0.17193034,-0.10488149,0.22480704,-0.0058464906,-0.014529656,-0.012028025,0.17596863,0.05553397,-0.013468434,0.11351462,0.14657463,-0.25879347,-0.049926687,0.009141912,0.13257104,-0.025363449,0.038218565,-0.09428192,-0.10836558,-0.0924114,-0.1440263,0.056961656,0.007824822,0.0006903926,0.27832538,-0.06349117,-0.025877941,-0.06851521,0.04482306,-0.046107143,-0.024279702,0.048282277,-0.25946334,-0.15201347,-0.020360675,0.05315577,0.101704344,0.1292008,-0.03026582,0.005200039,-0.027531851,-0.20721683,-0.087058224,0.07716192,0.060911536,-0.08129062,-0.018379351,0.13338676,-0.07953825,-0.15765302,0.09180609,-0.07110273,0.02437688,-0.027680233,0.0204116,0.22106946,-0.23780881,0.013090889,-0.07314132,0.17954315,0.25668734,0.01784028,0.16129462,0.092909805,-0.16570349,-0.01836606,0.10816361,-0.07104801,-0.20632479,0.10539456,0.18779962,-0.040699042,0.118173234,0.004578988,0.009545431,0.09146196,0.13785423,-0.009939917,0.22054763,0.099077865,-0.064000905,-0.10564298,-0.12765391,-0.10974944,0.045179244,-0.035850585,0.023564583,-0.21403997,0.10287858,0.04133763,0.08187903,0.1940585,0.17354807,0.22260495,0.11804906,0.031555828,0.13569964,0.069649376,0.175104,-0.13662013,-0.13229537,0.15432878,-0.09471946,-0.031354304,0.06887587,0.081352934,-0.102502085,0.12173833,0.119447395,0.14557676,0.045199625,0.15426002,-0.039939445,-0.052854475,-0.04919665,-0.13298608,0.16550387,-0.13773695,0.018206254,0.06810882,0.05421015,0.09477693,-0.17749444,-0.043796968,0.13026519,0.13932241,0.16869937,0.0625459,-0.061384823,-0.10707058,-0.061748154,-0.039767046,-0.21217768,0.045970656,0.22724196,0.10873032,0.022089953,-0.1412521,0.23152076,0.22053921,-0.12503536,-0.100095764,0.07527097,0.05206402,0.1450315,0.25234511,0.089821994,-0.14905857,0.06445349,-0.06814657,-0.03376647,0.039626155,-0.0025325285,0.027300581,-0.21532679,-0.38274312,0.12357465,-0.11937557,-0.04174728,0.017700296,-0.09464669,-0.066437885,-0.01823675,0.14436391,-0.014555399,0.05221364,-0.026405629,0.10353992,0.053655148,0.07281425,-0.18444382,0.040614247,-0.10041646,0.0027776049,-0.032000575,0.011805984,-0.30360484,0.1811962,0.10894152,-0.13903825,-0.26409063,-0.16264261,0.26635557,0.015914107,0.026125025,0.09972501,0.19648263,0.040288802,0.11809074,0.11325569,0.1408137,-0.14052914,0.15138693,0.17601123,-0.17302565,0.19933474,0.11957818,-0.25125554,0.06132855,0.036464762,0.09889074,0.16739132,-0.04956774,0.11773604,-0.15155448,-0.030658217,0.013711494,-0.2782457,0.21524367,-0.17347945,-0.061148703,0.012416331,0.14678678,-0.075108044,-0.023262724,-0.054027025,-0.26295242,-0.25759056,0.02866572,0.06255424,-0.13010223,0.26502326,-0.14639342,-0.14486139,0.12773743,0.11745091,0.12506913,-0.09071802,0.07690687,0.0025107763,0.03748471,-0.07512727,-0.10703202,0.0068851816,-0.10644036,-0.04535467,-0.13290791,0.017582443,0.04952356,0.095619336,0.020560531,0.1259609,0.06383504,-0.098792985,-0.2672455,0.037649643,-0.13748953,0.120265625,-0.04654137,4.5395517,0.1958262,0.030831495,0.029999658,-0.055069458,0.024908388,0.13100019,0.08481067,-0.1265299,-0.09718899,-0.027914774,0.05175283,-0.026362335,-0.1355458,0.0034744397,-0.0043025934,0.13997827,0.024444183,-0.21047391,0.040712863,0.05539807,-0.16772258,-0.04958297,-0.27942556,-0.072114535,-0.016883807,-0.040632103,0.011224659,0.23755942,0.052300394,-0.0034064332,-0.102614656,0.035677977,0.032635834,-0.13466412,-0.11160411,-0.1258825,0.08642631,0.155182,-0.14638786,-0.121212244,-0.058917727,-0.011117773,-0.013237283,-0.046768602,-0.116115086,-0.1453308,-0.15035117,0.021390064,-0.053670865,0.24501826,-0.10309857,0.06122482,-0.13175191,-0.009103014,-0.03379696,0.014509865,0.30704504,-0.08244253,0.12992682,0.047783803,-0.2104917,-0.09363895,-0.17062457,-0.16128013,-0.0334233,-0.15300977,-0.023374936,0.10151338,-0.05208885,0.08021009,0.11712495,0.225522,-0.17472564,-0.07467987,0.043918435,0.0038196929,0.051720466,0.14793216,-0.05281545,-0.11893363,0.11576915,0.12965809,-0.15276995,-0.06911055,-0.14074719,0.09938304
ADI-47056,-0.11606552,-0.01346659,0.0035608592,-0.099599235,-0.06308123,-0.1466243,-0.046966024,-0.19520797,-0.3628461,0.2517067,0.012882788,0.08134867,0.13616604,0.06984746,0.075466365,-0.23505574,0.020968664,-0.032263886,-0.34212163,-0.04110703,-0.100722075,0.044644713,0.058583193,0.009021524,-0.04068545,0.05464459,-0.09274135,-0.036783066,0.08543236,0.0042423476,-0.016245738,0.16446103,0.09753967,0.07330321,-0.16262595,0.19263391,-0.10308264,-0.2248805,-0.17001317,0.17434904,0.24312708,0.09374997,-0.12734216,-0.06148805,-0.09304944,0.006766998,0.073201545,-0.28904387,-0.23412119,-0.090587795,0.16446018,0.16780598,-0.044926815,0.16333821,0.05198095,-0.13858345,0.14086439,0.07128286,-0.25577024,0.054484658,-0.1504007,0.006138584,0.005003202,0.08780084,-0.037066717,-0.035379265,0.20680216,0.10811873,-0.10774273,-0.015299006,0.021675874,0.21383646,0.009919463,0.10346856,-0.2980949,-0.09468818,-0.08248952,-0.08092152,-0.07365796,-0.039605025,-0.019343888,-0.011153144,0.16822898,-0.03843711,-0.043513753,-0.14855224,0.18261708,-0.061078742,-0.021019967,0.0597478,0.090720646,-0.10724787,-0.163295,-0.0063725156,0.10689527,-0.061794836,0.28112885,0.0365377,-0.17300685,0.031641383,-0.29425645,-0.045400787,0.020676196,-0.0036776464,0.16772163,-0.117621794,-0.04989533,0.20017625,-0.117555864,-0.18870704,0.21309882,-0.2164252,-0.19640657,-0.3405686,0.04111927,0.106319085,0.0003107455,0.18663442,0.048591103,0.075453915,0.007849426,-0.005911496,-0.101708375,-0.22311804,0.04946869,0.037018258,0.06281406,-0.1708018,0.06612634,-0.11685521,0.07705417,0.0050187884,0.16817863,-0.14329211,-0.12620185,0.009706436,-0.017660188,-0.02098986,-0.11934343,-0.05371575,-0.12571664,-0.1568449,-0.12525545,0.04982592,0.35156626,0.07589347,-0.111298665,0.055698894,0.2359801,-0.08163279,-0.07597185,-0.03529123,-0.014684887,0.14937603,-0.06987529,-0.09756288,-0.007907229,-0.050157554,0.026805408,-0.03057422,-0.26789975,-0.0116063,-0.25537056,0.039364558,-0.12394012,0.028175175,0.009208344,-0.13847803,0.07017794,0.19505402,-0.3069261,-0.108184494,-0.06017936,-0.044629756,-0.083037704,-0.03286559,0.3857561,-0.00024668183,0.2242861,0.16685018,0.17122997,-0.013017507,-0.005242138,-0.03661055,0.010358673,-0.19394551,0.25668025,-0.12986466,0.06740756,-0.23173103,-0.1406448,0.008137935,0.060207672,0.08744548,0.08456851,0.05938838,-0.022714125,-0.018824352,-0.15361099,-0.186256,-0.07672681,0.28458527,0.04941582,0.17831868,0.022911089,-0.23491876,0.011286389,0.06768717,0.13664988,-0.044929814,0.07961964,-0.039136086,-0.1636795,-0.07905441,0.05925044,0.019660546,-0.19323915,0.1345617,0.0039529735,0.0016118663,-0.038220145,-0.123889074,-0.21308559,0.007021146,-0.17137872,-0.07352192,0.06701015,0.1082338,0.058688924,0.08250293,-0.0017459713,0.012242796,-0.1657892,0.065111816,0.16117968,-0.014243586,-0.05177295,-0.012183755,-0.03169848,-0.036826067,0.10016176,-0.046809554,-0.11512262,0.099894844,-0.033701327,-0.19800465,-0.08676679,-0.09033822,0.09504919,-0.01033107,0.16950251,0.16466862,0.21155015,0.18239519,0.16313325,-0.01630567,0.3290826,0.074929714,0.08623582,0.100940265,0.13596599,-0.04735691,0.01100682,-0.017838273,0.10371806,-0.16751896,-0.1066246,-0.05414292,0.17812951,0.082005486,-0.02953206,-0.058199223,-0.10733878,0.017131703,-0.17885345,-0.11735124,0.120450735,-0.22412401,0.16786934,-1.0011137,0.18880129,0.058543064,0.15040274,0.0039878464,-0.06414357,0.12297254,-0.1087266,-0.06480299,-0.01557488,0.015360532,0.024629638,0.36707586,-0.057681896,0.115718946,-0.11915396,-0.079788856,-0.029893752,0.0082732355,-0.19296719,0.031718973,-0.080183834,0.08330902,0.04181575,0.14350377,-0.16454542,-0.08429331,0.17850769,-0.0028832953,-0.04453831,-0.03630816,0.17994297,0.10239348,0.021101872,0.16308753,0.1817586,-0.28650263,-0.0041427515,0.019855605,0.13987572,-0.050646607,0.098684415,-0.109673224,-0.13480355,-0.09989267,-0.13846518,0.065196864,-0.007138834,-0.042504426,0.3549017,-0.0094588995,-0.087496854,-0.12202414,0.13654849,-0.059867855,0.02229155,0.050216895,-0.247061,-0.17633377,-0.0012294314,0.09682665,0.121655196,0.07959141,-0.018547062,0.0144611,0.012807866,-0.1954724,-0.03283969,0.1129165,0.012053482,-0.0827001,0.012109949,0.123363055,-0.05256367,-0.13169354,0.09456548,-0.067456655,0.05248435,-0.06653334,0.050215993,0.20217393,-0.28267464,-0.01635954,-0.060085543,0.14202453,0.21501844,-0.042623732,0.231278,0.086707056,-0.20207714,0.077379465,0.120549075,-0.02566491,-0.18668598,0.12813866,0.17300259,0.043609306,0.14261197,0.023554865,0.02592273,0.21515648,0.20158555,0.037357766,0.21758299,0.038955793,-0.062428426,-0.08390166,-0.1232735,-0.03243143,0.028473794,-0.09352635,0.008702947,-0.22075711,0.070453964,0.08203096,0.045640532,0.146163,0.16840608,0.22718394,0.08403179,0.06980505,0.16583234,0.13500498,0.12477193,-0.17240372,-0.101845354,0.12969711,-0.10707439,-0.044963174,0.11989567,0.047136065,-0.12321826,0.057395123,0.160871,0.1635007,0.023779128,0.1594858,-0.01066324,-0.07096139,-0.034985516,-0.19370705,0.17725372,-0.14016521,0.03187252,0.034437854,0.07672318,0.07358875,-0.17163216,-0.066372216,0.11565167,0.15536918,0.12476106,0.02715484,-0.058566682,-0.06300388,-0.10157271,-0.060189597,-0.24767847,0.13438194,0.23517637,0.13372442,-0.010854604,-0.123581015,0.28908512,0.18527314,-0.154465,-0.1952687,0.13385297,0.005301917,0.18307017,0.25878525,0.10180643,-0.14289229,0.07685086,-0.0516547,0.020945039,0.044685896,-0.015764713,0.0022950151,-0.18864653,-0.3457924,0.12599823,-0.102195926,-0.1137353,-0.02623602,-0.12833947,-0.04125325,0.021937512,0.18188435,-0.077730864,0.09774914,-0.020605303,0.041809287,0.023475612,0.022609795,-0.12989677,0.06850008,-0.12207225,-0.029640984,0.004381021,-0.036302943,-0.23158027,0.22986187,0.14800783,-0.15024394,-0.29827487,-0.2117304,0.3452026,-0.05869782,-0.018803408,0.12639782,0.22192456,0.07562488,0.13466221,0.08580475,0.04039088,-0.17338721,0.24094678,0.22986294,-0.24001883,0.23411247,0.17311485,-0.25690487,0.07447309,0.037914086,0.15791379,0.24763705,0.032335922,0.095932916,-0.16426364,-0.072578155,-0.00088203506,-0.28986493,0.2364423,-0.1567422,-0.06997837,0.03580524,0.12344962,-0.04535833,-0.019764839,-0.033538196,-0.27482474,-0.22265565,0.05024801,0.03298522,-0.11536381,0.3133638,-0.1395422,-0.14671627,0.07887164,0.13988574,0.1657358,-0.13876973,0.07608426,0.008250656,0.034759577,-0.013504946,-0.10475928,0.054948732,-0.12500201,-0.024398668,-0.10539387,0.06087306,0.122466415,0.12111937,-0.039421216,0.12364531,0.044334166,-0.063156426,-0.34539816,0.083284914,-0.14049177,0.113271035,-0.06952633,4.144894,0.20893252,0.0699686,-0.008643353,-0.0049899165,-0.0053777937,0.14389387,0.073302746,-0.13743216,-0.105581485,-0.07392123,0.060738333,-0.07516908,-0.1917017,0.032666627,0.011502327,0.17240666,0.03358594,-0.23478383,0.06678428,0.06844625,-0.16004331,-0.033734098,-0.25006986,-0.056148697,-0.044808477,-0.019171953,-0.014584505,0.27670267,0.012297476,0.0072752335,-0.10172065,0.06358906,-0.014712574,-0.21174496,-0.118295826,-0.1321053,0.11503798,0.082300715,-0.14690101,-0.14464532,-0.17232707,-0.039969847,-0.072121635,0.009963087,-0.056905143,-0.18846571,-0.19085933,0.011518877,-0.042412322,0.22964767,-0.11998122,0.07924072,-0.23992382,0.037061516,-0.068459645,0.047445375,0.30476645,-0.041130662,0.08770166,0.028968453,-0.12363772,-0.12528767,-0.24366124,-0.12610671,-0.08606385,-0.16123877,-0.06442549,0.07982656,-0.09735368,0.13811621,0.08858175,0.27962148,-0.21084335,-0.078074835,0.06237316,-0.030760957,0.023848223,0.15093702,-0.04208559,-0.06995347,0.14101657,0.16949408,-0.10787925,-0.045227412,-0.1522314,0.09998807
ADI-47279,-0.082173556,-0.0073542506,0.033929575,-0.091179326,0.008074581,-0.11405878,-0.09204064,-0.18597811,-0.44673538,0.34804735,-0.023747515,0.041389428,0.14410701,0.14554837,0.06807903,-0.19155028,-0.008341067,-0.013717311,-0.34033817,-0.055248663,-0.09356897,0.07432587,0.13062109,0.008318594,-0.12506525,0.08488277,-0.11545429,-0.013732628,0.0939657,-0.05043408,-0.04680185,0.14915463,0.038193103,0.09094343,-0.14296499,0.16456346,-0.094698794,-0.2582996,-0.23651843,0.13180642,0.29925156,0.120028704,-0.15509997,0.026311178,-0.11227306,0.03383938,0.07857026,-0.25055733,-0.30154482,-0.06131232,0.21075921,0.19570364,-0.027910775,0.1319344,0.13504471,-0.17571138,0.09430642,0.045022175,-0.27350643,-0.04115184,-0.16369428,-0.0026253054,-0.050581526,0.053967636,-0.06051015,-0.056262106,0.15105788,0.10087358,-0.17172246,-0.049212594,0.1009992,0.2606373,0.009378422,0.11846673,-0.36046827,-0.11072679,-0.08588747,-0.021318344,-0.07393342,0.016627872,-0.05818627,-0.028762693,0.16488062,-0.09394795,0.02112708,-0.119070865,0.18722555,-0.025471846,-0.07904788,0.029208673,0.089395344,-0.15675767,-0.19076945,-0.11629504,0.14453572,0.0023423715,0.23572062,0.070410706,-0.2545977,0.014575016,-0.31697315,0.023246514,-0.046359442,0.0011508269,0.14789517,-0.10527337,-0.058287155,0.21194582,-0.11456441,-0.29847074,0.18255296,-0.24382436,-0.2861802,-0.31107098,0.064496495,0.18127184,-0.0011191401,0.19373985,0.06268992,0.05876234,-0.06256468,-0.040979367,-0.1337791,-0.2572021,0.06650714,-0.002011388,0.0047150063,-0.18045805,0.04568499,-0.11103774,0.095903255,-0.026720334,0.21421328,-0.15490815,-0.07532651,0.02176834,-0.011693351,-0.016538842,-0.12293477,-0.023136057,-0.16487283,-0.07572139,-0.06397243,0.0049313335,0.35372323,0.026809206,-0.1660725,0.037695218,0.22331008,-0.1083303,-0.07280454,-0.05558604,-0.039287124,0.20268247,-0.14251904,-0.053881012,0.01153753,-0.0004078464,0.07316551,-0.07543207,-0.2525287,0.082969666,-0.35420266,-0.024237368,-0.18089242,0.014296946,-0.0010446117,-0.12959254,0.09605443,0.20897785,-0.27449077,-0.12286954,-0.09938082,-0.07257144,-0.11455923,-0.026462868,0.46821517,0.07976891,0.26648912,0.25360104,0.176091,-0.045880746,-0.0043196524,-0.049683608,0.074304014,-0.17908698,0.35519645,-0.13452137,0.03940886,-0.19529088,-0.22893324,0.023351857,0.08847919,0.0074468097,0.09187939,0.038481172,-0.052655663,0.08074814,-0.13335566,-0.25927058,-0.09590858,0.32288522,0.08911778,0.23049982,0.016570747,-0.22974914,0.06480276,0.040185425,0.21307616,-0.10001099,0.066473365,-0.046431217,-0.12703818,-0.13907774,0.05029996,0.045369916,-0.24993412,0.06409306,0.0017153006,-0.057812262,-0.11879544,-0.07127688,-0.17035271,0.019216778,-0.18026312,-0.10862626,0.085720845,0.11026997,0.016022595,0.040580094,0.011290735,0.07286681,-0.1391942,0.0097897425,0.162146,0.053858407,-0.035529904,-0.06829573,-0.01096859,-0.07984529,0.1377421,-0.06639322,-0.09376285,0.105813734,-0.056291066,-0.2118773,-0.1205187,-0.09447174,0.056686874,-0.04719736,0.15711789,0.1805906,0.27488166,0.19770768,0.12165066,0.006508975,0.3211547,0.06630819,0.078994825,0.08487663,0.17344582,-0.07834976,0.049136776,0.00746755,0.06834761,-0.13298032,-0.17429242,-0.016506892,0.20853725,0.015183739,-0.0039786035,-0.08085374,-0.14191557,0.068573736,-0.17812397,-0.08051014,0.13171647,-0.20631412,0.17760244,-0.9684465,0.2573107,0.07778276,0.13552567,-0.036204506,-0.06502974,0.10079473,-0.07461819,-0.11645935,0.021453766,-0.007879992,-0.06145602,0.3905387,-0.04283483,0.17209226,-0.07800684,-0.0549628,0.006563912,-0.0011260178,-0.17714114,0.043717824,-0.14425088,-0.0019037907,0.07943464,0.1636293,-0.15717603,-0.036632262,0.27881956,0.01244004,-0.004122298,0.004139911,0.20472038,0.07981335,0.04416781,0.10315677,0.24062365,-0.2735124,0.038066916,0.0104600275,0.1640085,-0.08402563,-0.038377065,-0.07890705,-0.07837503,-0.06870711,-0.1973666,0.10953806,0.045564704,-0.052603003,0.3151167,-0.032043304,-0.11598535,-0.047113445,0.13370061,-0.08343854,0.07310752,0.021849185,-0.28661862,-0.17797934,-0.013605617,0.13778487,0.06408763,0.040584926,-0.005382213,0.0053114197,0.044084966,-0.25005305,-0.09167415,0.19411965,0.026028961,-0.10820286,-0.01033056,0.20544705,-0.04961025,-0.12599322,0.12405899,-0.080461234,0.01616677,-0.1148624,0.052219607,0.19493315,-0.23435126,-0.054139383,-0.073056914,0.14430875,0.164593,-0.01253963,0.17805707,0.09220551,-0.21024463,0.015565179,0.19413145,-0.0098197935,-0.16894111,0.15005447,0.30995777,0.026072908,0.11197934,-0.026847087,0.042859863,0.21364596,0.09096798,0.030581214,0.28043085,0.120513186,-0.09483737,-0.114627466,-0.13938677,-0.08588288,0.11168242,-0.122262426,0.02063284,-0.34173632,0.122067995,0.0032203067,0.043594386,0.24907035,0.2705567,0.22807503,0.12050653,-0.0012898966,0.13846603,0.16884243,0.19879179,-0.17338993,-0.14727579,0.18844126,-0.09264798,-0.06916585,0.080758214,0.1307738,-0.18004653,0.13265818,0.22155868,0.20437399,0.006434484,0.21995908,-0.13867031,-0.08711264,-0.018373257,-0.20853733,0.13722143,-0.09085903,0.047944773,-0.0025331248,0.09048971,0.043046467,-0.15531689,-0.067873515,0.09241688,0.19241844,0.16119476,0.053726774,-0.01788116,-0.07550356,-0.09984278,-0.05438134,-0.20241177,0.18002956,0.2527005,0.17183425,-0.037025694,-0.116218835,0.25891542,0.19551508,-0.15644552,-0.23254475,0.15633003,0.037736796,0.2184351,0.2732072,0.17243853,-0.12904017,0.12639923,-0.027986018,-0.02190501,0.108659655,-0.015846716,-0.03852155,-0.17079923,-0.41311294,0.16040792,-0.16817327,-0.04068207,0.10102108,-0.15107413,-0.11788797,0.0037380522,0.13175374,-0.044492267,0.08490399,-0.051171597,0.008648294,0.04795396,0.102730796,-0.133499,-0.020301066,-0.1516129,-0.051211044,-0.02124649,0.007017093,-0.22751132,0.24498849,0.1525663,-0.102886215,-0.3149056,-0.17435585,0.3335618,-0.037967186,0.072098784,0.2066268,0.21180081,0.07601394,0.14215869,0.13328138,0.03096498,-0.19335876,0.18958038,0.23224686,-0.26457974,0.21772957,0.23221949,-0.2704797,0.11605347,0.057587385,0.16997789,0.1689091,-0.012956476,0.05379432,-0.18570116,-0.073549114,0.07918692,-0.3224432,0.26372957,-0.22497247,-0.08148587,-0.007263671,0.10260119,-0.08882665,-0.06256229,-0.067590356,-0.3496035,-0.30619326,0.055902127,0.019851666,-0.1213739,0.402603,-0.21151297,-0.16066904,0.107354514,0.098828495,0.25580364,-0.10134299,0.082562864,-0.00929331,0.06208879,-0.075512566,-0.14642504,0.059356038,-0.2314177,0.008296333,-0.09833489,0.00033403852,0.12597336,0.14563793,0.035287425,0.121585615,0.044576433,-0.019825649,-0.30634812,0.13605535,-0.09206385,0.19886278,-0.059915442,3.7819438,0.26714563,0.09672111,0.018079668,-0.11420673,0.010857365,0.116750844,0.09898014,-0.120349824,-0.09794341,-0.05069942,0.024299486,-0.08173074,-0.19722828,0.015711445,-0.026074382,0.18167041,0.025495876,-0.22629707,0.054769255,0.037046064,-0.14734763,-0.12017129,-0.2789659,-0.071428075,-0.059353326,-0.012919584,0.001113379,0.24553573,0.011848252,-0.01995537,-0.09560718,0.121492684,0.02099391,-0.18572797,-0.17189193,-0.13627912,0.14777017,0.14695299,-0.1917411,-0.1417586,-0.15745933,-0.028248806,0.0015051549,-0.012671682,-0.043330427,-0.18144739,-0.15473418,0.043061346,-0.13747662,0.27002952,-0.12296289,0.082194425,-0.18695252,0.00806353,-0.076255,-0.007642109,0.36422363,-0.06839463,0.10578996,0.026105553,-0.15835692,-0.16155759,-0.20973714,-0.1416665,-0.05424083,-0.18008892,-0.058250852,0.04968049,-0.083086416,0.18006991,0.17967735,0.29338607,-0.16222084,-0.08007659,0.062918894,-0.074312784,0.09776642,0.13782354,-0.015447436,-0.0675836,0.24600862,0.15514363,-0.15001923,-0.0729459,-0.19193743,0.08795643
ADI-47057,-0.08474785,-0.030656742,0.024743099,-0.11077798,-0.048666038,-0.13604017,-0.057670295,-0.18009128,-0.37031937,0.29783595,-0.031902727,0.07968279,0.111396186,0.06557677,0.06641272,-0.20739822,0.007326089,-0.033807367,-0.34097925,-0.040794145,-0.16635394,0.0874265,0.096411675,0.0035985284,-0.063115545,0.06988925,-0.08029173,-0.09565465,0.09994935,-0.028877081,-0.051694274,0.16328245,0.07996845,0.098831385,-0.16118377,0.17901462,-0.10123843,-0.23266962,-0.19733286,0.14816995,0.28474894,0.11199325,-0.13535629,-0.05160198,-0.07982789,-0.021552587,0.107378446,-0.2844453,-0.25299194,-0.07675297,0.16108204,0.15416093,-0.036003016,0.13545053,0.00029581285,-0.13795322,0.17872855,0.04807339,-0.31461966,0.07399468,-0.14959599,-0.005559119,-0.012192744,0.073494285,-0.036420144,-0.009664321,0.17542757,0.06395729,-0.13248141,0.061305642,0.05220414,0.19080564,-0.0037814581,0.0859668,-0.32235008,-0.09208117,-0.07442618,-0.07105251,-0.042426124,-0.070049666,-0.01471226,-0.00633259,0.13437149,-0.013148874,-0.016872171,-0.14150332,0.2159854,-0.054609824,-0.12218881,0.07682465,0.09800788,-0.10226123,-0.16793562,-0.013344401,0.09685189,-0.045048304,0.24593963,0.04091973,-0.16601534,0.013701479,-0.2886862,-0.038129054,-0.049890343,0.0121223265,0.15989558,-0.10798465,-0.08631072,0.23760177,-0.1389616,-0.22149679,0.18259501,-0.2018916,-0.23627257,-0.3372873,0.07400577,0.12162957,0.00537134,0.14964193,0.017366542,0.090507686,-0.033107076,0.024278013,-0.10575798,-0.19595304,0.08989506,0.025730146,0.03369122,-0.19192852,0.04154802,-0.10070389,0.118030354,-0.001149797,0.1295987,-0.13580327,-0.14283971,0.026220025,-0.015155444,-0.023075085,-0.108152725,-0.080971174,-0.10878626,-0.12875217,-0.13235661,0.03435542,0.3901096,0.114865266,-0.0790627,0.016131924,0.25605378,-0.080014475,-0.11594365,-0.049869556,-0.0037021905,0.18035664,-0.057071593,-0.09800396,-0.055100545,-0.11206315,0.03968251,-0.075365536,-0.25908214,0.013835166,-0.2825358,0.018995328,-0.1406564,0.014123212,0.02061082,-0.088085085,0.068253376,0.20311998,-0.31385323,-0.058467768,-0.06014426,-0.03733349,-0.07185533,-0.029746134,0.42080197,0.029296603,0.21635528,0.2009376,0.102108784,0.016021494,-0.03725839,0.0020973906,-0.02651422,-0.17037438,0.30825514,-0.11940944,0.07974366,-0.22155538,-0.17487289,0.007920828,0.085030474,0.08674881,0.05781715,0.05269031,-0.051092397,-0.019342192,-0.094315305,-0.1956024,-0.12313249,0.3028501,0.07907123,0.13423288,0.047085334,-0.22600684,0.011366994,0.08121208,0.17540483,-0.009330742,0.07607952,-0.023021711,-0.18154891,-0.0739833,0.03256425,0.005066393,-0.18522753,0.07718195,0.014309268,-0.021012904,-0.020763783,-0.13851659,-0.18796518,0.022394698,-0.17760605,-0.08805978,0.088218555,0.109505594,0.07991678,0.061865762,-0.03593021,-0.010750911,-0.15387626,0.05538882,0.14603053,0.0021821908,-0.07118679,-0.007846674,0.014290096,-0.048207514,0.078935586,-0.043652106,-0.12706296,0.11318136,-0.014579166,-0.14277978,-0.07396061,-0.11414878,0.07604681,-0.013901516,0.15722658,0.18222906,0.19092551,0.16787994,0.115607426,-0.009686341,0.35558477,0.07238709,0.10227315,0.08792174,0.17489487,-0.025801621,-0.037931357,0.018214755,0.14710434,-0.127416,-0.10204147,-0.027185084,0.20322283,0.08566633,-0.045346297,-0.074081935,-0.09479754,0.036657136,-0.14983915,-0.13039652,0.06671545,-0.22833091,0.1967475,-0.86685216,0.18310404,0.103805706,0.12279864,-0.022077842,-0.06905891,0.09057718,-0.05223471,-0.097116776,-0.0028739236,-0.018852131,0.010427759,0.38098484,-0.046527345,0.13953526,-0.097177796,-0.029072203,-0.010637285,0.024983488,-0.19223574,0.015666429,-0.11867608,0.020736793,0.052623704,0.15214449,-0.16126525,-0.11520282,0.19836433,-0.004772398,0.015452148,-0.032978132,0.19154818,0.084773034,0.014843125,0.13940278,0.18014188,-0.2900593,0.0041967942,-0.017354924,0.13464476,-0.029764106,0.109363765,-0.033565786,-0.14815193,-0.08693138,-0.157932,0.09253523,0.011538488,-0.05459013,0.3539416,-0.01347288,-0.072182864,-0.072487995,0.10479944,-0.059912153,0.014922189,0.07649092,-0.26178002,-0.17754821,-0.0044734273,0.07790823,0.110906884,0.08518985,-0.022489265,-0.01940487,-0.007829549,-0.20808549,-0.08362112,0.07734711,-0.014266407,-0.03925834,-0.02089008,0.14396821,-0.065573685,-0.11868737,0.08176475,-0.035866242,0.03749526,-0.05809512,0.04520691,0.17018364,-0.29126203,-0.017462643,-0.085149035,0.15853053,0.22192058,-0.009971035,0.20830263,0.07698142,-0.18859418,0.047384765,0.12782452,-0.0480424,-0.1968393,0.13666308,0.20690294,0.0130854165,0.1519981,0.04633147,0.01812014,0.13572605,0.13202196,0.046525564,0.20426412,0.08720684,-0.0668821,-0.10517282,-0.1457145,-0.05529124,0.053079132,-0.02351401,0.020656938,-0.2134198,0.10691594,0.062572345,0.06171356,0.1812333,0.18118504,0.25901818,0.052250516,0.07237481,0.13984239,0.05054331,0.1793198,-0.19828999,-0.11859639,0.14196372,-0.122593746,-0.029383317,0.09704053,0.06127987,-0.17636701,0.07582481,0.12877618,0.16469468,0.03946885,0.18087095,-0.021848653,-0.06237799,0.008039205,-0.15343587,0.22543152,-0.17156525,0.029584885,0.032322194,0.10071504,0.103381366,-0.14746168,-0.0977224,0.13556741,0.17835854,0.1620602,0.055002782,-0.10312068,-0.065597706,-0.093291014,-0.06428985,-0.2489899,0.11320368,0.24189253,0.14751337,-0.008066537,-0.11031547,0.2685811,0.24023384,-0.14927775,-0.16989672,0.16714072,0.055947017,0.18927045,0.24735656,0.09503916,-0.1433354,0.06520511,-0.014071454,-0.005933005,0.07137471,-0.013478292,0.034542456,-0.19363515,-0.36687085,0.13318643,-0.12741046,-0.12759668,-0.02217896,-0.12053752,-0.04206447,0.0030131713,0.18726434,-0.062690705,0.037468065,-0.0030958033,0.079200625,0.06820971,0.054434095,-0.15313016,0.09322439,-0.13755551,-0.025039807,-0.022630196,-0.064683706,-0.2760688,0.23706366,0.12868403,-0.11121768,-0.3215338,-0.22109719,0.35314015,-0.012125757,-0.06195471,0.11265551,0.21529897,0.08260835,0.14925465,0.06716822,0.13123961,-0.12259278,0.24805318,0.21762966,-0.23769082,0.2130717,0.17111978,-0.26270798,0.05342895,0.034379236,0.104835145,0.21310064,0.031968586,0.093206145,-0.1500926,-0.095414855,0.01754241,-0.33364978,0.20542726,-0.18345225,-0.08355464,0.024541369,0.15002903,-0.08438522,-0.026071286,-0.0610319,-0.2880913,-0.28328645,0.016268933,0.047173157,-0.09602241,0.28329164,-0.1239618,-0.12251163,0.16113554,0.13320218,0.16533582,-0.13937561,0.09645642,-0.020279441,0.034784593,-0.068911225,-0.11414124,0.047959786,-0.14589411,-0.040376034,-0.12863803,0.033319972,0.11470014,0.09226551,-0.032418624,0.16862634,0.071845435,-0.095382094,-0.32397243,0.062032375,-0.1461418,0.11358861,-0.083699994,4.2404537,0.2283864,0.06572077,-0.01803244,-0.018720785,0.03482424,0.14673926,0.08199298,-0.13271442,-0.1561796,-0.07192892,0.03322432,-0.033594698,-0.19178435,0.08114651,0.015966984,0.12276422,0.079890385,-0.25403893,0.06743956,0.05129291,-0.16729218,-0.054056287,-0.3051421,-0.08952659,-0.01806943,-0.030835515,-0.0011516013,0.25813758,0.014087558,0.011224127,-0.10187013,0.067786135,0.048570756,-0.1924086,-0.067417525,-0.19018911,0.13923916,0.11596931,-0.17069073,-0.13504581,-0.17724565,-0.07810593,-0.06622009,-0.025643801,-0.09661998,-0.18155609,-0.14285092,0.03274316,-0.056838505,0.2420635,-0.12644555,0.11516857,-0.22465795,0.0044654193,-0.06076539,0.062356807,0.347087,-0.06338394,0.13000453,0.019721212,-0.16942279,-0.13487546,-0.2025175,-0.12974927,-0.057437394,-0.16974951,-0.026646668,0.10538729,-0.08519482,0.10143454,0.11390253,0.2182993,-0.20198995,-0.098901935,0.032202773,0.0013241556,0.084466286,0.13503802,-0.0034607213,-0.10567394,0.17361079,0.16062321,-0.093635865,-0.0033773729,-0.20123397,0.09492325
ADI-47280,-0.10110341,-0.024541652,0.025941646,-0.11694214,-0.025518226,-0.14343612,-0.029924061,-0.19393036,-0.38041842,0.26483858,0.011973889,0.08265347,0.14256103,0.108636506,0.0914929,-0.24834582,0.0039302893,-0.038050193,-0.33909947,-0.016740825,-0.09471482,0.079901256,0.08499794,-0.02223865,-0.057798963,0.06348162,-0.11098446,-0.02511926,0.06836433,-0.0025471349,-0.052128933,0.16510105,0.08026853,0.07396733,-0.15235531,0.18670522,-0.06704601,-0.2418903,-0.20063274,0.16964434,0.23767446,0.07364711,-0.13138615,0.017671848,-0.10547441,-0.005858067,0.08502432,-0.2529036,-0.24995787,-0.11598363,0.12935913,0.1940244,-0.039331958,0.13372408,0.057285205,-0.15636887,0.123772226,0.08546672,-0.22948225,0.031173198,-0.19177306,0.008850788,-0.0010427743,0.08552083,-0.011214257,-0.035153262,0.21925054,0.11960898,-0.11387787,0.03057765,0.06630778,0.2592626,0.03052353,0.065479465,-0.28647545,-0.10486893,-0.106093,-0.04245045,-0.06510386,-0.03507009,-0.057590634,-0.051290628,0.15723355,-0.07549889,-0.028918888,-0.14219087,0.19545557,-0.06165828,-0.04455817,0.060117643,0.067519,-0.11952509,-0.14233989,-0.001253994,0.10006683,-0.05567818,0.2551231,0.045411903,-0.16675703,0.018058289,-0.32569164,-0.019462701,0.016702978,-0.039407898,0.1731572,-0.11961268,-0.044251498,0.2038017,-0.11192569,-0.21337639,0.23961096,-0.2132325,-0.23793203,-0.32776266,0.053608555,0.07637256,-0.02556714,0.21252073,0.036107175,0.019673007,0.00832142,-0.017523043,-0.1230048,-0.20524503,0.04953979,0.05779986,0.056406513,-0.17839368,0.046053324,-0.12125212,0.080299765,0.027488042,0.20112172,-0.1519075,-0.1396123,0.020057166,-0.029175889,0.00022867654,-0.124952346,-0.037365895,-0.11084133,-0.16959421,-0.119788826,0.012956846,0.33652937,0.09496978,-0.13131565,0.06540852,0.247112,-0.08186989,-0.10712023,-0.062451668,-0.014691726,0.15153304,-0.07097198,-0.09803922,-0.011417722,-0.03644429,0.03558921,-0.015534009,-0.28873006,-0.003618153,-0.26461056,0.004739267,-0.1641938,0.014572567,-0.0056367614,-0.12673518,0.043240376,0.20064147,-0.27886534,-0.11916906,-0.06879731,-0.060036916,-0.038908865,-0.01888269,0.4007891,0.02603766,0.23430078,0.17708546,0.20637847,0.019842839,-0.014452049,-0.051807836,-0.010434724,-0.21909246,0.27743602,-0.12803663,0.06678796,-0.2450005,-0.16400778,0.0031555516,0.08416305,0.06869424,0.070414566,0.043934654,-0.057522923,-0.003605348,-0.13523944,-0.22826079,-0.08913289,0.26976037,0.03861735,0.20115153,0.031301383,-0.24026337,0.015077011,0.0484751,0.15975706,-0.028507188,0.08851509,-0.03817061,-0.15763359,-0.10301305,0.06888626,0.029769901,-0.22959965,0.13577221,0.04445514,0.008357032,-0.06631832,-0.17328377,-0.20340504,0.025092984,-0.16543347,-0.08097,0.08615189,0.09132031,0.044522073,0.07033481,-0.012586553,0.023970269,-0.18363029,0.0756324,0.13326448,-0.00488197,-0.048684325,-0.011914205,-0.052238036,-0.017002497,0.10524563,-0.06569579,-0.10003175,0.13051483,-0.02352533,-0.21777688,-0.090037175,-0.08207564,0.100338936,-0.012146831,0.18727921,0.16772299,0.23318946,0.1944322,0.17410524,0.013042724,0.3359122,0.07864909,0.09222063,0.107442036,0.13921435,-0.029455127,0.009625333,0.014940196,0.05459854,-0.1542979,-0.12149509,-0.052705698,0.16716948,0.04983368,0.0027689403,-0.06949216,-0.06506895,0.019535573,-0.19861881,-0.10358625,0.14200899,-0.19470206,0.16860828,-0.95744544,0.19515882,0.04288063,0.1441009,-0.051583108,-0.03945974,0.09419078,-0.116297305,-0.061868716,0.015100674,-0.006063189,0.027815787,0.34249824,-0.042346988,0.1451852,-0.13277754,-0.06358068,-0.021657428,-0.0011014116,-0.21957241,0.026511736,-0.13503687,0.07731275,0.03655422,0.112946495,-0.19076718,-0.094480425,0.22999765,-0.0014291384,-0.029116496,-0.006671581,0.1504739,0.06468336,0.02704322,0.124922216,0.16457964,-0.27798823,-0.041518703,0.004838696,0.16233566,-0.07300043,0.060083106,-0.11778287,-0.16492039,-0.081248365,-0.1464678,0.056832664,-0.018215736,-0.028228434,0.36747417,-0.056085523,-0.07420096,-0.08339173,0.14155348,-0.07010682,0.008124301,0.050127514,-0.25428557,-0.16847678,0.0019691018,0.083859004,0.08493304,0.1100038,0.027061872,0.015687607,0.008798084,-0.19878957,-0.018179365,0.17107879,0.02546725,-0.05151668,0.026920712,0.13889506,-0.044339437,-0.12199041,0.08377016,-0.07210297,0.026790842,-0.08355109,0.009640866,0.19803426,-0.2798571,-0.021742366,-0.05808764,0.14604299,0.19600332,0.01639409,0.23488773,0.1124592,-0.21341684,0.041147538,0.15871383,-0.05667438,-0.17283207,0.13116372,0.20798153,0.03275825,0.13761409,-0.002943316,0.03635571,0.21233967,0.18424152,0.016376529,0.2423053,0.025223449,-0.06994618,-0.067581065,-0.13189733,-0.03784688,0.019610057,-0.08498026,0.023692794,-0.23792718,0.10342438,0.06605544,0.057732243,0.1735031,0.19012578,0.26268533,0.11557526,0.07077335,0.16208313,0.15115328,0.13841473,-0.1546923,-0.10641812,0.19603364,-0.08959476,-0.022769239,0.10377165,0.09348952,-0.13251802,0.076676816,0.20957102,0.15015268,0.04918421,0.15881357,-0.042489,-0.089519896,-0.011520268,-0.20578167,0.17385417,-0.120492354,0.034831386,0.038741995,0.07842033,0.117993034,-0.159213,-0.0723739,0.115779795,0.18477738,0.12567894,0.04731255,-0.050312858,-0.08159825,-0.14444798,-0.06363564,-0.25137237,0.15988894,0.2482891,0.14115898,-0.013353681,-0.12094289,0.30424908,0.19781454,-0.18674286,-0.18122603,0.1779901,-0.022514893,0.2031938,0.25862586,0.11425825,-0.092638865,0.0912539,-0.050248545,0.03716615,0.061104193,0.008988769,-0.0043192417,-0.17553547,-0.3822935,0.13540228,-0.09301566,-0.07983237,-0.018778991,-0.16354169,-0.058846354,0.026971923,0.20231837,-0.06396842,0.10565905,-0.046654653,0.04683468,0.043693066,0.03635284,-0.13953741,0.08288959,-0.13314472,-0.040101815,-0.026058236,-0.018021287,-0.23768623,0.21121806,0.12232833,-0.12853955,-0.3048322,-0.22974484,0.34952158,-0.02072084,-0.043404166,0.11029558,0.2294965,0.06440779,0.16682908,0.06150253,0.06667544,-0.21366446,0.23896988,0.21999884,-0.23498274,0.2428786,0.1688939,-0.2855631,0.09384154,0.04824441,0.15119049,0.2040602,0.0121222325,0.058453795,-0.16707048,-0.06945667,0.036955062,-0.30338645,0.24952011,-0.16152649,-0.09905917,0.021920452,0.12348103,-0.058590308,-0.04183465,-0.0072871144,-0.26375794,-0.25898865,0.04675453,0.016067244,-0.11454301,0.27824193,-0.17413229,-0.18612464,0.07302777,0.1168345,0.18808591,-0.13655312,0.100639835,-0.03498849,0.014464504,-0.010835926,-0.113546915,0.09261974,-0.17263955,-0.024905637,-0.09323965,0.03324851,0.12701668,0.13325308,-0.011013742,0.15528715,0.029008582,-0.06003823,-0.35410073,0.086832374,-0.15001115,0.10438517,-0.07993252,3.9988697,0.22806399,0.0656674,-0.02141466,-0.042732198,0.004498178,0.16111223,0.057620876,-0.117152415,-0.08832413,-0.07875562,0.10032009,-0.094848886,-0.18779638,0.030360166,-0.00874522,0.21552284,0.056276824,-0.22160569,0.046143368,0.05239956,-0.13905846,-0.076078646,-0.2635864,-0.046044562,-0.021991134,-0.027261363,-0.03126709,0.29746196,0.063561216,-0.021320961,-0.08646131,0.06474751,-0.009034705,-0.2329529,-0.11301385,-0.13829592,0.07938428,0.114225395,-0.15579079,-0.14966892,-0.15291779,0.001418239,-0.065569215,0.01865144,-0.07802916,-0.17304401,-0.19054419,0.044113852,-0.05859471,0.20740877,-0.09450803,0.088392526,-0.22200118,0.043752432,-0.058571372,0.028081909,0.31759325,-0.08976278,0.09270675,0.020403111,-0.15010767,-0.13736822,-0.2504284,-0.12266142,-0.093000464,-0.17363155,-0.080251016,0.06507068,-0.10731684,0.13440517,0.1060801,0.31379226,-0.18292801,-0.08820208,0.07966078,-0.024664035,0.045380592,0.14434542,-0.04315262,-0.05006681,0.13070524,0.14368969,-0.099972196,-0.048800513,-0.14924139,0.09173125
ADI-47058,-0.09498285,0.015579802,-0.0026731885,-0.07019313,-0.0456767,-0.15152659,-0.11046124,-0.14352629,-0.33989075,0.26873818,0.011026495,0.08984467,0.12477042,0.0624331,0.08873112,-0.18695992,0.009767699,-0.033240065,-0.2538503,-0.08109873,-0.043092564,0.03233003,0.06852299,-0.0024546126,-0.085190155,0.104494184,-0.08099533,-0.0021234928,0.10014594,-0.044953067,0.042176127,0.1153119,0.08274466,0.06291141,-0.14606854,0.13996437,-0.1180055,-0.23361494,-0.17496786,0.1935014,0.2890023,0.07114996,-0.18572779,0.008910383,-0.09436174,0.04411091,0.0753035,-0.26435885,-0.16343492,-0.034928437,0.15673372,0.18048371,-0.02314047,0.14517415,0.109964065,-0.16748695,0.07783033,0.028434549,-0.27290702,-0.018467149,-0.21029745,0.07962303,-0.06882299,0.07170247,-0.05160684,-0.07426313,0.1684757,0.116383836,-0.101690896,-0.059561048,0.0453138,0.25383693,0.0081223035,0.12463956,-0.23022623,-0.10340053,-0.14975204,-0.041238204,-0.06260719,-0.019703208,-0.071390934,-0.03314937,0.24198161,-0.052734867,-0.013079309,-0.104188286,0.13454726,-0.008198028,0.009420372,-0.03645238,0.07260957,-0.030167112,-0.19028708,-0.065630645,0.11521094,-0.048824664,0.22637703,0.045097087,-0.16609854,0.036837224,-0.27333295,0.0024112705,0.07408163,0.0052728765,0.14420363,-0.110703334,-0.015829345,0.15877752,-0.12256174,-0.22539692,0.22741503,-0.219336,-0.17738502,-0.35949156,0.053258203,0.076486506,0.003103356,0.17577471,0.02251599,0.079062395,-0.03976688,-0.037262194,-0.13359167,-0.27049965,0.010819991,0.048920043,0.039203614,-0.12223732,0.034712154,-0.09299151,0.06027236,-0.005564884,0.24593103,-0.15742426,-0.085239515,-0.023733271,0.01928053,-0.07572675,-0.110617146,-0.026820922,-0.13746391,-0.16869019,-0.092165954,0.08817514,0.3050109,-0.011632078,-0.14128272,0.09990312,0.1749346,-0.044268828,-0.032829367,0.011522146,-0.084097594,0.15951888,-0.1574521,-0.024345247,0.012073082,0.012614816,0.08698991,0.016061805,-0.22442104,-0.07731771,-0.24992071,-0.062305514,-0.1561243,0.018111799,-0.02847256,-0.11503224,0.0822987,0.18522279,-0.25982517,-0.092014946,-0.038343932,-0.05456106,-0.11065541,0.032118946,0.367357,0.049099185,0.21551181,0.2135454,0.21427783,-0.054756455,0.009609132,-0.07328843,0.040122088,-0.14968596,0.30258733,-0.13782632,0.019238945,-0.22073787,-0.15710938,0.009407238,0.04278141,0.040791307,0.12706849,0.09940609,-0.061968908,0.0768007,-0.13204335,-0.11714538,-0.07658884,0.27002546,0.052732382,0.19890702,0.0051004984,-0.2510207,0.015870329,-0.02622996,0.14976576,-0.10139286,0.0416579,-0.08272558,-0.21865994,-0.12424331,0.029603766,0.07300815,-0.2552237,0.14321898,-0.005935892,-0.03459786,-0.06337658,-0.1059494,-0.1342596,0.029032953,-0.08899355,-0.12879689,-0.0023884596,0.07281661,0.103077255,0.056932524,0.040250417,0.07381388,-0.16970824,0.055648193,0.16384687,0.040844362,-0.020280495,-0.011028321,-0.054041862,-0.038647883,0.09001645,-0.09781327,-0.076205246,0.08248517,0.004277206,-0.24960259,-0.076784365,-0.064377435,0.045594625,-0.07087013,0.14015782,0.056901783,0.21155488,0.2571161,0.13731878,-0.0942937,0.23208229,0.042115346,0.07999206,0.0545273,0.1470996,-0.051730964,0.024969153,-0.0570395,0.022071075,-0.16597395,-0.17158678,-0.033194248,0.17400436,0.06778906,0.03918202,-0.064685576,-0.14367716,0.071326226,-0.14651173,-0.13059835,0.09914697,-0.18189046,0.1253565,-1.1926134,0.23472974,0.04141791,0.17792073,-0.031103797,-0.029266182,0.12939858,-0.13669062,-0.035010215,-0.043201853,0.0072024707,-0.06165889,0.3594403,-0.032145355,0.15097465,-0.050205156,-0.08582433,-0.026181009,-0.028296342,-0.19614553,0.0744898,-0.01760758,0.0932797,0.06730145,0.12009615,-0.09053287,-0.027353458,0.21765448,0.0151015865,0.020260181,-0.04559954,0.11436769,0.09540019,0.03914504,0.123233974,0.25553492,-0.22339185,0.042091474,0.030416463,0.17861316,-0.08326207,-0.00035967486,-0.14622277,-0.122060284,-0.050565552,-0.18000963,0.07089862,-0.023592027,-0.08763213,0.2874923,0.0032852401,-0.029041039,-0.13472305,0.1595245,-0.007977234,0.10752176,0.0014219361,-0.21986638,-0.17807749,-0.003367323,0.1311047,0.0861938,0.023044467,-0.06009132,0.045356914,-0.034201093,-0.21457109,-0.045004535,0.15969485,0.1389644,-0.1781556,-0.011062424,0.20530216,-0.08100171,-0.13713068,0.09062442,-0.08010751,0.04614155,-0.075356625,0.061894756,0.2897193,-0.16206141,-0.024404312,0.0022858994,0.13216431,0.21297386,-0.03265891,0.118349016,0.13056944,-0.21167167,0.05069143,0.14106268,-0.016825395,-0.1344112,0.16646853,0.20470029,0.004845065,0.097109206,-0.0722089,0.0904409,0.21425657,0.161945,0.0149206305,0.25740746,0.0771976,-0.051352557,-0.088522896,-0.07285686,-0.05041781,0.079790145,-0.13180886,-0.021680638,-0.24890712,0.040864352,0.08951244,-0.004272154,0.13133822,0.18075542,0.17395708,0.14468095,0.011343517,0.13301486,0.19433184,0.09596424,-0.09235528,-0.18175146,0.18489754,-0.08567255,-0.07190479,0.08185426,0.116184674,-0.084307365,0.100326665,0.21792309,0.2011966,-0.0033080115,0.128922,-0.031764314,-0.014529332,-0.08944036,-0.23954703,0.06006734,-0.046115134,0.05227541,-0.018686274,0.03702469,0.008628291,-0.16407487,-0.053712994,0.09229299,0.11038527,0.12105215,0.0049844827,-0.021922227,-0.08074862,-0.08800357,-0.005378424,-0.19333635,0.15894316,0.24983561,0.13932006,-0.025136068,-0.10053019,0.24105044,0.16083767,-0.109132774,-0.21377164,0.096377276,0.026317937,0.14368322,0.22880328,0.13696082,-0.079818614,0.09068247,-0.10563234,0.069890626,0.12113655,0.054105688,-0.07872825,-0.17907731,-0.3500156,0.12835445,-0.07524506,-0.035403512,0.033117086,-0.13056625,-0.0644535,0.07249842,0.15861142,-0.043626517,0.10624611,-0.041983183,-0.025593178,0.015041975,0.07102916,-0.13494404,-0.064272255,-0.13838854,0.0027165192,0.037578184,0.056164328,-0.20104368,0.18225811,0.18765748,-0.06823599,-0.26964813,-0.1824685,0.31219476,-0.074498616,0.124450736,0.124478325,0.16180569,0.048094157,0.13200529,0.1664665,-0.044449154,-0.1620847,0.14010704,0.2043822,-0.1844594,0.2570035,0.13779831,-0.2726797,0.099813946,-0.022269312,0.17312182,0.19045211,-0.0050607803,0.07206636,-0.14919259,0.008216643,-0.040415056,-0.25017333,0.25769833,-0.124584585,-0.036909807,-0.015957601,0.10332128,-0.05518939,-0.042656455,-0.061620638,-0.2977463,-0.2274155,0.11144597,-0.015756505,-0.08535074,0.36260548,-0.15508488,-0.18436739,-0.011246946,0.13411453,0.24883021,-0.08644348,0.09771061,-0.015107663,0.050162315,0.0026949358,-0.17981225,0.038592175,-0.13504174,-0.029332625,-0.11640806,0.024812954,0.10992769,0.13363937,-0.0367534,0.07508404,0.060584392,-0.0010536026,-0.33386478,0.074064925,-0.122274294,0.16557635,-0.09535498,4.2429743,0.16742866,0.087403536,0.056330685,-0.06979637,-0.04091258,0.108807355,0.05947371,-0.09941049,-0.08382564,-0.0745306,0.08586133,-0.07686348,-0.19519144,-0.0120582245,-0.08932578,0.19517358,-0.016162882,-0.18772125,0.05092222,0.07240022,-0.13885829,-0.028279252,-0.21256723,-0.017549613,-0.0777253,-0.021034086,-0.0053492864,0.26932046,-0.036586247,-0.047944337,-0.08096142,0.07213444,-0.028405003,-0.18835647,-0.21141116,-0.07451095,0.061194446,0.1092918,-0.15315263,-0.10668808,-0.0925307,-0.004397484,0.00069903996,-0.045512013,-0.0687705,-0.1767454,-0.22138293,0.005548123,-0.061285753,0.2915722,-0.0914045,0.035687726,-0.1894593,0.006443408,-0.10848459,-0.0050493665,0.29423806,-0.02477744,0.024482545,0.049881324,-0.083318055,-0.11719554,-0.23821792,-0.14669274,-0.057728164,-0.214913,-0.050935842,0.031113205,-0.07976124,0.18793415,0.020037055,0.31818548,-0.200612,-0.0746259,0.028661942,-0.07770551,0.031257447,0.13193782,-0.059847668,-0.05708296,0.15462485,0.11879677,-0.10004166,-0.107854225,-0.16969006,0.068804495
